-6.618918478488922119e-02
7.434390485286712646e-02
1.029281702358275652e-04
-8.822091668844223022e-02
1.700032651424407959e-01
-8.932291716337203979e-02
-9.784937649965286255e-02
-5.108163878321647644e-02
9.663359820842742920e-02
-3.192971050739288330e-01
-2.396579682826995850e-01
3.828321397304534912e-02
1.356545556336641312e-02
-6.774126738309860229e-02
-4.332427307963371277e-02
2.187712639570236206e-01
9.691412001848220825e-02
9.776759892702102661e-02
-5.704123154282569885e-02
-2.530054748058319092e-01
-2.451394498348236084e-01
-1.360479593276977539e-01
2.834365703165531158e-02
-1.231609657406806946e-01
-5.069101229310035706e-03
8.246534317731857300e-02
-1.208015754818916321e-01
1.565272063016891479e-01
-1.171921864151954651e-01
-1.229549795389175415e-01
-1.596424914896488190e-02
-1.802432984113693237e-01
1.850965619087219238e-02
-1.268066912889480591e-01
1.402140110731124878e-01
5.216472223401069641e-02
-2.146276980638504028e-01
-1.632233113050460815e-01
1.536782383918762207e-01
2.113724499940872192e-01
9.531564265489578247e-02
-1.176608651876449585e-01
2.291373312473297119e-01
-1.632400751113891602e-01
-1.901587247848510742e-01
1.548408269882202148e-01
4.139915481209754944e-02
-8.264099061489105225e-02
3.222674131393432617e-02
-1.341320425271987915e-01
3.902701660990715027e-02
-1.356726288795471191e-01
6.375521421432495117e-02
1.541841179132461548e-01
-1.114769950509071350e-01
-7.089897245168685913e-02
1.831266433000564575e-01
2.151579409837722778e-01
1.910957247018814087e-01
-8.022256195545196533e-03
1.405766904354095459e-01
1.511941384524106979e-02
-1.904432326555252075e-01
4.888287186622619629e-02
-1.748521775007247925e-01
-2.470291554927825928e-01
-7.142665237188339233e-02
9.332098066806793213e-02
2.137821912765502930e-01
5.435294657945632935e-02
2.645097672939300537e-01
1.507004201412200928e-01
-1.578552126884460449e-01
3.125353157520294189e-02
6.393878906965255737e-02
-1.024675145745277405e-01
-1.346901208162307739e-01
-2.728256881237030029e-01
1.346851736307144165e-01
5.391832068562507629e-02
3.923067823052406311e-02
-1.340537425130605698e-02
-5.598616972565650940e-02
-2.895051240921020508e-02
-5.374176800251007080e-02
-1.178418993949890137e-01
-1.877574622631072998e-01
-9.572649374604225159e-03
-5.816468037664890289e-03
4.323404282331466675e-02
2.320610731840133667e-02
1.890573799610137939e-01
1.146824732422828674e-01
-2.763629332184791565e-02
1.219400689005851746e-01
2.200929969549179077e-01
3.314431384205818176e-02
6.321783363819122314e-02
3.310653939843177795e-02
-8.489561080932617188e-02
-1.017445623874664307e-01
-4.601343721151351929e-02
-6.719455868005752563e-02
-1.208231374621391296e-01
-9.406463056802749634e-02
-2.494388259947299957e-03
9.055226296186447144e-02
8.488614857196807861e-02
2.384121157228946686e-02
1.227791234850883484e-01
-1.834663003683090210e-02
2.121604792773723602e-02
1.687715649604797363e-01
1.057432889938354492e-01
-1.815623641014099121e-01
-3.250010078772902489e-03
-1.059058085083961487e-01
1.614190191030502319e-01
-5.182386934757232666e-02
-1.459066867828369141e-01
2.498786523938179016e-02
-1.714482158422470093e-01
1.508910115808248520e-02
8.618795871734619141e-02
-3.034095466136932373e-02
4.979205131530761719e-02
1.133738532662391663e-01
2.155219018459320068e-01
4.426998645067214966e-02
1.586253941059112549e-01
2.014463990926742554e-01
8.689442276954650879e-02
-1.374260336160659790e-01
1.449488699436187744e-01
-9.885320067405700684e-02
-5.644911527633666992e-02
-2.179576158523559570e-01
-4.598465189337730408e-02
-2.397106587886810303e-02
-1.542684584856033325e-01
-7.893988490104675293e-02
2.092879861593246460e-01
1.897748559713363647e-01
1.316206306219100952e-01
9.926480799913406372e-02
-7.700788974761962891e-02
4.886319860816001892e-02
1.106998771429061890e-01
-1.599084883928298950e-01
4.010443016886711121e-02
1.200630515813827515e-01
-7.639559358358383179e-02
1.976053416728973389e-02
7.815555669367313385e-03
-6.642490625381469727e-02
-3.228011727333068848e-02
-1.004595234990119934e-01
-1.592268422245979309e-02
2.619629725813865662e-02
1.121092140674591064e-01
-1.388839632272720337e-01
-8.116930723190307617e-02
-2.039961144328117371e-02
2.834054082632064819e-02
-4.032608568668365479e-01
1.003841608762741089e-01
1.541907042264938354e-01
-1.498780995607376099e-01
-6.570100085809826851e-04
3.216843903064727783e-01
-5.916722118854522705e-02
-4.538333788514137268e-02
1.817802637815475464e-01
-1.273837983608245850e-01
-8.848801255226135254e-02
2.846981585025787354e-01
-6.850045919418334961e-02
-1.031762510538101196e-01
3.417387008666992188e-01
-4.152685776352882385e-02
-1.294831782579421997e-01
5.087057501077651978e-02
7.649083435535430908e-02
3.733467683196067810e-02
4.059720411896705627e-02
-2.703891508281230927e-02
8.658114820718765259e-02
4.254167433828115463e-03
-6.120463088154792786e-02
1.253197994083166122e-02
-5.514592304825782776e-02
-1.499345600605010986e-01
1.186038367450237274e-02
3.193095698952674866e-02
-1.078614443540573120e-01
-9.477112442255020142e-02
1.366347521543502808e-01
1.310401409864425659e-02
-3.753345226868987083e-03
-1.289272494614124298e-02
-4.952997714281082153e-02
-9.331839531660079956e-02
-6.591144204139709473e-02
-2.952370047569274902e-01
-2.494591847062110901e-02
1.404302660375833511e-02
-3.919696807861328125e-01
-9.526498615741729736e-02
1.415579617023468018e-01
-1.048844456672668457e-01
-1.600563675165176392e-01
5.485165491700172424e-02
-9.170295298099517822e-02
-1.515891999006271362e-01
7.958265393972396851e-02
1.168528571724891663e-02
7.015442848205566406e-02
-1.170528978109359741e-01
-1.452206671237945557e-01
9.294090792536735535e-03
2.081919088959693909e-02
-1.529216766357421875e-01
9.062047302722930908e-02
3.951677307486534119e-02
-3.021152690052986145e-02
-1.564010083675384521e-01
-4.321385920047760010e-02
3.607023740187287331e-03
-6.474573910236358643e-02
-6.071146205067634583e-02
-1.703871786594390869e-01
4.661301895976066589e-02
1.548390835523605347e-01
-6.434954702854156494e-02
2.680164873600006104e-01
5.586810708045959473e-01
2.660709917545318604e-01
2.760463953018188477e-01
2.967229783535003662e-01
2.086609303951263428e-01
2.046825736761093140e-02
-1.628827303647994995e-02
3.152877092361450195e-01
2.884084358811378479e-02
4.219302441924810410e-03
-7.985528558492660522e-02
1.351768225431442261e-01
6.262484192848205566e-02
-4.477601498365402222e-02
8.933824300765991211e-02
1.888547241687774658e-01
-6.677244603633880615e-02
-9.398972243070602417e-02
-7.019161712378263474e-03
-2.535295486450195312e-02
1.004105359315872192e-01
1.481782086193561554e-02
-5.073805898427963257e-02
8.578728139400482178e-02
-8.949155360460281372e-02
-9.967062622308731079e-02
2.157818898558616638e-02
1.406271755695343018e-01
9.878817014396190643e-03
5.910666286945343018e-02
-1.211822256445884705e-01
4.007386788725852966e-02
1.387080103158950806e-01
-3.318188944831490517e-03
-1.508151292800903320e-01
-1.380193606019020081e-02
2.503236383199691772e-02
1.948909908533096313e-01
-4.402766376733779907e-02
-1.323032379150390625e-01
-1.538003422319889069e-02
-2.886108122766017914e-02
9.925561398267745972e-02
5.686043202877044678e-02
-1.692954897880554199e-01
4.720852151513099670e-02
5.419364199042320251e-02
1.205569952726364136e-01
1.648148447275161743e-01
8.332848548889160156e-02
-1.048896387219429016e-01
-1.905520707368850708e-01
-8.934722095727920532e-02
-1.071006879210472107e-01
7.401409000158309937e-02
5.109513550996780396e-02
5.196250230073928833e-02
1.097345426678657532e-01
-1.469572186470031738e-01
1.506354510784149170e-01
5.064739659428596497e-02
1.348885744810104370e-01
-1.461672484874725342e-01
2.471264824271202087e-02
7.936563342809677124e-03
-1.560016870498657227e-01
-1.395211815834045410e-01
2.888079918920993805e-02
-1.345962435007095337e-01
-2.706472873687744141e-01
9.473516047000885010e-02
-2.308015823364257812e-01
1.605006605386734009e-01
3.102281689643859863e-01
3.570462763309478760e-02
-1.377350836992263794e-01
2.522690296173095703e-01
-2.114671319723129272e-01
-2.246365249156951904e-01
-1.309790611267089844e-01
-3.190219774842262268e-02
-1.936948150396347046e-01
2.000925540924072266e-01
-2.524647861719131470e-04
-1.173340482637286186e-03
1.632952094078063965e-01
-3.221802413463592529e-02
-5.783498659729957581e-02
1.827157661318778992e-02
-4.774572327733039856e-02
1.225035823881626129e-02
9.946034103631973267e-02
-4.073261618614196777e-01
-1.667134463787078857e-01
-1.894766241312026978e-01
-1.935901641845703125e-01
-1.822104156017303467e-01
-3.220593333244323730e-01
-3.899989277124404907e-02
-1.399818658828735352e-01
1.447602510452270508e-01
1.663776487112045288e-01
7.988304644823074341e-02
2.733824849128723145e-01
-1.231727302074432373e-01
-2.580116270110011101e-04
1.079603731632232666e-01
7.096675038337707520e-02
1.011071875691413879e-01
-6.138736754655838013e-02
-4.804058969020843506e-01
1.492032129317522049e-02
-4.340323209762573242e-01
-2.574648857116699219e-01
4.398469254374504089e-02
-2.143585681915283203e-01
1.106710657477378845e-01
8.661081641912460327e-02
1.587864905595779419e-01
4.867865890264511108e-02
-1.116369478404521942e-02
1.159118264913558960e-01
-1.835242658853530884e-01
-1.052853539586067200e-01
-1.630129814147949219e-01
1.550276279449462891e-01
-3.172079846262931824e-02
8.630917966365814209e-02
-3.148936927318572998e-01
-3.871351182460784912e-01
7.945851981639862061e-02
6.270829588174819946e-02
-2.569036483764648438e-01
-9.930275380611419678e-02
-5.833942815661430359e-02
-1.043962463736534119e-01
4.070740565657615662e-02
-5.304564256221055984e-03
-1.418031901121139526e-01
-7.880358397960662842e-02
-6.859272718429565430e-02
2.933884225785732269e-02
-6.923646479845046997e-02
1.023722067475318909e-01
8.517754077911376953e-02
-2.405267767608165741e-02
1.227391213178634644e-01
3.095752000808715820e-01
8.396916836500167847e-02
-1.630068123340606689e-01
1.528658866882324219e-01
1.881159245967864990e-01
-1.199809908866882324e-01
7.191266864538192749e-02
4.054660350084304810e-02
2.225209493190050125e-03
-1.391771808266639709e-02
-3.600440174341201782e-02
1.512758340686559677e-02
-6.968601047992706299e-02
-1.279231458902359009e-01
-1.721203699707984924e-02
-9.874906390905380249e-03
-1.412519663572311401e-01
1.622774302959442139e-01
2.279223315417766571e-02
-1.119818016886711121e-01
9.380588307976722717e-03
8.684168010950088501e-02
1.400796920061111450e-01
-7.008589059114456177e-02
-2.112782299518585205e-01
4.149405285716056824e-02
-1.665797680616378784e-01
1.013212949037551880e-01
-2.934048511087894440e-02
1.279843449592590332e-01
2.193284779787063599e-01
-9.658493101596832275e-02
1.291021853685379028e-01
3.516041114926338196e-02
-1.165245696902275085e-01
2.490400671958923340e-01
-1.105102989822626114e-02
-1.445576399564743042e-01
1.626753360033035278e-01
8.273619413375854492e-02
5.650711059570312500e-02
-2.156747430562973022e-01
9.621613472700119019e-02
4.412068519741296768e-03
-2.489610463380813599e-01
-1.741765812039375305e-02
-7.894426584243774414e-02
-2.920105680823326111e-02
1.920649111270904541e-01
-1.966573745012283325e-01
-1.062199845910072327e-01
-1.422790288925170898e-01
-1.861037015914916992e-01
-1.554202586412429810e-01
-1.370764225721359253e-01
-2.714806795120239258e-01
-1.201101690530776978e-01
4.027139395475387573e-02
1.616171188652515411e-02
-2.019246071577072144e-01
1.238540485501289368e-01
-1.170378252863883972e-01
-1.438562273979187012e-01
7.505581527948379517e-02
-1.792065650224685669e-01
-1.866781562566757202e-01
-1.268407404422760010e-01
-1.410331875085830688e-01
-4.032933618873357773e-03
-3.317002579569816589e-02
5.450423061847686768e-02
-1.457838267087936401e-01
1.613973379135131836e-01
1.730089485645294189e-01
-4.596139490604400635e-02
2.503935992717742920e-01
4.686886444687843323e-02
1.363601088523864746e-01
8.318082988262176514e-02
4.691228386946022511e-04
-1.347862184047698975e-01
-2.279151417315006256e-02
1.940840035676956177e-01
-7.051316648721694946e-02
1.579515635967254639e-01
1.299338787794113159e-01
-5.795900523662567139e-02
1.799268424510955811e-01
-1.801950111985206604e-02
-4.668797180056571960e-02
2.626242041587829590e-01
-6.873018294572830200e-02
4.837011545896530151e-02
1.820107847452163696e-01
-8.681593835353851318e-02
5.859705153852701187e-03
1.690613664686679840e-02
-8.827719092369079590e-02
-1.039134413003921509e-01
-5.440925061702728271e-02
1.860289722681045532e-01
1.130126342177391052e-01
8.147557824850082397e-02
1.050697714090347290e-01
5.713107530027627945e-03
-4.343078657984733582e-02
-1.347150355577468872e-01
8.785808086395263672e-02
1.363657042384147644e-02
-1.882140040397644043e-01
9.533480554819107056e-02
1.107763051986694336e-01
-3.074599504470825195e-01
-1.704218685626983643e-01
-1.514008194208145142e-01
1.363526433706283569e-01
-8.283495157957077026e-02
3.447807859629392624e-03
3.866948485374450684e-01
-6.303873658180236816e-02
1.291999965906143188e-01
2.429578304290771484e-01
-1.523745059967041016e-02
1.298262625932693481e-01
-2.692849040031433105e-01
-5.018212646245956421e-02
1.627646684646606445e-01
-1.067495439201593399e-02
-9.539316408336162567e-03
4.920933023095130920e-02
1.269689202308654785e-02
3.408294543623924255e-02
3.587637469172477722e-02
-5.493943765759468079e-02
2.672231756150722504e-02
1.494486480951309204e-01
-1.853652112185955048e-02
-1.936523057520389557e-02
4.030671343207359314e-02
2.903799153864383698e-02
1.086191087961196899e-01
-2.919171452522277832e-01
6.221785023808479309e-02
-6.662406772375106812e-02
-8.489150553941726685e-02
7.047325838357210159e-03
-9.256300516426563263e-03
4.087330698966979980e-01
1.161541044712066650e-02
1.124564483761787415e-01
-1.486494839191436768e-01
8.868651837110519409e-02
6.673679500818252563e-02
-4.419183731079101562e-02
-6.428728252649307251e-02
8.230794221162796021e-02
2.586967945098876953e-01
3.232444077730178833e-02
3.750226646661758423e-02
3.208990395069122314e-02
1.198561936616897583e-01
2.129281498491764069e-02
-1.586497426033020020e-01
3.311363607645034790e-02
5.113890022039413452e-02
-3.910762071609497070e-02
1.462195962667465210e-01
1.582950502634048462e-01
-1.298461556434631348e-01
-6.276454776525497437e-02
2.082837074995040894e-01
-2.174959182739257812e-01
-2.359290122985839844e-01
3.543260693550109863e-02
1.933140754699707031e-01
-6.030733510851860046e-02
-1.845599263906478882e-01
-1.920957863330841064e-01
8.540401607751846313e-02
-1.494991928339004517e-01
-1.634734570980072021e-01
-3.985674679279327393e-02
-1.931103691458702087e-02
-7.284630835056304932e-02
1.592793501913547516e-02
8.769596926867961884e-03
-2.955083362758159637e-02
-3.925381600856781006e-02
-3.594428673386573792e-02
-1.612779051065444946e-01
-6.348716467618942261e-02
-5.679844692349433899e-02
1.242482513189315796e-01
-3.506428748369216919e-02
-1.028900686651468277e-02
9.562771022319793701e-02
1.120653972029685974e-01
9.152847342193126678e-03
3.410439938306808472e-02
2.653089463710784912e-01
-8.189333975315093994e-02
3.748619928956031799e-02
-2.317627705633640289e-02
-7.521714270114898682e-02
4.076598957180976868e-02
-4.736676067113876343e-02
-1.020311415195465088e-01
-1.412479728460311890e-01
-7.893354631960391998e-03
1.381524950265884399e-01
3.146111965179443359e-02
-9.283408522605895996e-02
-1.361053586006164551e-01
-5.230438709259033203e-01
5.807075649499893188e-02
-1.286249905824661255e-01
-1.102655082941055298e-01
4.428374767303466797e-02
-6.235770881175994873e-02
2.464955896139144897e-01
3.388300538063049316e-01
1.800398081541061401e-01
-1.076924577355384827e-01
1.932163387537002563e-01
8.338395506143569946e-02
4.650630056858062744e-02
1.617720872163772583e-01
-2.800903655588626862e-02
2.773449197411537170e-02
2.406964451074600220e-02
1.355337630957365036e-02
-1.257199794054031372e-01
9.979822486639022827e-02
-5.871895700693130493e-02
-1.895467042922973633e-01
-9.861797094345092773e-02
1.743961125612258911e-01
1.784809678792953491e-02
8.684790134429931641e-02
1.145530343055725098e-01
-7.803405076265335083e-02
-9.426040202379226685e-02
1.094944700598716736e-01
7.124389708042144775e-02
-1.625140197575092316e-02
-2.391440980136394501e-02
-5.664160475134849548e-02
-1.865557134151458740e-01
7.868653535842895508e-02
-2.093589156866073608e-01
-2.476405650377273560e-01
1.461276412010192871e-01
1.134620048105716705e-02
-7.718360424041748047e-02
1.032569482922554016e-01
1.741611957550048828e-01
2.392556518316268921e-02
-3.235435485839843750e-02
3.437295258045196533e-01
4.469672441482543945e-01
-2.546774782240390778e-02
1.614157408475875854e-01
9.555289149284362793e-02
-2.005294412374496460e-01
2.784458398818969727e-01
-3.887351974844932556e-02
-1.075950637459754944e-01
-8.509144932031631470e-02
1.020932942628860474e-01
-2.937853336334228516e-02
-1.246935650706291199e-01
-7.353081554174423218e-02
-1.799957454204559326e-02
-6.983296573162078857e-02
-8.738612383604049683e-02
9.092801064252853394e-02
3.363669291138648987e-02
-3.692362830042839050e-02
-4.000996239483356476e-03
-3.616733883973211050e-04
-2.215290814638137817e-02
8.382780477404594421e-03
-7.913552969694137573e-02
-7.758304476737976074e-02
2.337097749114036560e-02
-1.863222718238830566e-01
-7.807459682226181030e-02
-1.034392118453979492e-01
-4.324738308787345886e-02
3.426178693771362305e-01
-6.233594194054603577e-02
-2.905635535717010498e-02
9.305565059185028076e-02
-2.027192264795303345e-01
-9.014799445867538452e-02
1.100688129663467407e-01
-1.782390624284744263e-01
-2.280491590499877930e-02
3.050539791584014893e-01
-1.498658657073974609e-01
8.482646942138671875e-02
2.855900526046752930e-01
2.100249230861663818e-01
-6.245706230401992798e-02
7.312829792499542236e-02
-7.509400136768817902e-03
-9.915568679571151733e-02
4.614618606865406036e-03
-1.884969137609004974e-02
-2.333780378103256226e-02
-1.192513629794120789e-01
-6.384167075157165527e-02
4.239620640873908997e-02
6.139427796006202698e-02
6.131784245371818542e-02
-1.831179708242416382e-01
1.649470925331115723e-01
2.810611762106418610e-02
1.017457991838455200e-01
1.259570717811584473e-01
4.140611365437507629e-02
6.383582204580307007e-02
-1.107298284769058228e-01
1.153366416692733765e-01
1.040837988257408142e-01
-2.063771486282348633e-01
1.201746612787246704e-01
1.093266308307647705e-01
-7.186574488878250122e-02
-1.476227343082427979e-01
2.455956116318702698e-02
8.649121969938278198e-02
5.232547596096992493e-02
3.199202939867973328e-02
1.436913013458251953e-01
1.432245969772338867e-01
1.901621371507644653e-01
2.015917301177978516e-01
-1.222652196884155273e-01
-4.754658043384552002e-02
-3.234237432479858398e-02
-1.615871191024780273e-01
1.173025369644165039e-01
2.268752902746200562e-01
1.301680952310562134e-01
6.883586198091506958e-02
9.380455315113067627e-02
-9.638637304306030273e-02
7.274692505598068237e-02
-5.177821591496467590e-02
-4.570796154439449310e-03
2.510434947907924652e-02
-5.131253506988286972e-03
-5.443538352847099304e-02
2.582821995019912720e-02
3.617190942168235779e-02
8.334089070558547974e-02
-2.363102138042449951e-02
-6.129796504974365234e-01
3.025793135166168213e-01
-1.380923241376876831e-01
-3.605412542819976807e-01
-1.035439670085906982e-01
1.767931431531906128e-01
-2.942894399166107178e-01
-3.173243254423141479e-02
8.867786079645156860e-02
-1.613045036792755127e-01
5.255996435880661011e-02
2.784711718559265137e-01
-4.017865955829620361e-01
1.473692655563354492e-01
-5.181013047695159912e-02
-2.345174700021743774e-01
-2.181404978036880493e-01
-1.341553330421447754e-01
6.837178766727447510e-02
-1.006795242428779602e-01
-7.923088222742080688e-02
2.064730674028396606e-01
-1.363757848739624023e-01
-7.631043344736099243e-02
5.717046558856964111e-02
-1.498135179281234741e-01
1.195035278797149658e-01
5.394182354211807251e-02
6.267851591110229492e-02
1.766982972621917725e-01
-3.197341263294219971e-01
-9.541466087102890015e-02
-1.681840606033802032e-02
-2.376848310232162476e-01
9.367623925209045410e-02
-6.051424145698547363e-02
-2.578303031623363495e-02
3.382370993494987488e-02
-2.015363276004791260e-01
2.019167840480804443e-01
-1.240701973438262939e-01
-1.655781269073486328e-02
3.604383394122123718e-02
-7.758266478776931763e-02
4.951624572277069092e-02
-1.697173416614532471e-01
2.281882166862487793e-01
2.172160297632217407e-01
-4.286780953407287598e-01
1.121013239026069641e-01
5.378529895097017288e-03
-8.922356367111206055e-02
-7.816966623067855835e-02
4.269747063517570496e-03
1.822192966938018799e-02
-1.234994754195213318e-01
1.213603653013706207e-02
1.310255378484725952e-01
-1.158086806535720825e-01
-1.536895483732223511e-01
-8.325222134590148926e-02
2.185598611831665039e-01
6.821354478597640991e-02
1.763279438018798828e-01
-9.740959852933883667e-03
-1.832236535847187042e-03
-9.150969982147216797e-02
2.026292681694030762e-01
-5.426376312971115112e-02
-6.377778947353363037e-02
-2.506383657455444336e-01
-3.270248472690582275e-01
-3.197975158691406250e-01
2.429324686527252197e-01
-1.541905403137207031e-01
-7.990474253892898560e-02
2.358112484216690063e-01
3.539082780480384827e-02
-2.024822682142257690e-01
-7.434839010238647461e-02
-1.513468660414218903e-02
7.087180763483047485e-02
-5.813141912221908569e-02
6.685907283099368215e-05
8.012055605649948120e-02
8.412535488605499268e-02
-8.050353080034255981e-02
2.702270401641726494e-03
-2.364651858806610107e-01
-2.668305337429046631e-01
-1.901194900274276733e-01
2.022768110036849976e-01
-3.386747539043426514e-01
-3.644358813762664795e-01
1.380403786897659302e-01
-1.700869053602218628e-01
-1.997673660516738892e-01
-1.671653985977172852e-01
4.949973896145820618e-02
-1.002629101276397705e-01
2.016356214880943298e-02
4.428870975971221924e-02
1.503947526216506958e-01
-8.151195943355560303e-02
5.706103052943944931e-03
7.894708216190338135e-02
-3.068798184394836426e-01
-1.669982448220252991e-02
-1.292837709188461304e-01
1.027201712131500244e-01
1.338319014757871628e-02
-2.379377633333206177e-01
2.675454914569854736e-01
9.653924405574798584e-02
8.326210826635360718e-02
3.163968026638031006e-02
1.691657304763793945e-01
2.359370887279510498e-01
1.649907976388931274e-01
2.076508551836013794e-01
1.072953417897224426e-01
3.044005632400512695e-01
7.529678195714950562e-02
-2.561480402946472168e-01
-2.193614989519119263e-01
-3.732927516102790833e-02
7.772055268287658691e-02
-1.680537164211273193e-01
3.805981948971748352e-02
1.093343049287796021e-01
-1.548756659030914307e-01
5.957365408539772034e-02
3.603772819042205811e-02
-1.055050715804100037e-01
-8.852191269397735596e-02
4.294607788324356079e-02
1.522937696427106857e-02
-4.174830392003059387e-03
7.178737223148345947e-02
-1.066571325063705444e-01
-6.562056392431259155e-02
1.735328882932662964e-01
-1.296713054180145264e-01
-1.269816458225250244e-01
-8.130647987127304077e-02
-2.472333610057830811e-02
-9.382791817188262939e-02
1.185323223471641541e-01
1.347734481096267700e-01
-4.102714359760284424e-02
1.090632602572441101e-01
-6.608405709266662598e-02
3.109390437602996826e-01
-6.447375286370515823e-03
2.343918755650520325e-02
2.440277785062789917e-01
-7.037294656038284302e-02
8.656848967075347900e-02
3.224212229251861572e-01
9.297648072242736816e-02
5.338086932897567749e-02
-2.805793583393096924e-01
1.917367130517959595e-01
-5.157301947474479675e-02
-2.129354700446128845e-02
7.438372820615768433e-02
-1.284420304000377655e-02
-1.688377559185028076e-01
4.921163246035575867e-02
-1.555420309305191040e-01
4.377407953143119812e-02
-1.945675536990165710e-02
5.717496853321790695e-03
1.259202957153320312e-01
-1.304719410836696625e-02
1.811394467949867249e-02
1.679831296205520630e-01
-1.484247110784053802e-02
9.034711867570877075e-02
-2.802751362323760986e-01
1.197429746389389038e-01
-6.512121856212615967e-02
-3.527614474296569824e-01
-8.008581399917602539e-02
1.729864031076431274e-01
-1.185732856392860413e-01
-1.310377717018127441e-01
-9.816388040781021118e-02
-7.487447559833526611e-02
4.635246004909276962e-03
-7.221283763647079468e-02
-7.413612306118011475e-02
-2.883214056491851807e-01
1.612041145563125610e-01
1.841014251112937927e-03
4.987089335918426514e-02
1.164308860898017883e-01
1.174528747797012329e-01
-7.994552701711654663e-02
-2.649007830768823624e-03
7.165362592786550522e-03
-8.643624186515808105e-02
-8.769679814577102661e-02
2.909241020679473877e-01
2.181438729166984558e-02
-1.712316423654556274e-01
-2.006601393222808838e-01
-4.755806922912597656e-02
-8.865514397621154785e-02
-1.791866421699523926e-01
-5.216621980071067810e-02
1.395994890481233597e-02
-2.440442889928817749e-01
-1.126309633255004883e-01
-1.982669159770011902e-02
-7.036679983139038086e-02
-3.400940895080566406e-01
2.856167256832122803e-01
1.223525926470756531e-01
1.460895687341690063e-01
2.287827730178833008e-01
-1.159240379929542542e-01
-2.193209081888198853e-01
1.277981400489807129e-01
1.710310727357864380e-01
-1.769559085369110107e-01
1.667141318321228027e-01
9.546450525522232056e-02
-1.203621402382850647e-01
1.820378303527832031e-01
-1.267451420426368713e-02
-4.629230126738548279e-02
-1.072970964014530182e-02
-3.025783002376556396e-01
-4.341441988945007324e-01
1.461251527070999146e-01
7.194625586271286011e-02
2.184510417282581329e-02
4.836842790246009827e-02
-1.273877769708633423e-01
-1.222723722457885742e-01
8.588913828134536743e-02
4.334272444248199463e-02
2.529401518404483795e-02
4.873483255505561829e-02
-2.445579506456851959e-02
-9.780269116163253784e-02
1.472612284123897552e-02
-1.173023656010627747e-01
-2.747683785855770111e-02
-5.686724558472633362e-03
-3.033568849787116051e-03
-1.747397482395172119e-01
-1.250256001949310303e-01
1.532153934240341187e-01
3.244915604591369629e-02
-6.221504509449005127e-02
1.010591071099042892e-02
1.907644793391227722e-02
-2.804886735975742340e-02
-1.950567066669464111e-01
-3.861476182937622070e-01
1.235752776265144348e-01
9.365832805633544922e-02
-1.464140862226486206e-01
3.049528002738952637e-01
9.709615260362625122e-02
-3.553479909896850586e-02
-1.721088439226150513e-01
-6.754638999700546265e-02
2.672222256660461426e-02
-4.546021297574043274e-02
1.717519313097000122e-01
3.863437101244926453e-02
2.582679688930511475e-01
1.763663440942764282e-01
2.572451233863830566e-01
-1.039106324315071106e-01
-9.170375019311904907e-02
-1.799181662499904633e-02
-1.243666931986808777e-01
-8.959491550922393799e-02
2.381766960024833679e-02
1.769308000802993774e-02
-5.799053609371185303e-02
2.343349605798721313e-01
-7.248118519783020020e-02
9.194148331880569458e-02
-1.575807332992553711e-01
-2.481881976127624512e-01
-1.042939350008964539e-01
1.465691328048706055e-01
-6.557039916515350342e-02
-4.445898532867431641e-02
6.162829324603080750e-02
4.109427332878112793e-03
-5.375595018267631531e-02
-3.471984341740608215e-02
-2.141104489564895630e-01
6.416127830743789673e-02
-4.239635076373815536e-03
1.805240064859390259e-01
-1.308020502328872681e-01
-7.205528765916824341e-02
-1.529996097087860107e-01
1.659767469391226768e-03
-4.975965566700324416e-05
-3.025301098823547363e-01
-5.143861845135688782e-02
-5.010747164487838745e-02
-5.347361415624618530e-02
-1.114323139190673828e-01
7.119201868772506714e-02
-1.428066790103912354e-01
-1.469844132661819458e-01
-5.165353883057832718e-03
1.752894669771194458e-01
-8.777151256799697876e-02
9.583573043346405029e-02
6.361473351716995239e-02
2.392147332429885864e-01
1.253577321767807007e-01
-2.761783450841903687e-02
-2.809043228626251221e-01
9.016191586852073669e-03
-4.466859623789787292e-02
-2.946602180600166321e-02
-1.224779039621353149e-01
1.158925588242709637e-03
7.047814130783081055e-02
1.300542801618576050e-01
-6.463413685560226440e-02
2.279773503541946411e-01
-8.246334618888795376e-04
-6.054369732737541199e-02
3.244410753250122070e-01
1.284475624561309814e-01
-7.161135226488113403e-02
1.002392172813415527e-01
-5.090324953198432922e-02
-8.714652061462402344e-02
7.034122198820114136e-02
4.495676979422569275e-02
-2.159899622201919556e-01
-1.029222179204225540e-02
-7.664051838219165802e-03
-6.842450052499771118e-02
-4.479437321424484253e-02
1.916156895458698273e-02
-1.558201462030410767e-01
8.856971561908721924e-02
-9.485611319541931152e-02
-8.152404427528381348e-02
1.405796110630035400e-01
1.121750921010971069e-01
-4.431788250803947449e-02
9.522408992052078247e-02
2.761227078735828400e-03
8.308187127113342285e-02
-2.139191478490829468e-01
-7.219561934471130371e-02
3.325036466121673584e-01
-2.186968326568603516e-01
-1.392544507980346680e-01
1.134093031287193298e-01
1.552086472511291504e-01
1.454231701791286469e-02
1.259626895189285278e-01
1.062322631478309631e-01
-3.630626574158668518e-02
4.058520197868347168e-01
-8.809585124254226685e-03
-2.269883155822753906e-01
2.442764788866043091e-01
-4.799855872988700867e-02
-6.719207018613815308e-02
5.491022765636444092e-02
-1.150010824203491211e-01
-1.934672147035598755e-01
1.200554519891738892e-01
-2.583710551261901855e-01
-2.774005383253097534e-02
1.789391040802001953e-02
-1.806368827819824219e-01
-4.505186900496482849e-02
8.404891006648540497e-03
1.114141345024108887e-01
1.620021462440490723e-02
1.299621537327766418e-02
9.124771505594253540e-02
-1.358653903007507324e-01
-5.710482224822044373e-02
-5.605789646506309509e-02
5.330358818173408508e-02
-4.819235205650329590e-02
6.055188551545143127e-02
-1.163892596960067749e-01
1.555277556180953979e-01
-3.277667239308357239e-02
-9.973220527172088623e-02
1.323476731777191162e-01
-3.659063279628753662e-01
2.979347854852676392e-02
2.605383992195129395e-01
6.611920893192291260e-02
1.985422074794769287e-01
2.625159323215484619e-01
2.411894202232360840e-01
1.700001806020736694e-01
-2.364262938499450684e-02
1.275655478239059448e-01
2.305975109338760376e-01
