-6.579219549894332886e-02
1.082111448049545288e-01
-3.691673874855041504e-01
5.840134620666503906e-01
1.333845704793930054e-01
-1.519205272197723389e-01
1.072311103343963623e-01
-5.314093083143234253e-02
3.010348677635192871e-01
-1.479124464094638824e-02
-3.336565196514129639e-01
-3.087141513824462891e-01
2.062067985534667969e-01
1.058419197797775269e-01
-3.678599894046783447e-01
2.554230093955993652e-01
2.066124528646469116e-01
-4.474419951438903809e-01
-3.827064484357833862e-02
-2.881131321191787720e-02
3.899303078651428223e-01
-5.532385110855102539e-01
-2.109726518392562866e-01
4.125466346740722656e-01
-7.187213748693466187e-02
-3.708197474479675293e-01
2.512716948986053467e-01
-1.252533644437789917e-01
-3.520570397377014160e-01
3.767418265342712402e-01
-2.661597132682800293e-01
-1.726091653108596802e-01
4.235743284225463867e-01
-1.586137413978576660e-01
-1.095268577337265015e-01
4.281908571720123291e-01
1.866752207279205322e-01
-1.858411133289337158e-01
4.465934336185455322e-01
1.430366039276123047e-01
-2.616526484489440918e-01
-3.830249011516571045e-01
8.995240181684494019e-02
-5.056996941566467285e-01
-3.658191561698913574e-01
-4.833831451833248138e-03
-2.966625094413757324e-01
4.909033775329589844e-01
-3.630345463752746582e-01
-9.517737478017807007e-02
5.329475998878479004e-01
1.627120673656463623e-01
2.020061761140823364e-01
3.284596502780914307e-01
3.602468222379684448e-02
7.264516502618789673e-02
3.157992064952850342e-01
1.729102134704589844e-01
2.055641412734985352e-01
-2.383566051721572876e-01
-2.208017408847808838e-01
-5.415753722190856934e-01
-3.972141742706298828e-01
-3.435501456260681152e-01
-1.212058663368225098e-01
-2.156651020050048828e-01
-5.916406512260437012e-01
8.555132895708084106e-02
2.030576616525650024e-01
-1.130022928118705750e-01
4.139596819877624512e-01
3.844951987266540527e-01
