-2.155536785721778870e-03
-1.186537463217973709e-02
3.634129464626312256e-02
-6.938042119145393372e-03
2.523694373667240143e-02
7.943232543766498566e-03
1.176839414983987808e-02
1.454122830182313919e-02
-1.144960336387157440e-02
2.177649363875389099e-02
2.776521816849708557e-02
2.514974400401115417e-02
-2.886269614100456238e-02
8.646306581795215607e-03
-1.358881685882806778e-02
-1.712784916162490845e-02
-2.292817085981369019e-02
-3.328187018632888794e-02
9.994556196033954620e-03
5.964194424450397491e-03
-2.607073821127414703e-02
3.694225102663040161e-03
-3.013426810503005981e-02
-2.532172203063964844e-02
2.868366613984107971e-02
1.582696475088596344e-02
2.830175682902336121e-02
-2.175761014223098755e-02
-3.551673889160156250e-02
1.397728454321622849e-02
3.079900331795215607e-02
-3.774450719356536865e-02
2.825706265866756439e-03
-5.051175132393836975e-02
2.375238388776779175e-02
1.761753857135772705e-02
-3.291541012004017830e-03
-1.753041334450244904e-02
2.865422330796718597e-02
1.936003216542303562e-03
1.276722829788923264e-02
-2.202726341784000397e-02
-3.621841606218367815e-04
-3.439151123166084290e-02
-4.261794686317443848e-02
2.198131009936332703e-02
-3.225877881050109863e-02
2.113010920584201813e-02
1.469574216753244400e-02
1.920563541352748871e-02
5.097528174519538879e-02
-2.945206500589847565e-02
-2.136318478733301163e-03
1.566905528306961060e-02
-2.239722013473510742e-02
2.883370779454708099e-02
-1.199339795857667923e-02
9.663542732596397400e-03
-3.094865009188652039e-02
1.801894418895244598e-02
-6.937590241432189941e-02
6.328509654849767685e-03
-1.526943966746330261e-02
2.560445852577686310e-02
-1.036028377711772919e-02
-2.827287651598453522e-02
2.427029423415660858e-02
1.254586037248373032e-02
-3.389537334442138672e-02
1.979964226484298706e-02
-1.849338039755821228e-02
-8.879774250090122223e-03
7.140472531318664551e-03
3.925146162509918213e-02
4.305014386773109436e-02
-2.632622793316841125e-02
-1.230845320969820023e-02
-1.660486310720443726e-02
1.493229251354932785e-02
4.061865434050559998e-02
-4.698909446597099304e-02
1.281184726394712925e-03
5.238631740212440491e-03
1.411452051252126694e-02
4.154403507709503174e-02
1.931940321810543537e-03
6.478273309767246246e-03
2.824453637003898621e-02
2.071533538401126862e-02
8.799983188509941101e-03
1.006176788359880447e-02
-1.354374922811985016e-02
-7.844470674172043800e-04
9.166449308395385742e-04
7.260405458509922028e-03
-3.602521121501922607e-02
