-1.552215665578842163e-01
-7.753786630928516388e-03
5.030566081404685974e-02
-3.154166787862777710e-02
-4.032758250832557678e-02
8.740846812725067139e-02
2.897861646488308907e-03
-1.146867722272872925e-01
5.018294975161552429e-02
-7.405691593885421753e-02
1.518770605325698853e-01
1.750169992446899414e-01
-1.834814250469207764e-02
-6.724196951836347580e-03
-3.155281245708465576e-01
-5.101092904806137085e-02
-7.324992865324020386e-02
3.690227866172790527e-02
1.022551506757736206e-01
-1.161087080836296082e-01
-2.982661724090576172e-01
-1.960519701242446899e-02
-1.393367797136306763e-01
-1.442387793213129044e-02
1.446430385112762451e-01
1.151814498007297516e-02
-1.123844534158706665e-01
-2.760163843631744385e-01
-7.398536801338195801e-02
-4.942063707858324051e-03
-3.592454362660646439e-03
4.113948438316583633e-03
1.464768499135971069e-01
-6.581491231918334961e-02
-9.701438993215560913e-02
-1.273307949304580688e-01
4.305673018097877502e-02
-4.197841975837945938e-03
-3.161262348294258118e-02
-8.206530660390853882e-02
9.193632751703262329e-02
-1.433368772268295288e-01
-7.349431514739990234e-02
4.821817576885223389e-02
-3.087732382118701935e-02
6.303828954696655273e-02
4.196336865425109863e-02
-3.296327590942382812e-02
-9.366422146558761597e-02
6.401059217751026154e-03
6.577423214912414551e-02
5.172204598784446716e-02
-2.202446907758712769e-01
5.348310992121696472e-02
5.427393317222595215e-02
2.566359564661979675e-02
2.442244812846183777e-02
7.229162007570266724e-02
4.491769522428512573e-02
-2.010767012834548950e-01
-1.576533317565917969e-01
-5.477277445606887341e-04
3.365259990096092224e-02
6.477476656436920166e-02
3.415281698107719421e-02
9.633510559797286987e-02
1.152160987257957458e-01
-2.652381658554077148e-01
-1.977880597114562988e-01
-5.469603464007377625e-02
5.512677505612373352e-02
1.256054639816284180e-01
1.247629374265670776e-01
-1.810738593339920044e-01
-2.150381803512573242e-01
-1.199270114302635193e-01
1.090390048921108246e-02
-1.553747430443763733e-02
-7.203612476587295532e-02
-1.163539513945579529e-01
2.321817725896835327e-02
3.737745806574821472e-02
-6.322061270475387573e-02
-3.345257043838500977e-02
-4.996892064809799194e-02
8.933225274085998535e-02
-4.973872750997543335e-02
-1.719460040330886841e-01
-8.991548418998718262e-02
2.461034059524536133e-01
-1.079129427671432495e-01
3.963376581668853760e-02
1.448662113398313522e-02
6.827944517135620117e-02
2.149339020252227783e-02
1.090606674551963806e-02
1.305717974901199341e-01
7.638224866241216660e-03
7.122031599283218384e-02
6.677065789699554443e-02
5.923160538077354431e-02
2.034296840429306030e-02
-9.907859377562999725e-03
3.184395283460617065e-02
-4.727033525705337524e-02
-3.181892447173595428e-03
1.154219172894954681e-02
1.454144436866044998e-02
1.476951315999031067e-02
6.264560669660568237e-02
3.542511910200119019e-02
4.016041290014982224e-03
-3.850702196359634399e-02
2.593255415558815002e-02
-1.546857357025146484e-01
-3.254086896777153015e-02
7.221304625272750854e-02
1.141245849430561066e-02
-3.628920018672943115e-02
-5.353137850761413574e-02
-4.604050517082214355e-02
-1.199359744787216187e-01
-2.543801814317703247e-02
-4.169074818491935730e-02
2.138770930469036102e-02
-1.345012336969375610e-02
-5.643841810524463654e-03
-4.932423681020736694e-02
3.568614274263381958e-02
1.459438540041446686e-02
3.219812735915184021e-02
3.960162401199340820e-02
-4.052590578794479370e-02
1.316065490245819092e-01
-6.731838732957839966e-02
-5.841645598411560059e-02
2.358459867537021637e-02
-1.552000045776367188e-01
8.977507054805755615e-02
-3.450506925582885742e-02
8.208919316530227661e-02
-3.747406601905822754e-02
-9.418381750583648682e-02
-2.367494404315948486e-01
-4.024937003850936890e-02
1.219914853572845459e-01
-5.667450651526451111e-02
-4.913370311260223389e-02
-5.711234360933303833e-02
8.462985279038548470e-04
-6.062274426221847534e-02
1.566200144588947296e-02
-5.028731003403663635e-02
-4.116620123386383057e-02
1.028203032910823822e-02
-2.048949711024761200e-03
5.187697708606719971e-02
1.289225816726684570e-01
1.178617402911186218e-01
-1.137925544753670692e-03
-6.129232700914144516e-03
-4.050268791615962982e-03
-4.304855689406394958e-02
-5.895050987601280212e-02
4.228061065077781677e-02
7.944173179566860199e-03
-3.235557675361633301e-02
6.646256428211927414e-03
1.880506612360477448e-02
-4.751593992114067078e-02
4.132000356912612915e-02
2.692689595278352499e-04
3.320621326565742493e-02
2.222193963825702667e-02
-6.477831047959625721e-04
-3.482658043503761292e-02
2.640815265476703644e-02
-8.682919293642044067e-02
-4.411407560110092163e-02
5.343614891171455383e-02
6.507344543933868408e-02
1.950618624687194824e-02
-9.481523185968399048e-03
-3.126851283013820648e-03
-5.007592216134071350e-02
-3.542806580662727356e-02
-6.682012230157852173e-03
1.659321412444114685e-02
-3.261915873736143112e-03
3.057820536196231842e-02
-3.601753339171409607e-02
7.497044862248003483e-04
-6.820953637361526489e-02
-1.050077658146619797e-02
1.957551687955856323e-01
-3.250265493988990784e-02
-1.429381221532821655e-01
-2.044371701776981354e-02
-2.821056544780731201e-02
-4.066706448793411255e-02
-2.092419564723968506e-02
-3.190913498401641846e-01
-8.180315792560577393e-02
9.242765605449676514e-02
2.610796876251697540e-02
7.841774262487888336e-03
1.758187264204025269e-02
-2.012064494192600250e-02
-2.797741442918777466e-02
1.301935967057943344e-02
-4.972936958074569702e-02
-1.783565282821655273e-01
-5.733435228466987610e-02
1.656642183661460876e-02
7.254507392644882202e-02
-1.168889105319976807e-01
-3.890724480152130127e-02
-5.664020404219627380e-02
-6.449384242296218872e-02
2.680064365267753601e-02
2.081456594169139862e-03
4.667749255895614624e-02
-1.128818765282630920e-01
9.382840245962142944e-02
-8.130928128957748413e-02
5.709977447986602783e-02
2.742296457290649414e-02
-1.734090619720518589e-04
-5.164943262934684753e-02
-2.912126295268535614e-02
-1.578956842422485352e-01
1.645169407129287720e-02
-5.077445134520530701e-02
-8.164591342210769653e-02
-5.161805823445320129e-02
-5.210582539439201355e-02
1.694655865430831909e-01
5.252069677226245403e-04
3.699403256177902222e-02
1.558597665280103683e-03
-1.032444760203361511e-01
-7.026372104883193970e-02
1.301447749137878418e-01
4.816694557666778564e-02
9.716074168682098389e-02
-3.486140817403793335e-02
-1.615727320313453674e-02
5.647121742367744446e-02
7.161772996187210083e-02
-1.765694767236709595e-01
1.579058766365051270e-01
-3.426169976592063904e-02
-5.376909300684928894e-02
-2.116894908249378204e-02
1.232174783945083618e-02
1.182535849511623383e-02
-1.186225265264511108e-01
3.042614459991455078e-02
-3.504999727010726929e-02
1.065406366251409054e-03
4.255429655313491821e-02
-1.930161267518997192e-01
-1.176414638757705688e-01
-6.028881296515464783e-02
-8.930722624063491821e-02
-9.177794307470321655e-02
3.479386121034622192e-02
2.414260059595108032e-02
5.605618283152580261e-02
-6.439603120088577271e-02
1.088231950998306274e-01
-1.792643070220947266e-01
-1.599646173417568207e-02
6.825066357851028442e-02
1.939353346824645996e-02
4.452500864863395691e-02
7.226379215717315674e-02
-2.415312640368938446e-02
-5.892414227128028870e-02
-1.350088603794574738e-02
3.297407180070877075e-02
-8.214095234870910645e-02
9.703224152326583862e-02
-1.247067302465438843e-01
-4.253445938229560852e-02
2.036270648241043091e-01
9.870126843452453613e-03
5.997761338949203491e-02
-8.569701761007308960e-02
2.317585283890366554e-03
3.323733806610107422e-02
1.331270951777696609e-02
1.683129556477069855e-02
-2.615028247237205505e-02
-7.410402595996856689e-02
-2.360923402011394501e-02
8.884061127901077271e-02
-1.249521300196647644e-01
3.207819759845733643e-01
7.399099320173263550e-02
1.992920413613319397e-02
-1.368523538112640381e-01
-3.980439156293869019e-02
-4.694753885269165039e-02
-1.139549538493156433e-01
8.031170070171356201e-02
8.096721954643726349e-03
-2.195661328732967377e-02
-2.322300337255001068e-02
1.830399967730045319e-02
9.963769465684890747e-02
4.941982030868530273e-02
5.446606501936912537e-02
-1.409397125244140625e-01
-2.906257659196853638e-02
2.800876088440418243e-02
1.596245169639587402e-01
2.118359133601188660e-02
-9.465950727462768555e-02
4.145549144595861435e-03
6.988890469074249268e-02
-4.471589997410774231e-02
-4.479238763451576233e-02
4.386569187045097351e-02
1.014990173280239105e-02
-1.825072765350341797e-01
2.720052562654018402e-02
1.471156328916549683e-01
-1.620474830269813538e-02
-9.830832481384277344e-02
2.627091482281684875e-02
3.226358070969581604e-02
5.620380397886037827e-03
-4.548833146691322327e-02
1.986049860715866089e-02
3.095819428563117981e-02
-4.219441488385200500e-02
9.772755950689315796e-02
-1.041827723383903503e-01
-1.690949350595474243e-01
4.176157061010599136e-03
3.668067231774330139e-02
-7.071010768413543701e-03
-6.881625950336456299e-02
-1.888476312160491943e-02
-8.570525050163269043e-02
4.226726293563842773e-02
7.910101860761642456e-02
-5.244034156203269958e-02
1.031067222356796265e-01
-2.118433825671672821e-02
-8.660155534744262695e-02
-4.986988008022308350e-02
1.056891214102506638e-02
4.010085389018058777e-02
6.390202790498733521e-02
4.733532294631004333e-02
-6.307915598154067993e-02
1.139381621032953262e-02
-1.290536522865295410e-01
-6.861113011837005615e-02
4.217981547117233276e-02
1.973760500550270081e-02
4.095901921391487122e-02
9.304196387529373169e-02
-8.640188723802566528e-03
-1.306254863739013672e-01
-1.066627055406570435e-01
1.925958693027496338e-02
5.696768686175346375e-02
7.390452176332473755e-02
-1.880677975714206696e-02
-1.667390018701553345e-02
-3.618350997567176819e-02
-3.298734873533248901e-02
3.070824407041072845e-02
6.011506542563438416e-02
-5.449907109141349792e-02
3.031866624951362610e-02
-4.148850962519645691e-02
-1.082584355026483536e-02
1.388053223490715027e-02
9.030808694660663605e-03
-3.519035130739212036e-02
-4.046971723437309265e-02
-4.050539806485176086e-02
-2.894244529306888580e-02
-6.454335153102874756e-02
-1.544189266860485077e-02
6.256764382123947144e-02
-1.118462532758712769e-02
-1.358154416084289551e-02
-1.376161724328994751e-01
7.114432007074356079e-02
-5.192199349403381348e-02
-1.760996319353580475e-02
1.929713971912860870e-02
-3.088471889495849609e-01
-1.993854902684688568e-02
-1.494518853724002838e-02
-8.822817355394363403e-02
-5.175418406724929810e-02
4.457547143101692200e-02
1.146296388469636440e-03
-4.617462679743766785e-02
6.286046002060174942e-03
-6.264043599367141724e-02
-4.098471626639366150e-02
-4.124999046325683594e-02
-3.277260437607765198e-02
2.480351366102695465e-02
-2.133387140929698944e-03
-1.880889385938644409e-02
1.520681940019130707e-02
-1.617788895964622498e-02
1.792373880743980408e-02
-5.315768532454967499e-03
4.026459529995918274e-02
4.220963642001152039e-02
-6.309340242296457291e-03
2.930836565792560577e-02
1.637927605770528316e-03
-1.447569299489259720e-02
2.113004680722951889e-03
1.982114044949412346e-03
4.551125317811965942e-02
-2.537185512483119965e-02
-8.742592297494411469e-03
-5.149167962372303009e-03
2.261220663785934448e-02
5.147863551974296570e-02
-1.469635870307683945e-02
4.576237499713897705e-02
-4.938556626439094543e-02
-5.963733419775962830e-02
1.821851544082164764e-02
-2.620634436607360840e-02
2.243378944694995880e-02
3.101774491369724274e-02
-2.352953888475894928e-02
1.002470380626618862e-03
3.266146406531333923e-02
4.098985716700553894e-02
7.139792293310165405e-02
-8.567419648170471191e-02
3.833714639768004417e-03
1.709962189197540283e-01
3.573526814579963684e-02
3.466607257723808289e-02
-7.299245148897171021e-02
5.629701074212789536e-03
9.811411798000335693e-02
5.677676200866699219e-02
2.698533609509468079e-02
3.606817871332168579e-02
4.343055188655853271e-03
-3.757579252123832703e-02
1.461978107690811157e-01
6.783247739076614380e-02
8.313626796007156372e-02
6.380335986614227295e-02
-9.295022487640380859e-02
1.072711050510406494e-01
1.044454947113990784e-01
1.957355886697769165e-01
-7.090128213167190552e-02
2.001442015171051025e-02
-7.971861213445663452e-02
7.925609679659828544e-05
3.300027921795845032e-02
1.822373270988464355e-02
2.117470838129520416e-02
-4.954151436686515808e-02
6.133136898279190063e-02
-1.166941002011299133e-01
-2.209788560867309570e-02
-4.101245105266571045e-02
3.128172829747200012e-02
1.964053362607955933e-01
-3.060220507904887199e-03
3.821533545851707458e-02
-1.917278617620468140e-01
3.662091866135597229e-02
-2.321758307516574860e-02
-5.537044629454612732e-02
1.938735693693161011e-02
6.821355782449245453e-03
-2.461914345622062683e-02
3.630949929356575012e-02
-5.430660769343376160e-02
1.708636432886123657e-02
-1.230231598019599915e-01
-5.122279375791549683e-02
7.897893339395523071e-02
1.017998252063989639e-02
-9.502743929624557495e-02
6.347145140171051025e-02
6.649321317672729492e-02
5.645212903618812561e-02
4.928607493638992310e-02
8.986400812864303589e-02
1.471926178783178329e-02
4.162340611219406128e-02
6.382533162832260132e-02
-9.260696824640035629e-04
1.235355213284492493e-01
-5.077827721834182739e-02
-9.933135472238063812e-03
8.019946515560150146e-02
6.185713573358952999e-05
-1.923669502139091492e-02
1.904725655913352966e-02
4.915976896882057190e-02
-5.586259439587593079e-02
-1.512063015252351761e-02
-3.749715164303779602e-02
9.840956330299377441e-02
-1.490623354911804199e-01
-8.423996716737747192e-02
2.674046438187360764e-03
-5.655929818749427795e-02
-7.684419304132461548e-02
3.064610809087753296e-02
-6.479229778051376343e-03
4.113147780299186707e-02
2.205126360058784485e-02
-9.001438319683074951e-02
-4.125802777707576752e-03
4.537304490804672241e-02
-5.800957977771759033e-02
-2.890367433428764343e-02
4.703001305460929871e-02
-2.884388342499732971e-02
-3.924771770834922791e-02
3.355483710765838623e-02
2.259745821356773376e-02
-8.347523212432861328e-02
3.067035786807537079e-02
-1.139389127492904663e-01
-1.703440099954605103e-01
2.222336456179618835e-02
3.398114070296287537e-02
5.202354118227958679e-02
-3.376875817775726318e-02
8.697491139173507690e-03
8.176466450095176697e-03
-1.412152647972106934e-01
1.816090382635593414e-02
4.201341047883033752e-02
1.435667723417282104e-01
2.415698021650314331e-02
1.321297585964202881e-01
-1.184705365449190140e-02
-1.073721200227737427e-01
5.587342381477355957e-02
-3.038817271590232849e-02
6.391070783138275146e-02
9.440711885690689087e-02
-6.187811493873596191e-02
-1.764646023511886597e-01
7.042813301086425781e-02
1.699852012097835541e-02
-1.011373009532690048e-02
-8.079407736659049988e-03
2.945442683994770050e-02
3.054231591522693634e-02
-1.758925616741180420e-01
9.856441617012023926e-02
3.072584979236125946e-02
1.096991822123527527e-02
-3.117643482983112335e-02
7.188788615167140961e-03
-1.574561297893524170e-01
-1.017266288399696350e-01
6.972259283065795898e-02
-1.140100806951522827e-01
3.436466306447982788e-02
6.582295056432485580e-03
-1.251039952039718628e-01
-5.737041682004928589e-02
1.067838966846466064e-01
4.638127982616424561e-02
-2.762827556580305099e-03
4.913245886564254761e-02
-3.062491118907928467e-02
1.078757420182228088e-01
-1.108476798981428146e-02
1.638166159391403198e-01
-3.006765544414520264e-01
9.318503551185131073e-03
4.070569202303886414e-02
9.752396494150161743e-02
3.310972591862082481e-03
-4.199940264225006104e-01
-1.487725824117660522e-01
1.343187540769577026e-01
2.719030342996120453e-02
5.330726504325866699e-02
6.389467418193817139e-02
1.433087978512048721e-02
-6.721206009387969971e-02
1.149132400751113892e-01
8.532185107469558716e-02
-1.391328498721122742e-02
-3.970745205879211426e-02
3.259389847517013550e-02
-6.154267489910125732e-02
5.341546237468719482e-02
6.792741268873214722e-02
-8.791599422693252563e-03
-2.629183046519756317e-02
-7.591269165277481079e-02
5.244426429271697998e-02
-8.620670996606349945e-03
7.866575568914413452e-02
1.512423157691955566e-01
3.050552308559417725e-02
-3.870594501495361328e-02
-5.833628028631210327e-02
5.386532470583915710e-02
1.539927627891302109e-02
8.624281734228134155e-02
-4.075338318943977356e-02
1.915707439184188843e-02
-1.119292825460433960e-01
5.598061904311180115e-02
3.975837491452693939e-03
-9.203654527664184570e-02
-2.713814564049243927e-02
-6.847833842039108276e-02
-2.684725634753704071e-02
-7.066694647073745728e-02
-8.763163536787033081e-02
-2.062813341617584229e-01
2.743016369640827179e-02
-1.073197573423385620e-01
1.976124569773674011e-02
2.236155234277248383e-02
6.028013676404953003e-02
4.321338981389999390e-02
4.867871850728988647e-02
2.372157014906406403e-02
2.096865884959697723e-02
1.223562136292457581e-01
-2.458608597517013550e-01
-2.807362005114555359e-02
-4.676114022731781006e-02
5.667976662516593933e-02
2.416062504053115845e-01
-4.038204252719879150e-02
2.355273216962814331e-01
2.472166419029235840e-01
9.060974232852458954e-03
1.989263296127319336e-02
-3.915387764573097229e-02
8.561923354864120483e-02
-5.539277940988540649e-02
-1.568199843168258667e-01
5.498476326465606689e-02
5.552715808153152466e-02
-2.981058135628700256e-02
4.851581901311874390e-02
-5.098609998822212219e-02
6.561839021742343903e-03
2.420069277286529541e-02
7.059500087052583694e-03
-4.041960462927818298e-02
-6.923101842403411865e-02
-9.537129662930965424e-04
1.507365051656961441e-02
2.616423554718494415e-02
3.089806735515594482e-01
-7.364210486412048340e-02
2.690537646412849426e-02
5.639030784368515015e-02
2.916046651080250740e-03
-1.890175230801105499e-02
-6.131003145128488541e-03
4.199431464076042175e-02
1.997515186667442322e-02
-2.639649435877799988e-03
6.756513565778732300e-02
1.099599152803421021e-01
4.583083465695381165e-02
3.436323627829551697e-02
-5.536574125289916992e-02
-1.318565756082534790e-01
1.197387054562568665e-01
2.230734750628471375e-02
4.495933651924133301e-02
1.097222194075584412e-01
-3.792754188179969788e-02
-8.746781200170516968e-02
1.401815563440322876e-02
-1.146830767393112183e-01
-4.312913864850997925e-02
-1.738677173852920532e-02
2.426474727690219879e-02
-4.607875365763902664e-03
2.762397378683090210e-02
-1.957009285688400269e-01
-6.322957575321197510e-02
-2.920701354742050171e-02
-2.790299803018569946e-02
-4.080914705991744995e-02
9.361250698566436768e-02
2.042164467275142670e-02
-4.113588109612464905e-02
-1.718204095959663391e-02
-2.728712372481822968e-02
6.347619742155075073e-02
3.801460191607475281e-02
7.274944335222244263e-03
-1.542807370424270630e-02
-3.117247484624385834e-02
1.108050122857093811e-01
3.366955742239952087e-02
2.088642679154872894e-02
6.633877754211425781e-02
7.220610044896602631e-03
-1.177568137645721436e-01
-1.952874474227428436e-02
-6.929719448089599609e-02
-3.130749985575675964e-02
1.045773830264806747e-02
-9.572239592671394348e-03
-5.574630200862884521e-02
-9.288844466209411621e-02
-5.205271299928426743e-03
8.685061335563659668e-02
1.041402593255043030e-01
-1.222849637269973755e-01
-3.627547621726989746e-02
1.030709501355886459e-02
8.448475599288940430e-02
-4.880852699279785156e-01
6.893026828765869141e-02
-4.795883223414421082e-02
2.876895666122436523e-02
1.733779162168502808e-02
-8.919340372085571289e-02
-7.392422412522137165e-04
-8.546036481857299805e-02
2.518724091351032257e-02
-6.719235796481370926e-03
2.852682396769523621e-02
1.166918352246284485e-01
-1.326318234205245972e-01
-6.071566045284271240e-02
-1.169995665550231934e-01
3.070817142724990845e-02
-3.559825941920280457e-02
7.598237693309783936e-02
7.283078879117965698e-02
1.028937175869941711e-01
-5.425788834691047668e-02
-7.357817888259887695e-02
-2.952100336551666260e-02
2.166131883859634399e-02
2.841843850910663605e-02
1.375251449644565582e-03
1.086803525686264038e-01
-1.689058095216751099e-01
8.034472167491912842e-02
-1.088560372591018677e-02
-1.513522304594516754e-02
-1.257813256233930588e-02
-3.726936504244804382e-02
1.261446177959442139e-01
-7.369833439588546753e-02
5.720235779881477356e-02
-4.480392113327980042e-02
3.228693502023816109e-03
-4.872616380453109741e-02
2.760219760239124298e-02
8.794395625591278076e-02
1.152805704623460770e-02
-1.632105186581611633e-02
-1.983841136097908020e-02
-2.550232969224452972e-02
2.849927917122840881e-02
1.765174604952335358e-02
4.184602946043014526e-02
1.458769943565130234e-02
-2.623402513563632965e-02
-3.325982019305229187e-02
-2.214668877422809601e-02
-1.093783751130104065e-01
-3.798674419522285461e-02
-1.028045266866683960e-02
1.164194103330373764e-02
-1.149431392550468445e-01
-1.046537086367607117e-01
-1.622194424271583557e-02
-1.743788570165634155e-01
-1.781436204910278320e-01
1.115987543016672134e-02
-5.343790352344512939e-02
2.298415638506412506e-02
-5.704104900360107422e-02
-9.681679308414459229e-02
-1.384092122316360474e-01
7.066798955202102661e-02
-1.607634313404560089e-02
-4.938770085573196411e-02
-4.399342462420463562e-02
9.629961103200912476e-02
-2.036627940833568573e-02
-1.575404219329357147e-02
-7.714188843965530396e-02
-1.213745027780532837e-01
-6.139471009373664856e-02
-8.653044700622558594e-02
4.799750447273254395e-02
1.662318245507776737e-03
1.379350870847702026e-01
4.636030271649360657e-02
8.404114097356796265e-02
-2.134087868034839630e-02
-2.107791043817996979e-02
1.280557513236999512e-01
1.328980624675750732e-01
1.773869246244430542e-01
6.517701596021652222e-02
1.822807341814041138e-01
-9.544212371110916138e-02
4.421263188123703003e-02
-2.563292905688285828e-02
-8.584090322256088257e-02
-3.404401242733001709e-02
-3.953532502055168152e-02
2.689632587134838104e-02
1.336316615343093872e-01
-2.795030362904071808e-02
-1.393573265522718430e-02
-5.872683227062225342e-02
9.966494888067245483e-02
5.579831451177597046e-02
3.116075135767459869e-02
-2.488267049193382263e-02
5.414426326751708984e-02
1.022252161055803299e-02
9.460955113172531128e-02
3.640356240794062614e-03
9.464342147111892700e-02
3.757921233773231506e-02
4.231268540024757385e-02
-2.315725013613700867e-02
-2.262467145919799805e-02
3.147582709789276123e-02
-1.232928037643432617e-02
2.682074159383773804e-02
3.272097557783126831e-02
1.788060180842876434e-02
-4.845110327005386353e-02
-1.004308536648750305e-01
-4.153082147240638733e-02
3.694554045796394348e-02
-6.899861991405487061e-02
6.514126900583505630e-03
-6.533081829547882080e-02
1.492983568459749222e-02
-1.611695736646652222e-01
-6.614910066127777100e-02
-4.131280630826950073e-02
-7.802520692348480225e-02
-6.977032870054244995e-02
-4.514650907367467880e-03
6.281807273626327515e-02
-1.004435867071151733e-02
-1.182272732257843018e-01
-3.087958320975303650e-02
1.342473272234201431e-02
-3.221042454242706299e-02
4.547185450792312622e-02
4.722477868199348450e-02
1.898771733976900578e-03
-5.244618654251098633e-02
-2.967916987836360931e-02
3.607155755162239075e-02
-4.512552171945571899e-02
5.052505806088447571e-02
-1.116975396871566772e-01
-2.895609661936759949e-02
-2.944139540195465088e-01
6.221588701009750366e-02
6.964233517646789551e-02
-2.104423195123672485e-01
6.878909189254045486e-03
-4.638778790831565857e-02
1.050023883581161499e-01
5.137551203370094299e-02
6.791208684444427490e-02
1.447125673294067383e-01
-1.260183937847614288e-02
-1.532269269227981567e-02
1.259941607713699341e-02
-7.389846723526716232e-03
9.339227527379989624e-02
5.205492302775382996e-02
8.783733844757080078e-02
1.715814918279647827e-01
5.468282848596572876e-02
5.417780950665473938e-02
-4.421317204833030701e-02
1.506153345108032227e-01
-4.281687736511230469e-02
1.433511730283498764e-02
-1.386834830045700073e-01
9.502125903964042664e-03
-7.749628275632858276e-02
1.492596697062253952e-02
1.964203827083110809e-02
-6.014486029744148254e-02
1.202197652310132980e-02
-1.155577376484870911e-01
2.307132445275783539e-02
-8.318189531564712524e-02
-1.426966954022645950e-02
-3.559038043022155762e-02
-6.744249910116195679e-02
-8.993491530418395996e-03
-8.092789910733699799e-03
-1.310553029179573059e-02
-2.410373650491237640e-02
5.905926227569580078e-02
4.075250029563903809e-02
4.525635391473770142e-02
1.227945927530527115e-02
-4.517040401697158813e-02
-6.242262665182352066e-03
3.460685536265373230e-02
-4.502061754465103149e-03
-7.031296938657760620e-02
7.642742246389389038e-03
1.085895895957946777e-01
-2.278272062540054321e-02
3.610663115978240967e-02
1.282540522515773773e-02
-1.787763386964797974e-01
-1.514137536287307739e-01
4.500993341207504272e-02
1.401378065347671509e-01
1.202109530568122864e-01
1.342018321156501770e-02
-6.299113482236862183e-02
-9.830170124769210815e-02
2.116505801677703857e-02
5.111758038401603699e-02
7.046668231487274170e-02
9.343652427196502686e-02
4.879116266965866089e-02
-2.295609191060066223e-02
4.552057071123272181e-04
-6.806868314743041992e-02
1.985398493707180023e-02
9.049896150827407837e-03
1.944965869188308716e-02
7.391374092549085617e-03
4.957697167992591858e-02
1.044578701257705688e-01
-5.638552829623222351e-02
-5.843571200966835022e-02
-7.612725347280502319e-02
9.075825102627277374e-03
3.356139175593852997e-03
-1.084149442613124847e-02
9.920777380466461182e-02
-2.481041289865970612e-02
-8.193676918745040894e-02
-1.207577958703041077e-01
3.659947961568832397e-02
4.058829694986343384e-02
-8.341357856988906860e-02
2.006080560386180878e-02
6.285908818244934082e-02
1.097804978489875793e-01
-6.291248649358749390e-02
1.142547875642776489e-01
-5.033571273088455200e-03
-7.849568128585815430e-02
-2.035654336214065552e-02
-2.124138027429580688e-01
-2.211186885833740234e-01
-4.469809122383594513e-03
2.081252932548522949e-01
1.003084480762481689e-01
3.846009727567434311e-03
-4.114345833659172058e-02
-4.840282723307609558e-02
6.795209832489490509e-03
6.739185750484466553e-02
-1.501031219959259033e-04
1.436075940728187561e-02
-9.202412515878677368e-02
-1.679220236837863922e-02
-2.606677822768688202e-03
1.805184781551361084e-02
-1.097204610705375671e-01
3.467326983809471130e-02
1.125009506940841675e-01
-7.520838826894760132e-02
-6.024457514286041260e-02
-1.801808364689350128e-02
8.549397438764572144e-02
-2.216853573918342590e-02
-1.086971536278724670e-02
-3.937968984246253967e-02
-2.942015975713729858e-02
1.441294997930526733e-01
-9.196988493204116821e-02
-4.515769891440868378e-03
1.126894634217023849e-02
-3.300235047936439514e-02
-3.166164085268974304e-02
-7.766319811344146729e-02
1.952112019062042236e-01
-5.779699608683586121e-02
9.755823016166687012e-02
4.440815746784210205e-02
-1.589784771203994751e-02
1.699611097574234009e-01
-1.285470426082611084e-01
2.215408533811569214e-02
1.966056227684020996e-02
3.372110798954963684e-02
-1.179541498422622681e-01
-1.112828403711318970e-01
-1.946594938635826111e-02
-2.126046456396579742e-02
1.353009883314371109e-02
-3.675163537263870239e-02
6.065067648887634277e-02
2.698581293225288391e-02
4.886145237833261490e-03
1.022559776902198792e-02
-1.103864237666130066e-01
-7.179959863424301147e-02
3.149364609271287918e-03
1.114807128906250000e-01
2.954321727156639099e-02
-7.096732500940561295e-03
2.692850865423679352e-02
-5.140920355916023254e-02
7.521024439483880997e-03
2.218964695930480957e-02
-7.652068883180618286e-02
1.209601461887359619e-01
-2.633982338011264801e-02
-7.518111914396286011e-02
1.936208270490169525e-02
-1.261592563241720200e-02
-6.122214347124099731e-02
-1.530129760503768921e-01
1.846204884350299835e-02
-1.800142414867877960e-02
-6.381329894065856934e-02
-3.746927017346024513e-03
4.131824523210525513e-02
-6.142501160502433777e-02
1.134960679337382317e-03
5.811005085706710815e-02
-5.076077952980995178e-02
5.735731124877929688e-02
-2.574876323342323303e-02
3.833381086587905884e-02
-2.047617733478546143e-02
-3.547943383455276489e-02
-8.764527738094329834e-02
-5.518038757145404816e-03
-3.991492465138435364e-02
-1.072241440415382385e-01
-6.481682509183883667e-02
-7.842657715082168579e-02
4.466708004474639893e-02
1.678240858018398285e-02
-5.760433617979288101e-03
8.701582439243793488e-03
-5.520287528634071350e-02
-6.572315841913223267e-02
-5.005424097180366516e-02
7.903080433607101440e-02
1.989666745066642761e-02
-1.013624444603919983e-01
-5.003856029361486435e-03
1.700087636709213257e-02
1.984086185693740845e-01
4.640327766537666321e-02
2.152752317488193512e-02
1.518407762050628662e-01
2.110866308212280273e-01
2.771038562059402466e-02
3.256239742040634155e-02
8.440431207418441772e-02
2.047599479556083679e-02
-1.829567365348339081e-03
1.820613443851470947e-02
1.587004214525222778e-01
-7.753033190965652466e-02
-4.376186057925224304e-03
-1.517193764448165894e-01
-3.992200642824172974e-02
-8.922641724348068237e-02
-8.252568542957305908e-02
1.049955710768699646e-01
4.631384089589118958e-02
1.296174824237823486e-01
-1.296659708023071289e-01
3.135213162750005722e-03
-1.696904152631759644e-01
-4.124711453914642334e-02
-2.361925095319747925e-01
2.045337855815887451e-02
-3.920429851859807968e-03
-3.119785785675048828e-01
-9.804200381040573120e-02
-8.383201062679290771e-02
-2.786672115325927734e-01
-2.145919948816299438e-01
-3.160898014903068542e-02
-2.127587981522083282e-02
-4.867726191878318787e-02
-1.279641389846801758e-01
4.572034999728202820e-02
-1.535842716693878174e-01
-1.741184890270233154e-01
1.746446453034877777e-02
-9.867551177740097046e-02
-2.199641801416873932e-02
4.037672281265258789e-02
8.771780878305435181e-02
3.795157372951507568e-02
-4.898123070597648621e-02
6.559936702251434326e-02
2.082034945487976074e-02
-2.607879787683486938e-02
2.382948249578475952e-02
1.901237852871417999e-02
4.198157414793968201e-02
-7.090991735458374023e-02
5.059577152132987976e-02
3.331779316067695618e-02
-3.782181441783905029e-02
-1.729743741452693939e-02
4.447760805487632751e-02
-2.320440299808979034e-02
9.227527771145105362e-04
1.193094775080680847e-01
-7.919487543404102325e-03
2.300709672272205353e-02
4.635731130838394165e-02
3.130846098065376282e-02
-3.876907378435134888e-02
3.105487674474716187e-02
1.997750625014305115e-02
-1.738221733830869198e-03
-2.412579022347927094e-02
-5.126003921031951904e-02
1.312580541707575321e-03
5.541127547621726990e-02
-2.490399777889251709e-02
5.006200820207595825e-02
-3.062695078551769257e-02
-1.407681615091860294e-03
-3.286594990640878677e-03
-4.703986644744873047e-02
1.370918191969394684e-02
-4.121870175004005432e-02
-3.971502929925918579e-02
-4.505382967181503773e-04
5.587768740952014923e-03
3.235309571027755737e-02
-1.359715964645147324e-02
-3.079041093587875366e-02
3.550475090742111206e-02
2.380124293267726898e-02
-2.007232010364532471e-01
-1.840340793132781982e-01
-2.729265391826629639e-02
4.064694792032241821e-02
1.075307093560695648e-02
-4.964618757367134094e-02
-1.565282978117465973e-02
-9.354096837341785431e-03
3.748463094234466553e-02
8.512319624423980713e-02
2.741828933358192444e-02
-5.022202059626579285e-02
1.621245965361595154e-02
5.119841545820236206e-02
4.705850780010223389e-02
-6.151885166764259338e-02
8.241133036790415645e-05
-1.241590175777673721e-02
-1.028656866401433945e-02
-3.539900109171867371e-02
1.735492795705795288e-02
5.944183468818664551e-02
2.117597730830311775e-03
4.477810114622116089e-02
2.161614596843719482e-02
-5.468485876917839050e-03
-1.116432063281536102e-02
1.537892874330282211e-02
-5.738997831940650940e-02
-3.725260123610496521e-02
1.469416823238134384e-02
-1.201813947409391403e-02
4.775769542902708054e-03
-8.879113197326660156e-02
2.562223374843597412e-02
7.042232155799865723e-02
7.753454893827438354e-02
3.009683638811111450e-02
1.550662796944379807e-03
6.635883450508117676e-02
-4.744289815425872803e-02
1.603127643465995789e-02
7.577279210090637207e-02
3.713433444499969482e-02
5.072798579931259155e-02
1.104030460119247437e-01
-1.002987753599882126e-02
-4.728779941797256470e-02
1.818962208926677704e-02
1.511497102910652757e-04
-1.971423625946044922e-01
-8.020795881748199463e-02
1.896333843469619751e-01
-1.204662919044494629e-01
9.471069276332855225e-02
4.902698844671249390e-02
-1.288742423057556152e-01
1.819034852087497711e-02
-3.329318715259432793e-03
3.566080704331398010e-02
6.490354984998703003e-02
1.731303632259368896e-01
-2.230812795460224152e-02
-3.089452860876917839e-03
2.106352522969245911e-02
-2.019473165273666382e-02
-5.496078729629516602e-02
-6.821940094232559204e-02
9.172506630420684814e-02
2.054206468164920807e-02
-6.176330498419702053e-04
-2.438889257609844208e-02
7.946071773767471313e-02
8.191756904125213623e-02
-3.203309699892997742e-02
6.456460058689117432e-02
-4.580075293779373169e-02
2.980822138488292694e-02
-1.077513676136732101e-02
3.575906902551651001e-02
-4.669493646360933781e-04
1.139823496341705322e-01
9.045986086130142212e-02
7.835570722818374634e-02
-1.210082769393920898e-01
-1.839633733034133911e-01
-6.128584593534469604e-02
1.810523495078086853e-02
5.038129538297653198e-02
8.465008437633514404e-02
3.650011867284774780e-02
-1.149691641330718994e-02
7.171269506216049194e-02
-2.433556690812110901e-02
-8.149246126413345337e-02
1.943140756338834763e-03
2.883790247142314911e-02
2.658994682133197784e-02
-2.731648385524749756e-01
1.858719065785408020e-02
1.887759566307067871e-01
6.736452132463455200e-02
-1.748459637165069580e-01
-3.856986528262495995e-03
3.964353352785110474e-02
2.871811203658580780e-02
-5.548439547419548035e-02
-6.540904194116592407e-02
3.051547147333621979e-02
1.615199819207191467e-02
-1.412747055292129517e-02
1.217581033706665039e-01
8.187847584486007690e-02
2.199320495128631592e-02
2.785173058509826660e-02
9.298540651798248291e-02
2.484088530763983727e-03
-6.575181335210800171e-02
1.543347686529159546e-01
4.317466914653778076e-02
-3.306448832154273987e-02
-1.077188998460769653e-01
-8.284180611371994019e-02
-2.189378067851066589e-02
-6.333369016647338867e-02
1.034984961152076721e-01
-9.741236455738544464e-03
-5.993225798010826111e-02
-2.968603046610951424e-03
-4.656698927283287048e-02
-3.382800891995429993e-02
-1.532500833272933960e-01
-6.444947421550750732e-02
-6.738316267728805542e-02
-3.044313788414001465e-01
-1.050264611840248108e-01
-1.376717630773782730e-02
2.387398481369018555e-02
-4.550160374492406845e-03
-1.569368876516819000e-02
3.516418859362602234e-02
4.523409903049468994e-02
-1.031780466437339783e-01
8.361232466995716095e-03
-1.757187582552433014e-02
-1.054412592202425003e-02
1.578719727694988251e-02
-3.750778734683990479e-01
1.190578192472457886e-01
8.567617833614349365e-02
-1.651753783226013184e-01
-3.062670864164829254e-02
-1.907703578472137451e-01
3.867916017770767212e-02
-2.386712096631526947e-02
-9.388080239295959473e-02
-1.756005287170410156e-01
-1.785157769918441772e-01
-1.463022828102111816e-01
5.019634030759334564e-03
-8.913766592741012573e-02
-1.568788737058639526e-01
-3.866571187973022461e-02
-8.221268653869628906e-02
5.870657786726951599e-02
2.658467926084995270e-02
-3.746614232659339905e-02
7.389612495899200439e-02
-8.453451842069625854e-02
7.420645654201507568e-02
-1.131558492779731750e-01
-1.427070004865527153e-03
6.510450690984725952e-02
2.907748334109783173e-02
5.806611850857734680e-02
1.015972271561622620e-01
-3.355738520622253418e-02
-4.594026505947113037e-02
-1.948391459882259369e-02
-5.248758196830749512e-02
6.996933370828628540e-02
-1.505107805132865906e-02
1.734662242233753204e-02
2.892256341874599457e-02
-3.090622276067733765e-02
-3.429025644436478615e-03
4.507573321461677551e-03
1.562374234199523926e-01
1.027984637767076492e-02
-2.173257991671562195e-02
1.225737854838371277e-01
-2.723455987870693207e-02
2.443712763488292694e-02
2.582270503044128418e-01
1.153659746050834656e-01
1.160109136253595352e-02
-1.251804921776056290e-02
1.875171959400177002e-01
-2.231637574732303619e-02
1.255712062120437622e-01
-5.148590728640556335e-02
-1.242216825485229492e-01
3.531270027160644531e-01
1.380834728479385376e-01
1.654770076274871826e-01
8.596088737249374390e-02
1.133370399475097656e-01
-9.895424544811248779e-02
-1.553110033273696899e-01
-1.624523699283599854e-01
3.140334784984588623e-02
4.673643410205841064e-02
1.853090338408946991e-02
-7.894558459520339966e-02
2.385961078107357025e-02
-1.204523444175720215e-01
3.745291754603385925e-02
1.124344617128372192e-01
7.933149486780166626e-02
2.394982799887657166e-02
-4.159691557288169861e-02
-4.377087950706481934e-02
-4.794845730066299438e-02
1.366606056690216064e-01
2.629913762211799622e-02
1.071514748036861420e-02
6.456775125116109848e-03
-1.841009408235549927e-01
-3.196082264184951782e-02
-1.583238542079925537e-01
-8.635937422513961792e-02
9.684936702251434326e-02
1.034022495150566101e-02
9.403301775455474854e-02
-1.282302290201187134e-01
-5.179882980883121490e-03
-1.347602009773254395e-01
-8.413220196962356567e-02
-8.931988477706909180e-02
1.228691041469573975e-01
-5.177643150091171265e-02
-3.577758371829986572e-02
1.884226128458976746e-02
6.934742443263530731e-03
-1.127622276544570923e-01
1.348818466067314148e-02
-5.811828002333641052e-02
-7.128953933715820312e-02
-5.712166428565979004e-02
5.065181106328964233e-02
-1.058167219161987305e-01
4.664941877126693726e-02
-3.322928547859191895e-01
1.075921878218650818e-01
-5.800396203994750977e-02
-2.524988539516925812e-02
-2.147428542375564575e-01
5.804374441504478455e-02
-1.027225032448768616e-01
-8.439303934574127197e-02
-2.519645914435386658e-02
-1.543563604354858398e-01
-4.038389772176742554e-02
-6.261342763900756836e-02
-7.758963108062744141e-02
1.331186145544052124e-01
-6.101009994745254517e-02
5.405538901686668396e-02
1.003969237208366394e-01
-7.281065452843904495e-03
4.187332466244697571e-02
-7.183632999658584595e-02
2.468578517436981201e-01
-1.059919502586126328e-02
1.083026900887489319e-01
-1.144741103053092957e-02
-3.566815331578254700e-02
7.695154845714569092e-02
7.766800373792648315e-02
-6.113384664058685303e-02
-2.976020611822605133e-02
1.396239697933197021e-01
2.217100411653518677e-01
5.929883196949958801e-02
2.126714028418064117e-02
3.185274899005889893e-01
-3.764327242970466614e-02
1.166911274194717407e-01
1.310819685459136963e-01
6.093845004215836525e-04
-8.095266669988632202e-02
-8.525053411722183228e-02
-4.517300054430961609e-02
-7.332389056682586670e-02
4.425228980835527182e-04
1.035121008753776550e-01
1.779337674379348755e-01
-2.092318087816238403e-01
-1.232255697250366211e-01
-7.752064615488052368e-02
-6.455142982304096222e-03
1.393148601055145264e-01
8.489579707384109497e-02
-3.016794659197330475e-02
1.389295980334281921e-02
-1.486915051937103271e-01
-9.775174409151077271e-02
5.831217020750045776e-02
1.235980391502380371e-01
-8.385453373193740845e-02
4.403181001543998718e-02
-4.860544949769973755e-02
8.115526288747787476e-03
-6.050559878349304199e-02
7.411488890647888184e-02
6.548499315977096558e-02
5.291919410228729248e-02
7.463303208351135254e-02
-8.729897439479827881e-03
-2.743693301454186440e-03
6.660561542958021164e-03
4.768241941928863525e-02
7.904493808746337891e-02
-1.020292565226554871e-02
2.701830491423606873e-02
2.919882070273160934e-03
1.059545353055000305e-01
-1.231124717742204666e-02
2.737891674041748047e-02
5.090920254588127136e-03
-3.972725197672843933e-02
7.504709064960479736e-02
4.453744739294052124e-02
8.156155794858932495e-02
3.608093410730361938e-02
1.046343818306922913e-01
-6.469034403562545776e-02
-2.919656969606876373e-02
1.418260633945465088e-01
7.310925424098968506e-02
5.783608183264732361e-02
-2.183653041720390320e-02
-1.074407920241355896e-01
-5.812744051218032837e-02
-5.626296997070312500e-02
-7.638141047209501266e-03
-5.748468916863203049e-03
-3.378313779830932617e-02
-6.004783511161804199e-02
3.686393797397613525e-02
9.365599602460861206e-02
-6.639616936445236206e-02
1.145888045430183411e-01
-7.433221489191055298e-02
3.324876725673675537e-02
1.721666455268859863e-01
1.566153615713119507e-01
2.076670154929161072e-02
-1.595749333500862122e-02
4.248788580298423767e-02
5.942139029502868652e-02
6.789010949432849884e-03
-1.641653478145599365e-01
7.335475832223892212e-02
4.680583626031875610e-02
3.246477991342544556e-02
3.883602470159530640e-02
4.877309128642082214e-02
-4.747521132230758667e-03
-4.683431237936019897e-02
-4.162904992699623108e-02
1.264877244830131531e-02
-5.545633379369974136e-03
2.694195508956909180e-02
3.756723925471305847e-02
-3.804339095950126648e-03
-3.198339045047760010e-02
-1.064015645533800125e-02
-8.656375575810670853e-04
2.356146462261676788e-02
5.215862020850181580e-02
-2.423875220119953156e-02
-6.091820076107978821e-02
-5.859419703483581543e-02
-7.785247173160314560e-03
3.372680023312568665e-02
4.785189405083656311e-02
-1.441470067948102951e-02
-1.260421127080917358e-01
3.202961385250091553e-02
-9.794770926237106323e-02
-3.600580617785453796e-02
2.141773933544754982e-03
5.079947784543037415e-02
-2.421670034527778625e-02
7.026633620262145996e-02
1.714772731065750122e-01
-1.213158443570137024e-01
-1.524240151047706604e-02
-5.718161165714263916e-02
-1.183189377188682556e-01
-3.216273337602615356e-02
-1.329100131988525391e-01
-1.019238084554672241e-01
-1.982409954071044922e-01
-4.618390649557113647e-02
1.683213002979755402e-02
4.043985530734062195e-02
5.321273580193519592e-02
-1.307566743344068527e-02
-4.868938401341438293e-02
2.498569712042808533e-02
1.971482113003730774e-02
3.880509361624717712e-02
-5.628570169210433960e-02
8.356934040784835815e-02
-1.194197013974189758e-01
5.239620804786682129e-03
1.674882024526596069e-01
-2.994164824485778809e-01
1.939026117324829102e-01
-1.364093925803899765e-02
-3.550963848829269409e-02
1.220938637852668762e-01
1.199717447161674500e-01
-6.426736712455749512e-02
1.926893144845962524e-01
-6.445996463298797607e-02
-1.957477815449237823e-02
-3.117062896490097046e-02
-1.042450591921806335e-01
-1.387012191116809845e-02
-2.715755486860871315e-03
8.092639595270156860e-02
1.401293743401765823e-02
1.064678281545639038e-01
-4.060344304889440536e-03
-1.036531105637550354e-01
2.871069125831127167e-02
3.907109424471855164e-02
7.933970540761947632e-02
4.080785810947418213e-02
-3.919622674584388733e-02
-1.718672923743724823e-02
2.068994008004665375e-02
-1.125002950429916382e-01
7.365541998296976089e-03
1.420802553184330463e-03
2.316841110587120056e-02
-2.600553259253501892e-02
-1.311689466238021851e-01
1.101330071687698364e-01
-9.916387498378753662e-02
-2.027755230665206909e-02
-3.996456798631697893e-04
-6.594288861379027367e-04
-4.382864385843276978e-02
-3.530730307102203369e-01
4.191196709871292114e-02
-2.160712517797946930e-02
-3.082886897027492523e-02
-1.441568485461175442e-03
2.163730189204216003e-02
-3.949511423707008362e-02
-1.901287734508514404e-01
-5.061138421297073364e-02
1.156022772192955017e-01
1.671968214213848114e-02
3.553490340709686279e-02
-3.259347006678581238e-02
-1.287659257650375366e-01
-3.295192867517471313e-02
5.942375957965850830e-02
-6.519044190645217896e-02
-3.722941130399703979e-02
-3.190362453460693359e-02
-2.662054495885968208e-03
1.613710634410381317e-02
2.084732241928577423e-02
8.322158828377723694e-03
-1.013605743646621704e-01
4.992987960577011108e-02
-1.648326171562075615e-03
4.229953920003026724e-04
-2.315640822052955627e-02
-1.634705364704132080e-01
-8.647014200687408447e-02
-4.245238844305276871e-03
-5.141223780810832977e-03
-2.547935023903846741e-02
4.397710040211677551e-02
7.451125979423522949e-02
-7.065011560916900635e-02
3.184056282043457031e-02
1.220629587769508362e-01
7.430545985698699951e-02
1.702321320772171021e-02
5.602929368615150452e-02
-9.174985811114311218e-03
7.923260331153869629e-02
-1.407943316735327244e-03
5.171588156372308731e-03
-1.350689232349395752e-01
2.514298819005489349e-02
3.158735111355781555e-02
-1.996702514588832855e-03
-5.088870972394943237e-02
-4.102475196123123169e-02
3.063052147626876831e-02
-4.824967682361602783e-02
2.151510864496231079e-02
-2.301414124667644501e-02
-1.756541430950164795e-02
6.797827035188674927e-02
5.313450470566749573e-03
-4.516060277819633484e-02
8.586934208869934082e-02
-2.188356593251228333e-02
-2.747848816215991974e-02
-4.254833608865737915e-02
-4.116017371416091919e-03
6.849467009305953979e-02
5.512053612619638443e-03
6.492650508880615234e-02
3.551278030499815941e-03
-4.378261044621467590e-02
1.550096087157726288e-02
-3.220001608133316040e-02
4.860993847250938416e-02
4.779118672013282776e-02
4.796476289629936218e-02
-4.321447014808654785e-02
-4.245737567543983459e-02
-4.494052752852439880e-02
4.726289957761764526e-02
5.402849987149238586e-02
1.899133771657943726e-01
9.329665452241897583e-02
2.471024915575981140e-02
1.013956870883703232e-02
-5.110175115987658501e-04
-4.311279393732547760e-03
9.133348613977432251e-02
3.612138703465461731e-02
-1.853722147643566132e-03
3.454564139246940613e-02
-2.973632700741291046e-02
2.945805713534355164e-02
-2.487923577427864075e-02
-1.152184158563613892e-01
-1.232590675354003906e-01
-6.944566220045089722e-02
-7.872839923948049545e-04
-2.158268168568611145e-02
1.768173091113567352e-02
-4.073467105627059937e-02
-4.937521740794181824e-02
2.592893783003091812e-03
-6.323713809251785278e-02
5.267417524009943008e-03
-2.827080339193344116e-02
-2.363980188965797424e-02
3.158966079354286194e-02
-7.571047171950340271e-03
2.881878614425659180e-02
3.695107623934745789e-02
3.753254935145378113e-02
3.857395378872752190e-03
-1.328194048255681992e-02
2.958825603127479553e-02
3.322270885109901428e-02
1.995847932994365692e-02
-3.710786812007427216e-03
2.335410751402378082e-02
8.569557219743728638e-02
3.561281040310859680e-02
-4.282764717936515808e-02
-2.878532744944095612e-02
4.601101577281951904e-02
-5.722845438867807388e-03
1.763169467449188232e-02
7.792435586452484131e-02
7.747257500886917114e-02
5.286446958780288696e-02
-7.120036333799362183e-02
5.573323741555213928e-02
7.241443381644785404e-04
1.258377451449632645e-02
-1.552238315343856812e-01
7.854426652193069458e-02
4.949255287647247314e-02
-1.095845103263854980e-01
1.714197918772697449e-02
-1.112867891788482666e-01
-6.578800827264785767e-02
-1.275375783443450928e-01
-7.492751628160476685e-02
-1.248979642987251282e-01
-2.509974129498004913e-02
-3.846881911158561707e-02
-1.145554892718791962e-02
-1.985405832529067993e-01
-4.343422874808311462e-02
-2.066537179052829742e-02
-6.303922832012176514e-02
9.472054988145828247e-02
-2.356757223606109619e-02
6.852072477340698242e-02
-1.187194585800170898e-01
-4.551908373832702637e-02
1.227605119347572327e-01
-1.477069407701492310e-02
1.716674119234085083e-02
-8.692385256290435791e-02
-5.112358927726745605e-02
1.556538324803113937e-02
9.709777683019638062e-02
1.267728507518768311e-01
-7.770148571580648422e-03
1.130391098558902740e-02
-6.554139405488967896e-02
5.903560295701026917e-02
8.668264746665954590e-02
-3.528250753879547119e-02
1.504538506269454956e-01
-3.880803240463137627e-03
7.271289825439453125e-02
-1.403543353080749512e-02
-5.725459009408950806e-02
6.884581595659255981e-02
5.621102638542652130e-03
1.148436218500137329e-02
-9.615334565751254559e-04
-3.500479087233543396e-02
-4.383387789130210876e-02
-1.761249154806137085e-01
3.178296983242034912e-02
7.392812520265579224e-03
-2.649676986038684845e-02
-1.239892989397048950e-01
1.665302366018295288e-02
-3.439804613590240479e-01
-5.989111959934234619e-02
-1.240272261202335358e-02
-3.057003580033779144e-02
2.417826093733310699e-02
1.555468887090682983e-01
-2.029321938753128052e-01
-3.893826156854629517e-02
1.058876141905784607e-02
3.860577195882797241e-02
1.079134456813335419e-02
3.553448244929313660e-03
-7.512899488210678101e-02
-1.801193803548812866e-01
-1.244637090712785721e-02
-2.290097177028656006e-01
-4.689996130764484406e-03
2.112704329192638397e-02
4.121288284659385681e-02
6.468309555202722549e-03
-1.779351234436035156e-01
-2.155609279870986938e-01
-2.338240891695022583e-01
3.396450728178024292e-02
6.133668497204780579e-02
1.100021880120038986e-02
4.549328982830047607e-02
-6.902630627155303955e-02
-1.612812280654907227e-01
3.284724801778793335e-02
2.308512479066848755e-02
1.252539008855819702e-01
1.173712238669395447e-01
-1.298817992210388184e-01
-1.882217377424240112e-01
-1.591699868440628052e-01
-2.890155650675296783e-02
1.731970161199569702e-02
-4.483480006456375122e-02
5.088795349001884460e-02
3.819460049271583557e-02
-5.349528789520263672e-02
3.110833466053009033e-02
-2.237361669540405273e-02
-2.026855759322643280e-02
-5.451049190014600754e-03
-1.263309270143508911e-02
-1.075048148632049561e-01
2.160048782825469971e-01
6.881149858236312866e-02
-3.853415697813034058e-02
-1.697779633104801178e-02
3.455289872363209724e-03
5.879959836602210999e-02
7.375278323888778687e-02
-1.150865778326988220e-01
-6.281585246324539185e-02
-1.441626530140638351e-02
-2.984426543116569519e-02
-1.690078154206275940e-02
3.124564886093139648e-02
-2.085349410772323608e-01
1.232118308544158936e-01
-1.372420489788055420e-01
-1.327709704637527466e-01
3.782932832837104797e-02
5.110939592123031616e-02
-1.030780654400587082e-02
2.541172876954078674e-02
-3.291519284248352051e-01
-5.826723203063011169e-02
2.284853607416152954e-01
-1.840282464399933815e-03
8.159601688385009766e-02
-8.308608084917068481e-02
1.554578840732574463e-01
-7.166451960802078247e-02
-3.589023649692535400e-02
-6.807898730039596558e-02
3.047646395862102509e-02
8.204295486211776733e-02
-1.026972085237503052e-01
-1.052011922001838684e-01
-1.373721957206726074e-01
-1.214631721377372742e-01
-8.790198713541030884e-02
-2.783697564154863358e-03
5.953563004732131958e-02
-1.403015851974487305e-02
-1.251145750284194946e-01
-4.118266701698303223e-01
-5.964785069227218628e-02
-5.964097008109092712e-02
-8.026870898902416229e-03
-4.619531705975532532e-02
1.946087740361690521e-02
6.720791757106781006e-02
-1.449180766940116882e-02
-2.602185681462287903e-02
9.244704991579055786e-02
-6.626762915402650833e-03
1.227127481251955032e-02
7.511707395315170288e-02
2.192764356732368469e-02
-3.076900541782379150e-02
-2.891360595822334290e-02
8.221058547496795654e-02
-7.619185745716094971e-02
9.593802690505981445e-02
2.352582104504108429e-02
2.885354124009609222e-02
2.426820807158946991e-02
-4.480903223156929016e-02
4.910090193152427673e-02
3.766432870179414749e-03
-4.331779200583696365e-03
-8.685744553804397583e-02
-3.967286646366119385e-02
-7.295893970876932144e-03
-2.752998098731040955e-02
-2.855512686073780060e-02
-7.881619036197662354e-03
-9.530165046453475952e-02
3.623096272349357605e-02
-6.259924173355102539e-02
2.335052005946636200e-02
-3.609886020421981812e-02
-6.697534583508968353e-03
3.398155793547630310e-02
4.389056935906410217e-02
-9.873814880847930908e-03
-1.325933728367090225e-02
4.389480687677860260e-03
-2.889076713472604752e-03
2.041429094970226288e-02
-8.585464954376220703e-02
-9.889549575746059418e-03
-9.364531375467777252e-03
2.567328698933124542e-02
6.972388923168182373e-02
6.662151962518692017e-02
-2.385753393173217773e-02
-3.195029124617576599e-02
7.954043895006179810e-02
5.255580693483352661e-02
-2.410542801953852177e-04
-4.156137257814407349e-02
6.127844750881195068e-02
-8.712526410818099976e-02
-3.860891610383987427e-02
-8.958835154771804810e-02
2.787359058856964111e-02
-2.809293754398822784e-02
-1.972731575369834900e-02
5.919207353144884109e-03
-4.608080908656120300e-02
7.294397801160812378e-03
-1.297129876911640167e-02
2.293306961655616760e-02
2.226199954748153687e-02
-5.411110352724790573e-03
-1.716271042823791504e-03
6.741764023900032043e-03
1.642490923404693604e-02
-5.456355959177017212e-02
1.289666350930929184e-02
-3.687764331698417664e-02
1.397209241986274719e-03
-2.541553415358066559e-02
6.195016205310821533e-02
-1.489365007728338242e-02
2.017881534993648529e-02
1.560840755701065063e-02
-2.021051757037639618e-02
-1.050630770623683929e-02
7.406513206660747528e-03
3.397919610142707825e-02
1.683120056986808777e-02
-2.292400784790515900e-02
-3.735061362385749817e-02
-6.506811827421188354e-02
-6.565441936254501343e-02
2.383373118937015533e-02
-4.333613812923431396e-02
2.001393400132656097e-02
9.195129573345184326e-02
2.790487371385097504e-02
3.907853364944458008e-02
-1.786690577864646912e-02
1.537348423153162003e-02
8.024176955223083496e-02
8.482333272695541382e-03
-1.563381031155586243e-02
5.180851742625236511e-02
-4.085452109575271606e-02
5.104363709688186646e-02
1.029479354619979858e-01
1.266398876905441284e-01
2.494343370199203491e-02
-7.428983226418495178e-03
4.977807402610778809e-02
6.657249480485916138e-02
8.541162312030792236e-02
5.017806962132453918e-02
-2.688028514385223389e-01
1.034064800478518009e-03
1.572541147470474243e-02
6.650690734386444092e-02
-1.009658649563789368e-01
3.495464473962783813e-02
-6.584038957953453064e-03
9.493523836135864258e-02
5.984530318528413773e-03
4.657271131873130798e-02
3.336121095344424248e-03
-5.037228576838970184e-03
-7.845916599035263062e-02
2.974595315754413605e-02
9.319526702165603638e-02
4.846137762069702148e-02
6.049073487520217896e-02
-7.044554501771926880e-02
7.355551421642303467e-02
-8.225177973508834839e-02
-1.873316802084445953e-02
-2.307237684726715088e-02
4.261749610304832458e-02
4.800417274236679077e-02
-9.850178845226764679e-03
-2.254239097237586975e-02
7.497528940439224243e-02
3.913431894034147263e-03
-1.347578614950180054e-01
2.541305311024188995e-02
-9.397864341735839844e-03
1.224372163414955139e-01
1.764109358191490173e-02
-6.569806486368179321e-02
-3.463527187705039978e-02
-8.585672825574874878e-02
-7.860570214688777924e-03
-1.172016412019729614e-01
9.515438973903656006e-02
1.911433599889278412e-02
-9.722556173801422119e-02
-2.068516425788402557e-02
1.099975928664207458e-01
-3.352483361959457397e-02
-7.685629278421401978e-02
-3.960080072283744812e-02
4.372956603765487671e-02
1.918771304190158844e-02
7.941483519971370697e-03
1.422499585896730423e-02
1.970733329653739929e-02
7.330148946493864059e-03
-3.669334575533866882e-02
8.353628218173980713e-03
-5.628731846809387207e-02
3.076423518359661102e-02
4.634733498096466064e-02
-1.359732151031494141e-01
1.553541165776550770e-03
-6.788630038499832153e-02
-1.068960130214691162e-02
-2.331558428704738617e-02
3.548339381814002991e-02
9.962042793631553650e-03
-1.526268478482961655e-02
2.626871457323431969e-03
-4.734441265463829041e-02
1.526769995689392090e-02
-7.395730167627334595e-02
-9.665512293577194214e-02
1.410757284611463547e-02
-3.838489577174186707e-02
-3.589934483170509338e-02
8.695206604897975922e-03
3.052212111651897430e-02
-2.791192196309566498e-02
-4.196817055344581604e-02
5.221080034971237183e-02
-1.769000291824340820e-02
-1.261387467384338379e-01
7.866045087575912476e-02
4.479182139039039612e-02
2.339583262801170349e-02
2.656166814267635345e-02
4.601864516735076904e-02
-2.206922508776187897e-02
9.645814448595046997e-02
-2.362205460667610168e-02
-2.403438836336135864e-02
2.170929685235023499e-02
1.946514993906021118e-01
1.497963517904281616e-01
-2.703112363815307617e-02
7.345078885555267334e-02
-1.034758705645799637e-02
2.314206026494503021e-02
-1.533149462193250656e-02
-4.613583907485008240e-03
8.856382220983505249e-02
-3.633935377001762390e-02
7.341242581605911255e-02
-3.153385221958160400e-02
-2.102406509220600128e-02
6.983943283557891846e-02
8.177769184112548828e-02
-7.728762179613113403e-02
-6.868189573287963867e-02
-8.520644158124923706e-03
-1.233681570738554001e-02
3.659976646304130554e-02
3.631566464900970459e-02
-1.289950013160705566e-01
6.713350862264633179e-02
-2.118603885173797607e-02
4.541893675923347473e-02
-1.156355347484350204e-02
-3.411089256405830383e-02
-2.601782605051994324e-02
-3.587865829467773438e-02
6.416997313499450684e-02
1.602143049240112305e-02
-1.642680913209915161e-02
1.579191721975803375e-02
9.732232429087162018e-04
4.668162018060684204e-02
-7.610205095261335373e-03
5.195043515413999557e-03
-1.976324021816253662e-01
-6.001802533864974976e-02
-1.269290968775749207e-02
6.019143387675285339e-02
-2.180850692093372345e-02
-1.485346257686614990e-01
-1.026853471994400024e-01
-2.757060825824737549e-01
-1.247218400239944458e-01
-1.722789742052555084e-02
-2.862093411386013031e-02
-4.881837218999862671e-02
-4.315622523427009583e-02
2.370282411575317383e-01
-4.317074418067932129e-01
-6.991693377494812012e-02
5.229866877198219299e-02
-2.033352106809616089e-02
-9.992912411689758301e-02
8.631425350904464722e-02
-1.220306940376758575e-02
9.943966567516326904e-02
3.511597588658332825e-02
3.300444781780242920e-02
-6.557707674801349640e-03
-7.174549996852874756e-02
9.302191436290740967e-02
-2.419419772922992706e-02
-1.065059304237365723e-01
-7.649265974760055542e-02
-3.569865599274635315e-02
-1.663302443921566010e-02
-4.521305859088897705e-02
7.840260863304138184e-03
6.573222111910581589e-03
-1.526375710964202881e-01
-6.667333841323852539e-02
-4.156409576535224915e-02
4.874335974454879761e-02
4.596864432096481323e-02
-6.468761712312698364e-03
2.713546529412269592e-02
1.772913336753845215e-02
-2.013063803315162659e-02
-2.364885434508323669e-02
2.703898027539253235e-02
9.028621762990951538e-02
-1.807850971817970276e-02
9.821480140089988708e-03
-1.636039651930332184e-02
-8.685195446014404297e-02
5.944386869668960571e-02
2.241334319114685059e-02
1.247203424572944641e-01
1.026525162160396576e-02
3.083366714417934418e-02
-7.822988182306289673e-02
-1.010666415095329285e-02
1.027703285217285156e-02
3.386874869465827942e-02
-3.147335723042488098e-02
3.626502305269241333e-02
7.117040455341339111e-02
1.983392285183072090e-03
-3.062728047370910645e-01
4.373274743556976318e-03
-8.262240444310009480e-04
-7.530190050601959229e-02
-5.860556662082672119e-02
2.672815928235650063e-03
-9.291154146194458008e-02
-8.233451098203659058e-02
-2.636182866990566254e-02
9.836480021476745605e-02
1.446891576051712036e-02
1.193362101912498474e-01
3.645064309239387512e-02
-9.216628968715667725e-02
6.188975274562835693e-02
1.194883212447166443e-01
3.034200333058834076e-02
-8.469645865261554718e-03
-2.579699829220771790e-02
4.668536782264709473e-02
-1.603131443262100220e-01
-4.045550303999334574e-04
3.879569470882415771e-03
1.681050285696983337e-03
5.609050020575523376e-02
-4.611460492014884949e-02
4.451307281851768494e-02
-3.639698028564453125e-01
6.145072728395462036e-02
-2.301644301041960716e-03
-2.910139225423336029e-02
-1.175499856472015381e-01
1.156366392970085144e-01
-7.373329997062683105e-02
-1.588435471057891846e-01
-4.536684229969978333e-02
1.290147844702005386e-02
-6.762472540140151978e-02
1.562198437750339508e-02
-1.847617924213409424e-01
-5.526810884475708008e-02
-9.751363098621368408e-02
-8.785660564899444580e-02
-6.626414507627487183e-02
-4.787262156605720520e-02
-3.750486671924591064e-02
-7.093193382024765015e-02
3.469599410891532898e-02
9.926859289407730103e-02
-6.771207600831985474e-02
2.842426486313343048e-02
2.437666989862918854e-02
-3.423592075705528259e-02
6.308630853891372681e-02
-5.825729668140411377e-02
-2.052400708198547363e-01
4.709607362747192383e-02
1.101759374141693115e-01
1.350095216184854507e-02
3.530754521489143372e-02
2.884792629629373550e-03
-6.219308078289031982e-02
-4.720844700932502747e-02
-2.763994038105010986e-02
-2.895041368901729584e-02
-2.022101916372776031e-02
1.248601544648408890e-02
-3.171220049262046814e-02
-2.367008291184902191e-02
-6.858117878437042236e-02
-2.897619642317295074e-02
1.159191690385341644e-02
5.154048278927803040e-02
-3.377367183566093445e-02
2.980795688927173615e-02
4.518421366810798645e-02
1.379449218511581421e-01
-7.677014172077178955e-02
-3.654967993497848511e-02
5.299893394112586975e-02
-1.933348923921585083e-02
2.642283216118812561e-02
1.567844534292817116e-03
-1.295043155550956726e-02
-1.033048182725906372e-01
7.126829773187637329e-02
-1.638266593217849731e-01
1.090830564498901367e-01
1.144322007894515991e-02
5.328172445297241211e-02
2.878026105463504791e-02
8.348315954208374023e-03
1.149577572941780090e-01
-9.765085764229297638e-03
-1.748790778219699860e-02
1.698653399944305420e-02
-5.485191009938716888e-03
-4.655692726373672485e-02
-3.560736030340194702e-02
3.081628866493701935e-02
-3.157152235507965088e-02
-2.857525832951068878e-02
1.151267066597938538e-02
-1.515675429254770279e-02
-4.241747036576271057e-02
4.594369977712631226e-02
-1.725460402667522430e-02
5.237294733524322510e-02
-3.993280977010726929e-02
1.326920837163925171e-02
5.103469826281070709e-03
1.097838804125785828e-01
2.939085848629474640e-02
-1.397296693176031113e-02
-2.227821201086044312e-02
2.149447798728942871e-02
1.943810470402240753e-02
-2.514042193070054054e-03
-6.480532139539718628e-02
-4.987027123570442200e-02
-1.214968785643577576e-02
-4.409005865454673767e-03
8.160737901926040649e-02
2.834984660148620605e-02
-5.409497395157814026e-02
-2.651006542146205902e-02
-1.483472585678100586e-01
2.865868620574474335e-02
6.344561465084552765e-03
4.988525435328483582e-02
-1.985846087336540222e-03
-7.365416735410690308e-03
-1.995544694364070892e-02
-9.151057153940200806e-02
-1.504138763993978500e-02
6.163939833641052246e-02
4.320750012993812561e-02
4.419842734932899475e-02
6.131734326481819153e-02
-4.399169236421585083e-02
-5.219470337033271790e-02
-8.011115342378616333e-02
-1.509755733422935009e-03
3.569123148918151855e-02
7.774694263935089111e-02
6.585060805082321167e-02
1.157512655481696129e-03
7.300608605146408081e-02
1.464384421706199646e-02
7.499560713768005371e-02
7.164668291807174683e-02
2.532539889216423035e-02
-5.554698780179023743e-02
-1.591813117265701294e-01
1.188976913690567017e-01
1.944381184875965118e-02
-6.360733509063720703e-02
-2.810643613338470459e-02
-1.630825698375701904e-01
-3.441562876105308533e-02
-5.550207942724227905e-02
2.829911001026630402e-02
7.967578619718551636e-02
7.226019632071256638e-03
-9.808900207281112671e-02
1.167649179697036743e-01
1.170663237571716309e-01
8.777636289596557617e-02
1.415736675262451172e-01
5.428469181060791016e-02
9.721026569604873657e-02
-4.450140520930290222e-02
5.814452306367456913e-04
6.126277521252632141e-02
-1.070688068866729736e-01
5.287785455584526062e-02
-4.248673841357231140e-02
-1.779316924512386322e-02
7.400374114513397217e-02
1.274879574775695801e-01
-8.091714233160018921e-02
-6.607432663440704346e-02
3.180985897779464722e-02
9.651733934879302979e-02
6.641162186861038208e-02
2.975225634872913361e-02
-9.629206731915473938e-03
8.662320673465728760e-02
1.213716790080070496e-01
-3.277368843555450439e-02
2.310110488906502724e-03
2.902251668274402618e-02
1.402822732925415039e-01
1.016776114702224731e-01
-6.996665615588426590e-03
-2.537824027240276337e-02
-1.974122971296310425e-02
-6.072479486465454102e-02
8.370794355869293213e-02
-9.047371335327625275e-03
-4.933294653892517090e-02
1.254304591566324234e-02
-4.646307788789272308e-03
-7.173746079206466675e-02
-1.344930380582809448e-01
-3.996074572205543518e-02
-9.546188265085220337e-02
-2.940154820680618286e-02
-9.412717074155807495e-02
-2.110263332724571228e-03
-2.846979722380638123e-02
-5.565087124705314636e-02
7.957562920637428761e-04
-2.295111119747161865e-01
1.655334681272506714e-01
-2.932763472199440002e-02
5.810955166816711426e-02
5.954164266586303711e-02
8.404241502285003662e-02
-4.513854533433914185e-02
8.318150043487548828e-02
1.884371191263198853e-01
6.072937697172164917e-02
3.464757651090621948e-02
1.312330458313226700e-02
-5.036884918808937073e-02
6.642735004425048828e-02
1.728359423577785492e-02
5.495783686637878418e-02
4.505439475178718567e-02
-2.932243049144744873e-02
1.755958050489425659e-02
-1.121313944458961487e-01
2.136338874697685242e-02
1.763085462152957916e-02
4.617531970143318176e-02
-1.740400306880474091e-02
4.077949374914169312e-02
2.098548598587512970e-02
-1.354222446680068970e-01
-4.658255353569984436e-02
-1.663167215883731842e-02
-1.029619202017784119e-01
6.180823594331741333e-02
-5.143881961703300476e-02
1.455708127468824387e-02
-1.055726483464241028e-01
3.804421052336692810e-02
-9.315419197082519531e-02
5.360463261604309082e-02
9.520075470209121704e-02
1.225466839969158173e-02
1.058275252580642700e-02
4.492194950580596924e-02
-1.220093294978141785e-02
7.200967520475387573e-02
2.954385615885257721e-02
1.312032621353864670e-02
2.629163302481174469e-02
2.630863897502422333e-02
1.299196761101484299e-02
1.694535464048385620e-02
7.972095906734466553e-02
-7.950839400291442871e-02
4.081973806023597717e-02
2.272643847391009331e-03
5.976334586739540100e-02
-1.033137459307909012e-02
-3.420347347855567932e-02
4.134113714098930359e-02
-3.470851853489875793e-02
-1.671358197927474976e-02
2.744713053107261658e-02
4.205257073044776917e-02
4.332031589001417160e-03
4.813831672072410583e-02
4.480545222759246826e-02
1.310322619974613190e-02
-1.981232129037380219e-02
-1.682812348008155823e-02
-5.276462063193321228e-02
-7.476884126663208008e-02
5.967761948704719543e-02
-1.220868751406669617e-01
-2.305928617715835571e-01
-6.022262945771217346e-02
-2.106130495667457581e-02
1.112515013664960861e-02
-1.387306023389101028e-02
-8.702138811349868774e-02
6.107524037361145020e-02
3.275008127093315125e-02
6.226034834980964661e-03
-3.335550054907798767e-02
1.098871324211359024e-02
2.700373344123363495e-02
-2.054064534604549408e-02
9.747770614922046661e-03
1.140234023332595825e-01
9.677687287330627441e-02
1.513439510017633438e-02
2.033421210944652557e-02
-2.357767522335052490e-02
-1.016286164522171021e-01
3.055740147829055786e-02
-5.711087491363286972e-03
-1.262716203927993774e-02
-5.035828426480293274e-02
2.486633881926536560e-02
-1.348217576742172241e-01
-2.553253620862960815e-02
-1.366713363677263260e-02
-1.206169873476028442e-01
5.415339488536119461e-03
8.495566435158252716e-04
-4.835381731390953064e-02
3.182451426982879639e-02
6.551043689250946045e-02
2.267653495073318481e-02
4.559345543384552002e-02
6.606039404869079590e-02
-2.553868666291236877e-02
-5.807322636246681213e-02
4.429787769913673401e-02
2.202252112329006195e-02
5.464709363877773285e-03
-4.502809792757034302e-02
4.233925789594650269e-02
-4.063572734594345093e-02
-3.886250033974647522e-02
-5.944527313113212585e-02
-4.441249370574951172e-02
-6.574848294258117676e-02
-9.908710420131683350e-02
6.241915747523307800e-02
-1.560974959284067154e-02
1.711593866348266602e-01
-1.942497640848159790e-01
-1.258033514022827148e-01
-7.569791376590728760e-02
-1.256960630416870117e-01
-7.356935739517211914e-02
1.793367713689804077e-01
1.664122915826737881e-03
3.801833093166351318e-02
2.910283207893371582e-02
5.490663647651672363e-02
4.633051902055740356e-02
1.745949387550354004e-01
1.813291460275650024e-01
2.094663679599761963e-02
1.189604327082633972e-01
-4.982428252696990967e-02
8.510249108076095581e-02
1.497567892074584961e-01
6.002325192093849182e-02
7.696270197629928589e-02
-5.004651471972465515e-02
3.973285667598247528e-03
8.963215351104736328e-02
5.610463023185729980e-02
-3.740419447422027588e-02
1.143150776624679565e-02
-3.244982659816741943e-02
-4.589314386248588562e-02
-1.020253300666809082e-01
5.006448552012443542e-02
2.021219581365585327e-02
-2.254425920546054840e-02
2.917221561074256897e-02
6.330409087240695953e-03
8.896370418369770050e-03
-3.667788952589035034e-02
1.949092186987400055e-02
5.933340266346931458e-02
4.458368569612503052e-02
9.745725989341735840e-02
9.625943005084991455e-02
1.120850071310997009e-02
3.319134935736656189e-03
-5.598758533596992493e-02
6.285607814788818359e-02
9.953752160072326660e-03
1.805524108931422234e-03
3.326373989693820477e-04
1.852229237556457520e-02
-1.643242500722408295e-02
-4.467726685106754303e-03
-4.836035892367362976e-03
9.962312877178192139e-02
5.970326438546180725e-02
-4.372788965702056885e-02
-8.073583245277404785e-02
2.817211486399173737e-02
1.381171792745590210e-01
8.125559985637664795e-02
1.062898039817810059e-01
5.685479263775050640e-04
-6.492265313863754272e-02
-3.921484202146530151e-02
-6.623953580856323242e-02
-1.268240362405776978e-01
-8.954139426350593567e-03
3.126705437898635864e-02
-1.797070652246475220e-01
-8.712016046047210693e-02
5.441279709339141846e-02
2.220590598881244659e-02
4.799473285675048828e-02
-8.874733746051788330e-02
-8.197924494743347168e-02
-5.193623527884483337e-02
6.400733441114425659e-02
-1.242312695831060410e-02
5.659111589193344116e-02
1.514204442501068115e-01
-1.790006309747695923e-01
1.112945079803466797e-01
5.790658667683601379e-02
5.756774544715881348e-02
-9.461978822946548462e-02
-6.379821896553039551e-02
-2.694582566618919373e-02
-5.436379835009574890e-02
3.597452864050865173e-02
-7.957106083631515503e-02
-4.356903955340385437e-02
2.985631674528121948e-02
-4.599931184202432632e-03
3.656441345810890198e-02
-1.252339780330657959e-01
1.173933893442153931e-01
1.114939078688621521e-01
1.135956961661577225e-02
6.149074062705039978e-02
-2.094258517026901245e-01
2.235723882913589478e-01
-1.573088578879833221e-02
-2.073664665222167969e-01
-1.342130452394485474e-01
-3.775882720947265625e-02
7.724714279174804688e-02
-1.558858305215835571e-01
-9.187938272953033447e-02
-2.860900163650512695e-01
-2.212132364511489868e-01
-1.217093132436275482e-02
-3.193877264857292175e-02
6.504207383841276169e-03
-5.970969051122665405e-02
-1.580118834972381592e-01
1.783813685178756714e-01
-3.703934326767921448e-02
-2.311060577630996704e-01
-8.089921623468399048e-02
-8.519829809665679932e-02
-1.207537367008626461e-03
2.176428213715553284e-02
5.664888396859169006e-02
-1.190930828452110291e-01
2.088928967714309692e-01
7.970327883958816528e-02
-1.540250261314213276e-03
1.246096100658178329e-03
3.280434757471084595e-02
-1.109836176037788391e-01
-2.842014469206333160e-02
5.339214205741882324e-02
1.386169344186782837e-03
5.816297233104705811e-02
-8.374102413654327393e-02
-3.337842226028442383e-02
1.748020201921463013e-02
1.735479533672332764e-01
-1.135533303022384644e-01
-4.506904259324073792e-02
2.875589951872825623e-02
-9.104663506150245667e-03
1.642516404390335083e-01
-7.731590420007705688e-02
1.336148977279663086e-01
-1.002977117896080017e-01
2.317156642675399780e-02
6.403481215238571167e-02
5.627327784895896912e-02
1.751717552542686462e-02
1.621552556753158569e-01
-6.064703688025474548e-03
-9.945770353078842163e-02
1.741473674774169922e-01
6.559944245964288712e-03
-2.014015428721904755e-02
8.903982117772102356e-03
-6.467376835644245148e-03
-4.056323319673538208e-03
-1.048108339309692383e-01
1.254049390554428101e-01
-3.091342002153396606e-02
5.308053269982337952e-02
7.687298953533172607e-02
5.108026787638664246e-02
-1.630156673491001129e-02
1.975087448954582214e-02
5.461383983492851257e-02
1.726607792079448700e-02
4.180028662085533142e-02
3.612720221281051636e-02
6.517465412616729736e-02
-1.868660002946853638e-02
2.919516898691654205e-02
-2.446001954376697540e-02
-4.407848045229911804e-02
5.259661749005317688e-02
6.049654632806777954e-02
7.504418492317199707e-02
1.922492310404777527e-02
-4.962231218814849854e-02
-4.861494898796081543e-02
5.496207997202873230e-02
3.578919917345046997e-02
7.780643180012702942e-03
7.179916650056838989e-02
-3.349993377923965454e-02
1.781891658902168274e-02
-6.711363792419433594e-02
1.004681736230850220e-02
-2.589873410761356354e-02
2.034552022814750671e-02
3.157373983412981033e-03
-1.020524501800537109e-01
-5.522174015641212463e-02
-6.474056839942932129e-02
-3.548103943467140198e-02
-6.751315295696258545e-02
4.764666035771369934e-02
6.090858951210975647e-02
3.689147159457206726e-02
-1.370947211980819702e-01
1.083324197679758072e-02
-5.009399726986885071e-02
-3.091408126056194305e-02
4.976925626397132874e-02
1.760714128613471985e-02
1.864324137568473816e-02
8.941410481929779053e-02
8.735813200473785400e-03
5.360735580325126648e-02
6.228902563452720642e-02
-4.279957711696624756e-02
-7.945398800075054169e-03
7.504497468471527100e-02
2.229381725192070007e-02
4.679722711443901062e-03
1.447529625147581100e-02
3.902955213561654091e-03
2.050744835287332535e-03
3.020451590418815613e-02
-3.868427500128746033e-02
4.713981226086616516e-02
8.646734058856964111e-03
-3.363455832004547119e-02
-1.120131090283393860e-02
-8.762822108110412955e-05
2.787541039288043976e-02
-6.816434673964977264e-03
-7.264341413974761963e-02
-2.974964119493961334e-02
7.865908741950988770e-02
3.380401432514190674e-02
7.927484810352325439e-03
4.782921820878982544e-02
-2.020757459104061127e-02
-5.275046452879905701e-03
1.851606741547584534e-02
1.861621160060167313e-03
4.420055542141199112e-03
4.955158755183219910e-02
5.127593874931335449e-02
1.202536001801490784e-02
2.802782505750656128e-02
-3.298724815249443054e-02
2.913308516144752502e-02
-8.889377117156982422e-02
1.387228071689605713e-01
6.638098508119583130e-02
2.925471961498260498e-02
2.691691741347312927e-02
-2.017321623861789703e-02
-6.971596274524927139e-03
3.834643587470054626e-02
6.002485752105712891e-02
-3.822230035439133644e-03
1.117678452283143997e-02
9.366280399262905121e-03
-3.295034542679786682e-02
3.500473126769065857e-02
-2.437737211585044861e-02
6.114377453923225403e-02
1.654771864414215088e-01
8.531191945075988770e-02
1.137099266052246094e-01
-5.371261388063430786e-02
-1.738815335556864738e-03
-1.567983999848365784e-02
2.538215741515159607e-02
-8.407127857208251953e-02
2.112576365470886230e-02
2.808565646409988403e-02
-5.293701961636543274e-02
2.669576369225978851e-02
7.362297177314758301e-02
-7.998793572187423706e-02
-1.009408608078956604e-01
5.227908957749605179e-03
2.478237077593803406e-02
4.281426221132278442e-02
9.073533862829208374e-02
-3.467283397912979126e-02
-3.903996944427490234e-02
-6.291220337152481079e-02
-1.021700166165828705e-02
1.316092163324356079e-01
-5.666190758347511292e-03
3.641998022794723511e-02
6.105936691164970398e-02
-3.433645889163017273e-02
4.292573034763336182e-02
-3.673854097723960876e-02
-2.181760221719741821e-02
-1.212999690324068069e-02
2.657776176929473877e-01
3.269601240754127502e-02
3.026380203664302826e-02
1.315528750419616699e-01
-9.093201160430908203e-02
8.317152410745620728e-02
2.308426052331924438e-02
-7.171683758497238159e-02
-4.043597728013992310e-02
2.848311560228466988e-03
-1.802870072424411774e-02
-1.187485456466674805e-01
-6.196515168994665146e-03
3.734135627746582031e-02
-1.161114033311605453e-02
-5.203656479716300964e-02
5.782699584960937500e-02
-1.166068948805332184e-02
3.164558857679367065e-02
-1.555892452597618103e-02
-1.819092431105673313e-03
-1.235293298959732056e-01
-5.241476744413375854e-02
7.321275770664215088e-02
-3.416050598025321960e-02
5.521012097597122192e-02
2.156208502128720284e-03
-3.215410932898521423e-02
-3.297141194343566895e-02
3.987610805779695511e-03
1.590032689273357391e-02
3.050784021615982056e-02
7.773533463478088379e-02
-2.625508420169353485e-02
-7.553084939718246460e-02
1.411825269460678101e-01
7.850915193557739258e-02
5.994446575641632080e-02
-7.832575589418411255e-02
-3.171091899275779724e-02
5.004208907485008240e-02
1.670030504465103149e-01
8.697068691253662109e-02
8.528434671461582184e-03
4.969879239797592163e-02
4.754712863359600306e-04
-8.017942309379577637e-02
-7.250232156366109848e-03
-1.019026618450880051e-03
5.948643684387207031e-01
-1.268307566642761230e-01
-7.630702108144760132e-02
-2.857342362403869629e-01
-1.433158069849014282e-01
-1.245527565479278564e-01
3.019737638533115387e-02
7.590477168560028076e-02
7.561305910348892212e-02
-4.109131544828414917e-02
-1.231430545449256897e-01
-6.204744800925254822e-02
5.520252138376235962e-02
-1.902783215045928955e-01
-4.919811710715293884e-02
5.847373977303504944e-02
-1.174781098961830139e-01
-7.137581706047058105e-03
5.318036302924156189e-03
1.233505737036466599e-02
1.315582692623138428e-01
-2.844366617500782013e-02
-4.423392564058303833e-02
-4.424392431974411011e-02
1.389763057231903076e-01
-1.030118241906166077e-01
-6.558431684970855713e-02
2.495883703231811523e-01
-7.854513078927993774e-02
3.149576485157012939e-02
2.479798719286918640e-02
1.345268450677394867e-02
1.200841739773750305e-02
9.525408037006855011e-03
3.681049495935440063e-02
3.053567744791507721e-02
5.633743852376937866e-02
4.200438037514686584e-02
3.611687943339347839e-02
6.397192925214767456e-02
1.565316021442413330e-01
-3.902698680758476257e-02
2.907001413404941559e-02
4.416497424244880676e-02
-4.867328703403472900e-02
-4.756114631891250610e-02
1.807412918424233794e-04
1.370579898357391357e-01
-9.860829450190067291e-03
2.458008080720901489e-01
-9.184364974498748779e-02
-5.146023258566856384e-02
4.963533207774162292e-02
-1.937037855386734009e-01
-4.350397735834121704e-02
2.312789857387542725e-01
1.588323265314102173e-01
4.778393730521202087e-02
2.020904235541820526e-02
-9.929121285676956177e-02
-1.054059639573097229e-01
1.755332015454769135e-02
3.399535417556762695e-01
6.022198870778083801e-02
2.082904428243637085e-02
1.884317584335803986e-02
-4.511025547981262207e-02
5.295912176370620728e-02
2.214003726840019226e-02
2.044347971677780151e-01
-1.336343586444854736e-03
-3.117863088846206665e-02
-9.207461960613727570e-03
3.221296146512031555e-02
-4.794007912278175354e-02
2.261059358716011047e-02
-1.338523328304290771e-01
5.296306684613227844e-02
1.783132366836071014e-02
5.999703332781791687e-02
-6.217647809535264969e-03
-7.623464614152908325e-02
-5.317094549536705017e-02
-2.647300995886325836e-02
3.979535400867462158e-02
2.077700756490230560e-02
-6.988286040723323822e-03
1.026960611343383789e-01
6.657978147268295288e-02
8.068279922008514404e-02
-2.300698608160018921e-01
-1.348409354686737061e-01
-1.039633825421333313e-01
-9.514568001031875610e-02
-8.768091350793838501e-02
4.732234403491020203e-03
6.865168362855911255e-02
-2.480189949274063110e-01
-6.602632999420166016e-02
4.549394175410270691e-02
6.403782404959201813e-03
1.464977115392684937e-01
1.372389942407608032e-01
-1.217067707329988480e-02
1.020719483494758606e-01
5.388522986322641373e-03
1.223813369870185852e-02
-1.032062172889709473e-01
-5.598976835608482361e-02
-8.610688894987106323e-02
-8.990319073200225830e-02
5.575110316276550293e-01
5.743174254894256592e-02
-5.588516592979431152e-02
-2.096570879220962524e-01
-8.143643289804458618e-02
1.195649132132530212e-01
1.090744435787200928e-01
2.425850927829742432e-01
-1.184093579649925232e-01
1.811793819069862366e-02
3.783522546291351318e-02
-6.636702269315719604e-02
7.073407620191574097e-02
-6.133466213941574097e-02
7.821834832429885864e-02
-1.252219378948211670e-01
4.099445417523384094e-02
-3.152330964803695679e-02
-1.281978935003280640e-02
-1.782515319064259529e-03
6.026742607355117798e-02
2.640510201454162598e-01
8.930286765098571777e-02
4.062001593410968781e-03
-3.365926817059516907e-02
5.028346925973892212e-02
8.711225539445877075e-02
-1.503956969827413559e-02
2.409417778253555298e-01
6.210170686244964600e-02
-3.480376303195953369e-02
-6.930041313171386719e-02
9.230571985244750977e-02
3.420573472976684570e-02
7.173526287078857422e-02
1.440882682800292969e-01
6.784771382808685303e-02
-2.623693645000457764e-02
2.052409350872039795e-01
3.617830201983451843e-02
-6.002877280116081238e-02
-1.365090012550354004e-01
2.917083203792572021e-01
9.913996607065200806e-02
9.353247471153736115e-03
-6.264422833919525146e-02
-1.114938408136367798e-01
-1.265214234590530396e-01
-2.120966278016567230e-02
9.329079836606979370e-02
2.946044690907001495e-02
1.644057780504226685e-02
-2.971336245536804199e-02
-1.961972750723361969e-02
-5.376550555229187012e-02
-2.794605679810047150e-02
5.377502180635929108e-03
-1.819875277578830719e-02
-9.520060569047927856e-02
1.932103745639324188e-02
1.016451418399810791e-02
-3.112856298685073853e-02
-3.297010064125061035e-02
3.508489206433296204e-02
-1.030510663986206055e-01
-6.343563646078109741e-02
-3.384585725143551826e-03
4.994331300258636475e-02
-2.905690483748912811e-02
-4.375899210572242737e-02
-2.114064246416091919e-02
3.781260922551155090e-02
8.365496248006820679e-02
3.559255274012684822e-03
-1.366471871733665466e-02
3.473017131909728050e-03
5.431999266147613525e-02
6.792175024747848511e-02
-1.283532381057739258e-01
4.008781909942626953e-02
-9.899492561817169189e-02
6.769239902496337891e-02
2.916906401515007019e-02
1.231571193784475327e-02
1.200888082385063171e-01
2.629283070564270020e-01
-5.237329006195068359e-02
-1.827432587742805481e-02
1.716240309178829193e-02
8.753493428230285645e-02
1.522916257381439209e-01
-2.849524654448032379e-02
-1.431295834481716156e-02
-6.160610914230346680e-02
-1.765442639589309692e-02
-1.216238662600517273e-01
1.247173845767974854e-01
-2.629354596138000488e-02
2.495604008436203003e-02
-3.633229061961174011e-02
3.089579194784164429e-02
1.153200305998325348e-02
1.256571151316165924e-02
8.751002140343189240e-03
-5.286405235528945923e-02
-4.895554110407829285e-02
4.536908864974975586e-02
-2.094765566289424896e-02
-4.160604905337095261e-03
-1.647419668734073639e-02
6.035636365413665771e-02
9.370818734169006348e-02
5.050425976514816284e-02
-1.155271008610725403e-01
-9.826273657381534576e-03
-3.395474329590797424e-02
-1.977813988924026489e-02
-7.497770711779594421e-03
-4.409528803080320358e-03
-8.257197588682174683e-02
3.996237739920616150e-02
-5.475179851055145264e-02
-4.794472455978393555e-02
3.683425858616828918e-02
8.526343107223510742e-02
-1.146743632853031158e-02
6.347716599702835083e-02
-3.503463417291641235e-02
-3.779131546616554260e-02
-5.260170996189117432e-02
1.927756518125534058e-02
-7.229042053222656250e-02
-4.517855122685432434e-02
5.335249006748199463e-02
-4.331547394394874573e-02
-4.344987869262695312e-02
1.917770691215991974e-02
4.080522432923316956e-02
2.500037662684917450e-02
7.269699126482009888e-03
-1.743730157613754272e-02
6.494846940040588379e-02
9.870812296867370605e-02
-1.323653608560562134e-01
-7.040456682443618774e-02
-3.110928647220134735e-02
1.458397321403026581e-02
-5.908190459012985229e-02
3.774103149771690369e-02
1.072664279490709305e-02
-1.159689738415181637e-03
-2.342140488326549530e-02
4.714991524815559387e-02
-6.959633529186248779e-02
5.001959577202796936e-02
-3.297052159905433655e-02
7.854919135570526123e-02
-2.601839601993560791e-02
-5.365340784192085266e-02
-3.928275033831596375e-02
-8.563553541898727417e-02
-2.231235206127166748e-01
-5.384416505694389343e-02
6.844180077314376831e-02
-6.600878667086362839e-03
1.202793195843696594e-01
5.548656452447175980e-03
6.816180050373077393e-02
1.006717421114444733e-02
2.535718381404876709e-01
2.594799362123012543e-02
5.579520761966705322e-02
-3.537168726325035095e-02
-2.121545607224106789e-03
-7.557044271379709244e-03
-5.697082728147506714e-02
-1.424131914973258972e-02
-4.470673575997352600e-02
4.387099668383598328e-02
-7.262270152568817139e-02
1.439731121063232422e-01
7.251285761594772339e-02
3.119229339063167572e-03
-1.488605514168739319e-02
1.503171119838953018e-02
9.704591333866119385e-02
1.300914734601974487e-01
1.237311288714408875e-01
1.641167700290679932e-02
-4.719806835055351257e-02
-3.376969136297702789e-03
4.590392112731933594e-02
3.627487644553184509e-02
-9.873590618371963501e-02
-1.575085707008838654e-02
1.395453363656997681e-01
1.395050622522830963e-02
1.572451926767826080e-02
-7.520903646945953369e-02
4.821231961250305176e-02
-2.300843829289078712e-03
-1.130679715424776077e-02
-5.652473494410514832e-02
-2.248374512419104576e-03
-6.031903997063636780e-02
-1.287668496370315552e-01
-7.606485486030578613e-02
-5.460508912801742554e-02
-5.387171730399131775e-02
-2.048591710627079010e-02
-7.370213419198989868e-02
8.820216753520071507e-04
-9.832594543695449829e-02
-7.107263058423995972e-02
1.319930236786603928e-02
-1.359896175563335419e-02
-2.029105722904205322e-01
-6.110556051135063171e-02
7.517841458320617676e-02
7.281409949064254761e-02
-1.444146689027547836e-02
-8.174677193164825439e-02
-6.632822751998901367e-02
-1.541172433644533157e-02
6.901227682828903198e-02
-3.192204516381025314e-03
6.774635985493659973e-03
1.969580352306365967e-02
-2.554081846028566360e-03
-2.273535728454589844e-02
-2.783011086285114288e-02
4.241972789168357849e-02
-2.399831544607877731e-03
8.096165955066680908e-03
-1.100489683449268341e-02
-1.413306742906570435e-01
2.284276857972145081e-02
1.976779401302337646e-01
1.890175417065620422e-02
-3.507251292467117310e-02
6.725384294986724854e-02
7.078447937965393066e-02
-9.661843627691268921e-02
8.743973076343536377e-02
-4.809640720486640930e-02
-3.675890341401100159e-02
3.562576323747634888e-02
3.114555589854717255e-02
-3.134366869926452637e-02
-1.481811888515949249e-02
-4.893207177519798279e-02
2.496814541518688202e-02
-3.268886730074882507e-02
4.439929127693176270e-02
-1.193022727966308594e-01
-6.209054216742515564e-02
1.062949225306510925e-01
1.009135693311691284e-01
4.779276996850967407e-02
-2.956854738295078278e-02
-6.614506244659423828e-02
6.181731075048446655e-02
-2.346678264439105988e-02
5.702630430459976196e-02
1.809511892497539520e-02
3.106277994811534882e-02
-1.286792010068893433e-02
3.079972602427005768e-02
2.125841006636619568e-02
-2.743303589522838593e-02
2.704945765435695648e-02
-6.230608001351356506e-02
-8.126224577426910400e-02
3.127629309892654419e-02
-4.549528937786817551e-03
1.154177188873291016e-01
-2.934176027774810791e-01
1.504375934600830078e-01
-1.704096421599388123e-02
-7.372099906206130981e-02
9.069581516087055206e-03
1.088878046721220016e-02
1.605123281478881836e-02
-2.654964290559291840e-02
-1.205178275704383850e-01
-5.453107506036758423e-02
6.248997896909713745e-02
2.634486742317676544e-02
-1.306244879961013794e-01
6.532133370637893677e-02
4.190697520971298218e-02
-9.386197477579116821e-02
3.449250012636184692e-02
4.183389246463775635e-02
-5.015752464532852173e-02
5.634276941418647766e-02
1.839681528508663177e-02
-4.011438414454460144e-02
-6.532932817935943604e-02
-1.887961477041244507e-02
2.263407260179519653e-01
-2.243052236735820770e-02
-2.529970370233058929e-02
-2.081254683434963226e-02
1.659299130551517010e-03
1.599881052970886230e-02
3.750867396593093872e-02
-8.905841968953609467e-03
-3.696347400546073914e-02
-9.064241312444210052e-03
3.600104898214340210e-02
-1.026762276887893677e-01
8.034319616854190826e-03
7.874558679759502411e-03
-4.813308641314506531e-02
-6.990946363657712936e-03
-2.372196502983570099e-02
1.375402789562940598e-02
-6.871335208415985107e-02
-2.711298689246177673e-02
3.899807576090097427e-03
9.981625527143478394e-02
-3.179175034165382385e-02
-7.412769366055727005e-03
-2.621251717209815979e-02
5.585400760173797607e-02
9.976180642843246460e-02
-5.500682070851325989e-02
-1.463436987251043320e-02
-3.548023477196693420e-02
7.976762950420379639e-02
2.228614240884780884e-01
-1.375221312046051025e-01
-1.781791001558303833e-01
-2.046050429344177246e-01
-1.048105210065841675e-01
7.281813025474548340e-02
1.330332607030868530e-01
-4.198270663619041443e-02
7.850485295057296753e-02
1.378452330827713013e-01
-1.632604561746120453e-02
1.655414141714572906e-02
-7.690478116273880005e-02
-2.152439579367637634e-02
-1.648121476173400879e-01
-2.070928737521171570e-02
6.787925213575363159e-02
-3.906675428152084351e-02
-8.908608555793762207e-02
-1.020157858729362488e-01
7.552900351583957672e-04
5.909880157560110092e-03
-5.090021342039108276e-02
6.412746012210845947e-02
2.420302852988243103e-02
7.674765586853027344e-02
-2.200020104646682739e-02
-1.337136887013912201e-02
-2.464054897427558899e-02
7.662373036146163940e-02
-5.328181385993957520e-02
1.539472490549087524e-02
-7.300066947937011719e-02
1.002755365334451199e-03
-1.545984856784343719e-02
2.011552304029464722e-01
1.663922369480133057e-01
4.055069014430046082e-02
9.823285788297653198e-02
-2.117775939404964447e-02
4.702320694923400879e-02
3.681204095482826233e-02
-6.341467052698135376e-02
-8.043909072875976562e-02
-1.377554684877395630e-01
-2.215020358562469482e-03
1.040112785995006561e-02
4.384504631161689758e-02
5.647936090826988220e-02
3.378320112824440002e-02
7.454682141542434692e-02
-2.677086507901549339e-03
7.187147438526153564e-02
1.362158805131912231e-01
1.733867684379220009e-03
-1.049156486988067627e-01
-7.919992506504058838e-02
3.648487105965614319e-02
-9.998825937509536743e-02
6.433439441025257111e-03
5.992900207638740540e-02
-3.954651299864053726e-03
-9.764362871646881104e-02
-8.772185444831848145e-02
-7.205299288034439087e-02
3.869088739156723022e-02
-1.459372341632843018e-01
3.007411397993564606e-02
1.465163379907608032e-02
7.170776277780532837e-02
-9.742473810911178589e-02
-7.129297405481338501e-02
-2.003688365221023560e-01
-2.114762216806411743e-01
7.487951964139938354e-02
-1.227282658219337463e-01
-7.387647777795791626e-02
-6.773511413484811783e-03
9.184799343347549438e-02
8.479081094264984131e-02
1.402963846921920776e-01
-8.048582077026367188e-02
-2.910618670284748077e-03
-1.749204285442829132e-02
-2.222367934882640839e-02
-7.209467142820358276e-02
-5.517454072833061218e-02
-7.033023238182067871e-02
-1.800298132002353668e-02
5.823783203959465027e-02
3.921139985322952271e-02
-4.230584483593702316e-03
3.819927573204040527e-03
1.289745867252349854e-01
-2.718316018581390381e-02
1.128057986497879028e-01
2.956973761320114136e-02
-5.187479779124259949e-02
9.255132079124450684e-02
1.373465955257415771e-01
-9.824718534946441650e-02
1.634407788515090942e-01
-3.936455398797988892e-02
-2.559201559051871300e-03
-4.838001355528831482e-02
3.725665807723999023e-02
4.312228038907051086e-02
-1.451855897903442383e-01
4.438318684697151184e-02
1.753429882228374481e-02
1.971154287457466125e-02
7.376094162464141846e-02
7.597278337925672531e-03
7.513738237321376801e-03
-7.564764469861984253e-02
1.472540199756622314e-01
-2.187619684264063835e-03
-2.876183204352855682e-02
-1.909392513334751129e-02
-3.645155951380729675e-02
-1.315383613109588623e-01
-2.286143004894256592e-01
-3.220562636852264404e-01
-1.550866216421127319e-01
-1.077284105122089386e-03
-6.567745655775070190e-02
-1.073560211807489395e-02
2.639950625598430634e-02
1.324533484876155853e-02
-1.781253665685653687e-01
-6.042202562093734741e-02
1.904640160501003265e-02
-6.006208062171936035e-02
-7.761766761541366577e-02
-5.312295556068420410e-01
-2.628761827945709229e-01
-1.138951405882835388e-01
8.108656853437423706e-02
3.166123107075691223e-02
-7.423391938209533691e-02
-2.133161872625350952e-01
-2.857922911643981934e-01
-1.762635707855224609e-01
7.278968580067157745e-03
-4.056697487831115723e-01
2.965181507170200348e-02
-1.747661828994750977e-01
2.987057529389858246e-02
8.302319794893264771e-02
2.697783894836902618e-02
6.238576024770736694e-02
-5.857095494866371155e-02
2.662219665944576263e-02
-3.951993957161903381e-02
-5.361757427453994751e-02
-3.206541761755943298e-02
-8.938745409250259399e-02
9.528908133506774902e-02
-4.765584319829940796e-02
1.233774516731500626e-02
9.960130602121353149e-02
9.139569848775863647e-02
7.029348611831665039e-02
-5.206229165196418762e-02
5.687322095036506653e-02
4.039170965552330017e-02
4.724510014057159424e-02
-2.966287173330783844e-02
6.560791283845901489e-02
4.581021890044212341e-02
1.543040294200181961e-02
-3.119843639433383942e-02
5.825763940811157227e-02
7.635428756475448608e-02
3.894573822617530823e-02
-4.187359288334846497e-02
2.561402693390846252e-02
-9.757092222571372986e-03
-3.745971247553825378e-02
-3.165258467197418213e-02
2.028447389602661133e-02
1.941960677504539490e-02
4.127157479524612427e-02
2.725069969892501831e-02
6.500928848981857300e-02
-1.383402384817600250e-02
1.739342883229255676e-02
1.255583763122558594e-02
1.161324325948953629e-02
-1.210287585854530334e-01
-1.238722801208496094e-01
5.559681355953216553e-02
-1.663473248481750488e-01
-6.638039834797382355e-03
-8.939570933580398560e-02
-1.146565377712249756e-01
-2.664170041680335999e-02
8.953295648097991943e-03
2.501135878264904022e-02
4.122354835271835327e-02
-1.300823539495468140e-01
-3.691565012559294701e-03
9.856555610895156860e-03
4.125718399882316589e-02
9.474679827690124512e-02
2.691971510648727417e-02
5.700721219182014465e-02
-1.010407730937004089e-01
-3.798164799809455872e-02
1.441796030849218369e-02
3.654585033655166626e-02
-9.723622351884841919e-02
-1.360967289656400681e-02
4.493751376867294312e-02
3.929515555500984192e-02
1.106501743197441101e-02
-1.501444354653358459e-02
5.504551157355308533e-02
5.936419218778610229e-02
4.774437472224235535e-02
1.365948021411895752e-01
5.360590294003486633e-02
-7.381767500191926956e-04
8.168766647577285767e-02
-5.338234826922416687e-03
7.308559119701385498e-02
3.623039228841662407e-04
1.645372062921524048e-02
8.359565585851669312e-02
1.256772503256797791e-02
4.488047957420349121e-02
3.995188325643539429e-02
1.068964693695306778e-02
-5.093158688396215439e-03
3.644828125834465027e-02
5.920824594795703888e-03
2.239598333835601807e-02
-9.508720599114894867e-03
3.040306642651557922e-02
6.871463358402252197e-02
4.999897256493568420e-02
1.480220444500446320e-02
-2.024571783840656281e-02
1.899235509335994720e-02
-5.790948495268821716e-02
-1.255495473742485046e-02
3.711677342653274536e-02
1.954156160354614258e-01
1.700773835182189941e-01
-3.705633804202079773e-02
1.325189601629972458e-03
9.482976980507373810e-03
-4.548408463597297668e-02
3.307745978236198425e-02
-3.896364942193031311e-02
1.415606960654258728e-02
-7.250092923641204834e-02
2.990079112350940704e-02
-2.982481196522712708e-02
-3.765467926859855652e-02
2.559164568083360791e-05
-8.246953785419464111e-02
-4.489833954721689224e-03
6.813231110572814941e-02
2.919279038906097412e-02
-8.972945064306259155e-02
-6.572566181421279907e-02
-7.240871340036392212e-02
-5.856141075491905212e-02
1.632360368967056274e-02
1.037916541099548340e-01
-1.134993657469749451e-01
-5.589585751295089722e-02
1.997538842260837555e-02
-6.147851794958114624e-02
2.603403665125370026e-02
-5.682991072535514832e-02
5.771639943122863770e-02
-6.796780228614807129e-02
4.606099054217338562e-02
8.914805203676223755e-02
-1.500918120145797729e-01
-1.289989054203033447e-01
-1.205596327781677246e-01
5.162990838289260864e-02
3.338129073381423950e-02
-1.415916066616773605e-02
-3.987050801515579224e-02
-1.220540376380085945e-03
-7.556254416704177856e-02
-8.264306187629699707e-02
-7.318920642137527466e-02
-1.320669706910848618e-02
-4.576313868165016174e-02
-1.497258841991424561e-01
6.978219747543334961e-02
-8.130204677581787109e-02
3.487296402454376221e-02
-3.225475177168846130e-02
4.174250364303588867e-02
-1.107489168643951416e-01
2.410547435283660889e-02
-7.416676264256238937e-03
-1.392066478729248047e-01
6.085585430264472961e-02
-1.965021342039108276e-02
-2.787350490689277649e-02
-1.190364360809326172e-02
2.092142589390277863e-02
-5.464741960167884827e-02
-8.234506472945213318e-03
-7.689908612519502640e-03
-1.652076095342636108e-02
8.332500606775283813e-02
3.236271440982818604e-02
-7.762211561203002930e-02
-1.684885844588279724e-02
2.724194154143333435e-02
3.587843477725982666e-02
-4.253154247999191284e-02
8.513535559177398682e-02
7.622797042131423950e-02
-6.329815834760665894e-02
-5.404120683670043945e-02
-1.239479407668113708e-01
4.044035449624061584e-02
-8.351844549179077148e-02
2.729862369596958160e-02
3.202582010999321938e-03
5.088742822408676147e-02
6.456158310174942017e-02
2.873188816010951996e-02
1.020456403493881226e-01
-3.301122412085533142e-02
-1.782525703310966492e-02
-3.073350340127944946e-02
-6.390308588743209839e-02
-1.359524130821228027e-01
2.209879271686077118e-02
-9.781580418348312378e-02
-8.085530996322631836e-02
-1.708105951547622681e-02
3.189877271652221680e-01
-1.384002715349197388e-01
-1.979878097772598267e-01
-2.961568832397460938e-01
-1.379554122686386108e-01
4.386610537767410278e-02
3.958816232625395060e-04
-1.981635093688964844e-01
-9.347622096538543701e-02
6.358163058757781982e-02
1.220619976520538330e-01
-7.715386897325515747e-02
-3.013656139373779297e-01
-1.007811129093170166e-01
2.652912633493542671e-03
-7.031001150608062744e-02
-1.125522144138813019e-02
-1.851322501897811890e-02
1.056067459285259247e-02
-6.272134929895401001e-02
1.537050753831863403e-01
-4.221004992723464966e-02
-6.754241883754730225e-02
2.993050264194607735e-03
9.022152423858642578e-02
1.047722548246383667e-01
-3.817171324044466019e-03
-8.159794844686985016e-03
-6.516233086585998535e-02
7.699073851108551025e-02
-1.054729670286178589e-01
-3.700852626934647560e-03
-6.947884708642959595e-02
-1.088849827647209167e-01
1.732197403907775879e-01
-2.561876364052295685e-02
8.151788264513015747e-02
-3.303069621324539185e-03
1.375575200654566288e-03
-1.342796981334686279e-01
-3.712082281708717346e-02
1.222586110234260559e-01
1.967039555311203003e-01
1.035888269543647766e-01
-8.805891871452331543e-02
1.373232156038284302e-01
-9.277971088886260986e-02
1.804315149784088135e-01
-6.444495171308517456e-02
1.610559225082397461e-01
-1.537088304758071899e-01
-6.095192953944206238e-02
-9.152987040579319000e-03
6.627849489450454712e-02
2.185829728841781616e-01
2.602128982543945312e-01
-9.343813359737396240e-02
2.516365982592105865e-02
8.474216610193252563e-02
1.082758307456970215e-01
-1.098092738538980484e-02
-3.223945200443267822e-02
1.499911695718765259e-01
-3.476249426603317261e-02
4.408938810229301453e-02
-1.725352928042411804e-02
5.100742354989051819e-02
-3.375523537397384644e-02
2.198105677962303162e-02
-1.975597441196441650e-02
8.952933549880981445e-02
3.612856194376945496e-02
-4.391741380095481873e-02
2.709406241774559021e-02
-1.140839653089642525e-03
2.712596394121646881e-02
-2.603334188461303711e-02
-3.423076868057250977e-02
-6.686464697122573853e-02
7.455002982169389725e-03
-3.345672041177749634e-02
2.590009197592735291e-02
4.153757914900779724e-02
5.718752741813659668e-02
4.222068935632705688e-02
1.357583608478307724e-02
8.658360689878463745e-02
3.058794327080249786e-02
-4.545346368104219437e-03
-1.067585498094558716e-01
-2.773721218109130859e-01
-2.107116878032684326e-01
-4.784061387181282043e-02
-1.517300605773925781e-01
-1.359996851533651352e-02
-7.997033745050430298e-02
1.815191470086574554e-02
-1.004228740930557251e-01
-1.201500669121742249e-01
3.742180392146110535e-02
-7.917064242064952850e-03
-7.944993674755096436e-02
-1.043887250125408173e-02
1.438338868319988251e-02
-1.850654557347297668e-02
8.914156258106231689e-02
4.123384505510330200e-02
-6.901649385690689087e-02
-4.881482943892478943e-02
-2.809895575046539307e-01
-2.231078147888183594e-01
-2.964141666889190674e-01
-2.090057879686355591e-01
-1.149456296116113663e-02
-5.773301422595977783e-02
1.066093519330024719e-01
-7.325936108827590942e-02
-2.972102351486682892e-02
-1.218514051288366318e-02
-1.359741855412721634e-02
-9.815561771392822266e-02
3.077127598226070404e-02
-6.657484918832778931e-02
-1.676634103059768677e-01
1.129761710762977600e-01
3.153736144304275513e-02
-4.706173762679100037e-02
2.582992427051067352e-02
1.113608777523040771e-01
-6.609945558011531830e-04
4.014248773455619812e-02
1.203015819191932678e-01
7.751405984163284302e-02
-2.689849212765693665e-02
7.648508995771408081e-02
1.666793227195739746e-01
5.838383361697196960e-02
1.330008208751678467e-01
-1.301957108080387115e-02
8.610056340694427490e-02
-1.943251043558120728e-01
1.264943834394216537e-02
5.244542658329010010e-02
2.960696257650852203e-02
5.256157368421554565e-02
6.639238446950912476e-02
-2.502646148204803467e-01
6.774831563234329224e-02
-4.614764824509620667e-02
3.000877052545547485e-02
-1.203535497188568115e-01
-9.433912485837936401e-02
-1.665195226669311523e-01
1.189204528927803040e-01
5.110005661845207214e-02
-2.025521360337734222e-03
1.931316405534744263e-02
-5.425584968179464340e-03
2.203449234366416931e-02
-4.256142303347587585e-02
-6.246445327997207642e-02
1.003531366586685181e-01
1.218468919396400452e-01
3.170276433229446411e-02
-6.118984520435333252e-02
1.588418893516063690e-02
-1.232943031936883926e-02
-5.304730683565139771e-02
1.223521232604980469e-01
2.971440739929676056e-02
-2.032630145549774170e-02
4.289929568767547607e-02
6.723374873399734497e-02
4.916055127978324890e-02
8.079600334167480469e-02
4.095719009637832642e-02
-1.114971842616796494e-02
8.588803757447749376e-05
-8.241955190896987915e-03
-2.818002738058567047e-02
-2.659876644611358643e-02
-3.009377047419548035e-02
-1.089718844741582870e-02
-1.068854122422635555e-03
6.345701217651367188e-02
-5.401919037103652954e-02
-1.164632104337215424e-02
6.890581920742988586e-03
6.661296635866165161e-02
-1.382779031991958618e-01
8.963294327259063721e-03
1.190647408366203308e-01
8.581080287694931030e-02
-3.549656644463539124e-02
-8.086632192134857178e-02
-4.432016066857613623e-05
5.549564957618713379e-03
-1.808668673038482666e-02
3.978593647480010986e-02
-3.920531272888183594e-02
1.725210100412368774e-01
1.615701317787170410e-01
4.465893656015396118e-02
-5.366387777030467987e-03
4.645327851176261902e-02
6.220008805394172668e-02
3.526668623089790344e-02
1.101340726017951965e-01
-8.635371923446655273e-02
-5.064674187451601028e-03
1.096404641866683960e-01
-2.132534980773925781e-02
-1.145061478018760681e-02
-6.316030863672494888e-03
1.863780990242958069e-02
5.732855573296546936e-02
1.088219210505485535e-01
5.212050303816795349e-02
7.385449018329381943e-03
-2.090544998645782471e-02
1.530770678073167801e-02
6.770237535238265991e-02
-6.317920517176389694e-03
3.557584062218666077e-02
4.726842418313026428e-02
4.821745678782463074e-02
-6.414913386106491089e-02
-2.303692512214183807e-02
-3.519091755151748657e-02
-2.239725738763809204e-02
9.003137797117233276e-02
1.227135863155126572e-02
-4.248930141329765320e-03
9.787209331989288330e-03
8.941873908042907715e-03
3.214252367615699768e-02
-3.563607484102249146e-02
3.926753252744674683e-02
3.297471255064010620e-02
8.712124545127153397e-04
-5.838271975517272949e-02
5.243977997452020645e-03
5.345914512872695923e-03
-6.142343208193778992e-02
-7.538109272718429565e-02
8.740518987178802490e-02
