4.533253982663154602e-02
-1.291413605213165283e-02
7.603198289871215820e-02
1.051243096590042114e-01
3.545539453625679016e-02
-5.039028078317642212e-02
-5.735803022980690002e-02
-3.290553390979766846e-02
6.439504772424697876e-02
-2.260918356478214264e-02
-1.104660928249359131e-01
6.639246642589569092e-02
-8.523575961589813232e-02
1.859645172953605652e-02
2.456690929830074310e-02
9.361349791288375854e-02
-3.195739910006523132e-02
9.499000757932662964e-02
-2.907815016806125641e-02
6.389331538230180740e-03
-1.292187161743640900e-02
5.225105583667755127e-02
-9.432655572891235352e-02
1.069168820977210999e-01
-4.563742130994796753e-02
1.051791533827781677e-01
-7.186304777860641479e-02
1.920340210199356079e-02
9.329608827829360962e-02
-5.178290978074073792e-02
-9.528236114419996738e-04
-2.807482890784740448e-02
3.536168113350868225e-02
9.482094086706638336e-03
-3.562317043542861938e-02
2.448959834873676300e-02
1.950304768979549408e-02
1.082394719123840332e-01
-5.912841111421585083e-02
-3.068321943283081055e-02
8.233662694692611694e-02
1.962226629257202148e-02
-3.095346875488758087e-02
6.372210104018449783e-03
3.440601006150245667e-02
2.556449733674526215e-02
6.940922141075134277e-02
2.179591916501522064e-02
2.827181888278573751e-04
2.699996344745159149e-02
6.685668230056762695e-02
5.058518424630165100e-02
-3.703645616769790649e-02
6.487508118152618408e-02
2.681813202798366547e-02
-8.703214675188064575e-02
-7.285254448652267456e-02
5.005745589733123779e-02
3.267134726047515869e-02
1.028918027877807617e-01
4.121908545494079590e-02
-4.362878575921058655e-02
9.337138384580612183e-02
6.251306831836700439e-02
