2.234497517347335815e-01
1.945068687200546265e-01
8.469966053962707520e-02
4.223932325839996338e-02
8.221002668142318726e-02
2.527910284698009491e-02
2.604303359985351562e-01
3.856497630476951599e-02
2.101104706525802612e-01
9.784922003746032715e-02
-5.050532519817352295e-02
2.235326468944549561e-01
1.231772601604461670e-01
2.277005836367607117e-02
5.549779161810874939e-02
2.238287962973117828e-02
3.671031445264816284e-02
-2.890165746212005615e-01
2.544804662466049194e-02
-1.756307482719421387e-01
-1.235362961888313293e-01
6.846060976386070251e-03
-1.982845664024353027e-01
-3.718366473913192749e-02
-3.084525465965270996e-01
-1.440393328666687012e-01
8.420212566852569580e-02
-1.028861552476882935e-01
8.831368386745452881e-02
-9.118397533893585205e-02
-8.359971642494201660e-02
-5.889937281608581543e-02
2.909032627940177917e-02
-3.416381180286407471e-01
1.673217564821243286e-01
-2.007319629192352295e-01
2.245762944221496582e-01
1.474626809358596802e-01
-8.222611248493194580e-02
7.902363687753677368e-02
-1.172785088419914246e-01
-1.220518071204423904e-02
9.792209416627883911e-02
2.653352916240692139e-01
1.299940496683120728e-01
-1.154319643974304199e-01
1.364845037460327148e-01
2.088140100240707397e-01
5.863962695002555847e-02
5.134550854563713074e-02
3.494608029723167419e-02
1.178620904684066772e-01
6.559721380472183228e-02
-1.058464199304580688e-01
-2.435015588998794556e-01
5.335433036088943481e-02
-8.490870147943496704e-02
3.067680001258850098e-01
-6.043502315878868103e-02
-9.553005546331405640e-02
-2.117270976305007935e-01
5.971017479896545410e-02
8.850888162851333618e-02
2.116723358631134033e-02
-3.168653324246406555e-02
-1.346509307622909546e-01
-4.492671042680740356e-02
1.586265116930007935e-01
-2.943178080022335052e-02
1.344466954469680786e-01
-1.086784005165100098e-01
2.026364952325820923e-02
1.750154420733451843e-02
-1.803474277257919312e-01
-4.094475880265235901e-02
1.874015033245086670e-01
-6.456905603408813477e-02
-9.030626714229583740e-02
-1.003942191600799561e-01
-1.852066963911056519e-01
7.768537104129791260e-02
-1.864246577024459839e-01
-1.970137804746627808e-01
1.650064885616302490e-01
1.148214265704154968e-01
-1.826515942811965942e-01
3.552460810169577599e-03
8.639406412839889526e-02
1.812182068824768066e-01
-3.019842691719532013e-02
4.836257919669151306e-02
1.773144118487834930e-02
6.250952184200286865e-02
-1.911745965480804443e-01
2.087851017713546753e-01
-1.511093229055404663e-01
-2.873905599117279053e-01
2.473650574684143066e-01
-2.322161011397838593e-02
6.227725371718406677e-02
3.227477073669433594e-01
1.730734854936599731e-01
-1.643074303865432739e-02
-4.011308029294013977e-02
-2.516715228557586670e-02
1.546976566314697266e-01
-1.949952170252799988e-02
3.118452429771423340e-01
5.416109785437583923e-02
4.881631955504417419e-02
-1.470576673746109009e-01
-1.971994489431381226e-01
7.499963045120239258e-02
-1.321369856595993042e-01
1.401428282260894775e-01
-2.368132621049880981e-01
-1.742834597826004028e-01
-6.643603742122650146e-02
-2.207892090082168579e-01
-2.968458831310272217e-02
-1.213991269469261169e-01
-2.662820369005203247e-02
3.695900738239288330e-02
-6.636220496147871017e-03
2.504706084728240967e-01
-1.446350365877151489e-01
8.437995612621307373e-02
-1.866775304079055786e-01
1.843000799417495728e-01
-2.808064455166459084e-03
1.534261107444763184e-01
8.546906709671020508e-02
1.640205383300781250e-01
5.960546433925628662e-02
5.223586037755012512e-02
3.491029888391494751e-02
2.631845138967037201e-02
8.095693588256835938e-02
-3.074790351092815399e-03
3.119975328445434570e-01
6.548880785703659058e-02
-1.204422637820243835e-01
-2.413486540317535400e-01
2.102133184671401978e-01
-1.906010806560516357e-01
2.484319657087326050e-01
8.117664605379104614e-02
4.152682796120643616e-02
1.096753776073455811e-01
1.157341152429580688e-01
-1.549395769834518433e-01
-3.605592250823974609e-02
-1.548576653003692627e-01
3.326716274023056030e-02
1.131975799798965454e-01
-8.289790153503417969e-02
-5.090216547250747681e-02
5.502717685885727406e-04
2.316612005233764648e-01
-1.891787163913249969e-02
-1.742995828390121460e-01
1.869354397058486938e-03
3.444562479853630066e-02
1.807527840137481689e-01
-8.923589438199996948e-02
-1.898324042558670044e-01
-1.279257982969284058e-01
-4.155898839235305786e-02
-7.433439791202545166e-02
-5.705446749925613403e-02
7.704667001962661743e-02
-1.221705451607704163e-01
3.081335872411727905e-02
1.946920901536941528e-02
-7.220069319009780884e-02
4.640857502818107605e-02
1.085765957832336426e-01
1.990512572228908539e-02
-3.525032103061676025e-01
3.338698670268058777e-02
1.716138422489166260e-01
-4.273081570863723755e-02
-2.933988161385059357e-02
-8.996459841728210449e-02
1.096119061112403870e-01
-2.168170921504497528e-02
-9.496460855007171631e-02
1.696263067424297333e-02
-4.158474132418632507e-02
1.144643351435661316e-01
-7.354851812124252319e-02
1.505285222083330154e-02
3.843271732330322266e-02
-3.329999148845672607e-01
-1.817742586135864258e-01
-1.775366961956024170e-01
-1.575631201267242432e-01
9.859926253557205200e-02
2.422378957271575928e-02
-2.477983757853507996e-02
-1.912570372223854065e-02
1.336255818605422974e-01
-1.095168571919202805e-02
1.366381067782640457e-02
-1.261970214545726776e-02
-4.599452316761016846e-01
4.026937112212181091e-02
1.407151669263839722e-01
1.290600397624075413e-03
-2.889042487367987633e-03
-3.548274189233779907e-02
5.184819549322128296e-02
-3.116562068462371826e-01
3.629504004493355751e-03
1.159085705876350403e-01
-2.417781017720699310e-02
3.681482747197151184e-02
1.299166977405548096e-01
-2.681323587894439697e-01
6.168820895254611969e-03
9.064251184463500977e-02
-3.699645698070526123e-01
-2.001897664740681648e-04
8.971812576055526733e-02
2.343460470438003540e-01
-1.559116132557392120e-02
-2.531118392944335938e-01
7.648841291666030884e-02
1.028965041041374207e-01
-1.569397002458572388e-01
-1.303747147321701050e-01
-2.162912115454673767e-02
-4.781885445117950439e-02
1.316331028938293457e-01
9.550146013498306274e-02
8.570949733257293701e-02
1.566170156002044678e-01
-5.294140428304672241e-02
-5.016923323273658752e-02
5.279703810811042786e-02
-7.677882909774780273e-02
1.965909153223037720e-01
-1.256062686443328857e-01
-4.703810065984725952e-02
1.349423974752426147e-01
-1.252676844596862793e-01
1.400362551212310791e-01
2.214192450046539307e-01
2.682407014071941376e-02
1.314653903245925903e-01
6.971066445112228394e-02
-4.696836695075035095e-02
2.069928944110870361e-01
1.932599991559982300e-01
-2.816257998347282410e-02
2.595968544483184814e-02
-1.389561891555786133e-01
-4.282756522297859192e-02
8.501516282558441162e-02
3.505957424640655518e-01
4.392645135521888733e-02
-2.825857698917388916e-01
-3.180072605609893799e-01
1.658821702003479004e-01
-1.115085631608963013e-01
7.992225140333175659e-02
1.738852858543395996e-01
-5.616667270660400391e-01
-4.509328678250312805e-02
3.827123343944549561e-02
-1.915533244609832764e-01
-1.302725225687026978e-01
1.815911680459976196e-01
7.860951870679855347e-02
-4.862607270479202271e-02
1.799768656492233276e-01
-1.848407536745071411e-01
-9.463002788834273815e-04
-1.756963431835174561e-01
1.483378559350967407e-01
1.120589524507522583e-01
6.691090017557144165e-02
-6.995515525341033936e-02
3.408247837796807289e-03
8.621652424335479736e-02
-8.236314356327056885e-02
-7.917783409357070923e-02
1.277143061161041260e-01
5.452823042869567871e-01
1.547650899738073349e-02
3.662056103348731995e-02
-6.914513558149337769e-02
-8.118071407079696655e-02
-1.954466290771961212e-02
6.091004982590675354e-02
-7.270164042711257935e-02
2.232592254877090454e-01
1.905081570148468018e-01
-4.658572748303413391e-02
6.465973705053329468e-02
2.332596480846405029e-02
-3.732172846794128418e-01
6.853089481592178345e-02
2.806348204612731934e-01
1.610932871699333191e-03
-6.354612857103347778e-02
-9.358918294310569763e-03
-8.840053528547286987e-02
-9.903184324502944946e-02
-7.289607077836990356e-02
-3.748619928956031799e-02
-1.799345314502716064e-01
-2.186571061611175537e-01
-1.862111538648605347e-01
1.960749477148056030e-01
-1.413214057683944702e-01
5.053161829710006714e-02
-9.188769012689590454e-02
-2.410217188298702240e-02
-6.492273509502410889e-02
1.343547254800796509e-01
-1.471676975488662720e-01
1.159550249576568604e-01
-1.150150671601295471e-01
-9.229432046413421631e-02
2.400545403361320496e-02
-2.509785816073417664e-02
-2.294787205755710602e-02
-1.928325593471527100e-01
-4.373267665505409241e-02
2.024898827075958252e-01
4.974956810474395752e-02
9.888035058975219727e-02
-1.353541910648345947e-01
1.721708625555038452e-01
1.753287203609943390e-02
1.295181065797805786e-01
-9.946837089955806732e-03
-3.020491637289524078e-02
3.878014907240867615e-02
-4.671576619148254395e-02
-1.177434176206588745e-01
-2.478933334350585938e-01
-1.584440469741821289e-02
7.636412233114242554e-02
1.352544128894805908e-01
2.741962112486362457e-02
-2.769273817539215088e-01
-1.445508450269699097e-01
1.601258814334869385e-01
1.924659311771392822e-02
-5.166954919695854187e-02
2.323314845561981201e-01
-2.625320255756378174e-01
-4.672058392316102982e-03
7.732251286506652832e-02
2.989018522202968597e-02
7.089639455080032349e-02
2.023117616772651672e-02
1.224786490201950073e-01
-2.252826541662216187e-01
2.398781478404998779e-02
2.468930184841156006e-01
1.808450222015380859e-01
-7.024788111448287964e-02
1.200461946427822113e-02
-7.484233379364013672e-02
-2.949765697121620178e-02
-9.856457263231277466e-02
-2.800865769386291504e-01
-4.809387028217315674e-01
1.144859120249748230e-01
-3.370337933301925659e-02
-9.740352630615234375e-02
-7.248660922050476074e-02
5.681084096431732178e-02
1.915465444326400757e-01
8.327083289623260498e-02
9.950643032789230347e-02
-1.052691861987113953e-01
-3.127078991383314133e-03
-1.186615303158760071e-01
1.623256653547286987e-01
-9.373714774847030640e-02
-3.059547543525695801e-01
-1.267903745174407959e-01
6.633309274911880493e-02
-1.414057984948158264e-02
-1.288186013698577881e-01
-1.800638288259506226e-01
-1.112922802567481995e-01
2.253474108874797821e-02
2.685350179672241211e-01
-2.862993180751800537e-01
1.867089606821537018e-02
-5.224921926856040955e-02
-1.764932721853256226e-01
8.557277917861938477e-02
-1.375787556171417236e-01
-3.502840548753738403e-02
7.355405390262603760e-02
1.336179077625274658e-01
6.219497323036193848e-02
6.828683614730834961e-02
-5.954048410058021545e-02
-3.103714250028133392e-02
-1.363865137100219727e-01
1.474317014217376709e-01
1.847323030233383179e-01
-1.338348537683486938e-01
3.980981931090354919e-02
2.281592972576618195e-02
-5.856189876794815063e-02
1.454013884067535400e-01
-1.300766319036483765e-01
7.907328754663467407e-02
-8.568486571311950684e-02
1.520482706837356091e-03
1.580356359481811523e-01
8.842120319604873657e-02
1.507751494646072388e-01
8.826585114002227783e-02
2.082159668207168579e-01
-2.077122591435909271e-02
2.835755050182342529e-01
-1.184532418847084045e-01
1.405579149723052979e-01
1.193903610110282898e-01
-4.395448789000511169e-02
-1.097028478980064392e-01
-1.227248981595039368e-01
-1.676214188337326050e-01
-5.470903217792510986e-02
-2.798401564359664917e-02
1.578588634729385376e-01
-1.024469081312417984e-02
-1.862102001905441284e-01
2.777862735092639923e-02
1.352557837963104248e-01
-2.770995534956455231e-02
-7.907053828239440918e-02
2.167811542749404907e-01
1.972505748271942139e-01
-8.340013027191162109e-02
1.051329597830772400e-01
-2.136534005403518677e-01
8.451081812381744385e-02
5.949316918849945068e-02
6.434144079685211182e-02
1.042464561760425568e-02
-1.192945837974548340e-01
-3.525625765323638916e-01
7.906795293092727661e-02
3.065696358680725098e-02
-2.742873430252075195e-01
-2.788626849651336670e-01
2.063656598329544067e-01
-1.952816918492317200e-02
-3.906890004873275757e-02
-3.558623790740966797e-01
-3.766307607293128967e-02
7.105929404497146606e-02
1.118423342704772949e-01
5.514013767242431641e-02
-1.669154912233352661e-01
1.452174037694931030e-01
3.494110107421875000e-01
9.749157726764678955e-02
-2.103842236101627350e-02
2.134921848773956299e-01
-3.305146005004644394e-03
-6.745351105928421021e-02
-9.257230907678604126e-02
2.101961076259613037e-01
6.713367067277431488e-03
8.360023796558380127e-02
2.757138013839721680e-02
-1.461840420961380005e-01
1.531861871480941772e-01
-1.269386429339647293e-02
-1.003397181630134583e-01
-2.581190764904022217e-01
1.663565337657928467e-01
-2.213358730077743530e-01
-1.671634763479232788e-01
6.284543126821517944e-02
6.412315368652343750e-02
3.669803962111473083e-02
1.059003174304962158e-01
-3.945823758840560913e-02
1.493382966145873070e-03
-1.587366163730621338e-01
-1.231779530644416809e-01
1.703558713197708130e-01
-1.100936010479927063e-01
-4.977081716060638428e-02
-8.705433458089828491e-03
6.777059286832809448e-02
9.400643408298492432e-02
4.616023227572441101e-02
9.936588257551193237e-02
3.948959347326308489e-04
1.052265241742134094e-01
1.249628886580467224e-01
2.491680085659027100e-01
6.387817114591598511e-02
3.475264087319374084e-02
-1.940362453460693359e-01
-2.960074841976165771e-01
4.714394733309745789e-02
-1.250148415565490723e-01
2.188145667314529419e-01
1.130834817886352539e-01
1.436565518379211426e-01
1.699411273002624512e-01
7.365503162145614624e-02
-9.308152645826339722e-02
5.208390206098556519e-02
2.577382326126098633e-01
-1.877912133932113647e-02
6.546564400196075439e-02
1.244054064154624939e-01
-2.952765822410583496e-01
8.564636856317520142e-02
1.171716824173927307e-01
-2.845445089042186737e-02
-6.132562085986137390e-02
-8.822555094957351685e-02
9.993889927864074707e-02
-1.369512081146240234e-01
1.609640121459960938e-01
1.258458197116851807e-01
-5.531229451298713684e-02
1.240659654140472412e-01
1.132807135581970215e-01
-4.379966482520103455e-02
-1.510324180126190186e-01
-5.970572307705879211e-02
4.405139386653900146e-02
2.200522869825363159e-01
-1.649325340986251831e-01
1.388584822416305542e-02
2.654289305210113525e-01
-6.933836638927459717e-02
-4.809915646910667419e-02
2.101967334747314453e-01
1.172908991575241089e-01
-3.507152795791625977e-01
-4.831789433956146240e-02
-1.696494780480861664e-02
1.183075457811355591e-01
-3.281937539577484131e-01
1.693089157342910767e-01
7.594892382621765137e-02
-1.661732196807861328e-01
-1.725864708423614502e-01
6.524480134248733521e-02
-4.845114424824714661e-02
2.610558569431304932e-01
-3.061019629240036011e-02
-2.328680306673049927e-01
-2.562321908771991730e-02
2.391452342271804810e-01
1.042051240801811218e-01
5.841146223247051239e-03
2.741914242506027222e-02
-5.389979109168052673e-03
-9.077329933643341064e-02
-1.299558877944946289e-01
2.167385071516036987e-01
-9.081639349460601807e-02
-9.756267070770263672e-02
1.159509271383285522e-01
-1.736975014209747314e-01
-4.660252481698989868e-02
-1.029488891363143921e-01
-2.135075069963932037e-02
-1.598471403121948242e-01
1.000123694539070129e-01
9.777223318815231323e-02
-9.064345806837081909e-02
-2.308405041694641113e-01
8.936455100774765015e-02
1.835819706320762634e-02
1.183664649724960327e-01
-1.114040613174438477e-01
7.922643423080444336e-02
2.053080648183822632e-01
-1.716796755790710449e-01
2.308259904384613037e-01
5.616756156086921692e-02
2.736369669437408447e-01
2.395869791507720947e-02
3.421512246131896973e-02
-2.697256207466125488e-02
5.577618628740310669e-02
-7.038709521293640137e-02
5.779662355780601501e-02
4.389026388525962830e-02
-7.511705160140991211e-02
3.185528144240379333e-02
-3.278684914112091064e-01
5.277998000383377075e-02
-1.710073351860046387e-01
-5.895970389246940613e-02
1.933276355266571045e-01
-1.548860222101211548e-01
8.903392404317855835e-02
-1.398574560880661011e-01
7.623985409736633301e-02
2.709171362221240997e-02
-2.155714109539985657e-02
1.740283519029617310e-01
2.692961692810058594e-02
1.061660200357437134e-01
4.558435454964637756e-02
2.238375246524810791e-01
-7.541614770889282227e-02
1.890870034694671631e-01
3.197322487831115723e-01
1.345865987241268158e-02
-5.591310560703277588e-02
-9.382369369268417358e-02
-2.198504358530044556e-01
1.572703383862972260e-02
1.930143088102340698e-01
1.847784221172332764e-01
-1.774136424064636230e-01
-5.599573254585266113e-02
-1.422836184501647949e-01
-1.071152240037918091e-01
-1.494943946599960327e-01
-3.459661500528454781e-03
1.947470307350158691e-01
-4.378166049718856812e-02
-8.527370542287826538e-02
9.414391964673995972e-02
-4.663005098700523376e-02
-6.686080992221832275e-02
-7.574245333671569824e-02
3.189376592636108398e-01
-3.964559733867645264e-02
-4.565751925110816956e-02
-8.179022371768951416e-02
-8.208335936069488525e-02
2.259382456541061401e-01
-3.301939368247985840e-01
-3.321264684200286865e-01
1.098324954509735107e-01
-1.370424032211303711e-01
-9.250793606042861938e-02
-1.261158436536788940e-01
2.175677195191383362e-02
9.953198581933975220e-02
-5.950012803077697754e-02
-1.710714697837829590e-01
-4.786101728677749634e-02
9.033296257257461548e-02
7.646073698997497559e-01
1.916535384953022003e-02
-1.117664054036140442e-01
3.001277148723602295e-02
3.479408333078026772e-03
7.275482267141342163e-02
6.470957398414611816e-02
1.907664686441421509e-01
9.690570086240768433e-02
8.141297101974487305e-02
1.959287226200103760e-01
-1.179878488183021545e-01
2.345803231000900269e-01
-8.201961964368820190e-02
-3.518368676304817200e-02
5.939737893640995026e-03
7.471480220556259155e-02
6.651534885168075562e-02
2.100559026002883911e-01
2.341871559619903564e-01
9.769927710294723511e-02
3.706099092960357666e-02
1.983530074357986450e-02
1.299206167459487915e-01
7.700833678245544434e-02
-3.170337527990341187e-02
1.040322356857359409e-03
3.426634371280670166e-01
-5.330874770879745483e-02
-1.964715123176574707e-01
8.660797029733657837e-02
-1.107159331440925598e-01
1.521385163068771362e-01
1.235026493668556213e-02
-5.512857064604759216e-02
1.571817323565483093e-02
-4.373164474964141846e-02
1.189872709801420569e-04
-1.818952262401580811e-01
-1.340860873460769653e-01
1.798035055398941040e-01
-2.099667042493820190e-01
-8.799808472394943237e-02
-1.844780594110488892e-01
2.753121219575405121e-02
-4.661502540111541748e-01
1.143594011664390564e-01
3.497966006398200989e-02
1.945748627185821533e-01
-1.669443547725677490e-01
-2.356869168579578400e-02
5.669017136096954346e-02
2.169595658779144287e-01
8.257977664470672607e-02
2.545671351253986359e-02
6.647197157144546509e-02
-4.769454523921012878e-02
1.296560466289520264e-01
4.706566408276557922e-02
8.496470004320144653e-02
-2.149964310228824615e-02
1.683638840913772583e-01
2.091352343559265137e-01
-5.372324958443641663e-02
1.396953314542770386e-01
3.590209484100341797e-01
1.908771395683288574e-01
6.709216535091400146e-02
6.848058104515075684e-02
-2.137700617313385010e-01
-9.804971516132354736e-02
-2.278846949338912964e-01
-9.428853541612625122e-02
1.413837075233459473e-01
-2.352013140916824341e-01
8.936131745576858521e-02
3.548354655504226685e-02
2.144688740372657776e-02
-2.036668658256530762e-01
3.835743293166160583e-02
1.240409561432898045e-03
8.318862318992614746e-02
-1.403196528553962708e-02
-1.304336078464984894e-02
-1.199277397245168686e-02
-1.840649843215942383e-01
1.865582615137100220e-01
-6.543207168579101562e-02
-9.146585315465927124e-02
-5.523508414626121521e-02
3.629072755575180054e-02
-1.072345599532127380e-01
2.465438097715377808e-02
-2.528986036777496338e-01
-1.736548691987991333e-01
-1.491436213254928589e-01
-4.650396481156349182e-02
1.680383831262588501e-01
1.345249414443969727e-01
-2.094019353389739990e-01
-1.707811504602432251e-01
-7.644105702638626099e-02
1.030108407139778137e-01
1.897792704403400421e-02
7.872942090034484863e-02
3.560106828808784485e-02
6.507515162229537964e-02
-1.860903352499008179e-01
4.516457766294479370e-02
-1.687545329332351685e-01
8.288772404193878174e-02
-2.287125140428543091e-01
5.259615927934646606e-02
-2.005712538957595825e-01
-4.665590450167655945e-02
5.748505517840385437e-02
-6.856404943391680717e-04
4.289326258003711700e-03
-1.041415482759475708e-01
-1.059850826859474182e-01
-4.601379111409187317e-02
3.588296100497245789e-02
-1.689265668392181396e-01
-3.855178952217102051e-01
-2.363419346511363983e-02
2.035224288702011108e-01
3.272245079278945923e-02
1.146592870354652405e-01
7.976614683866500854e-02
-7.584787905216217041e-02
-7.609940133988857269e-03
-1.044448763132095337e-01
1.446617841720581055e-01
-8.725811541080474854e-02
2.999199330806732178e-01
1.221545133739709854e-02
-1.691873967647552490e-01
-1.438251435756683350e-01
4.706718772649765015e-02
-2.429072558879852295e-02
3.104104660451412201e-02
1.508325785398483276e-01
-1.288798600435256958e-01
-5.572164058685302734e-02
-1.810705661773681641e-01
7.021896541118621826e-02
-9.218302369117736816e-02
-2.653461694717407227e-01
-3.844048455357551575e-02
-4.682676866650581360e-02
-1.935102976858615875e-02
1.179803237318992615e-01
1.466290932148694992e-02
-8.151976764202117920e-02
4.902816191315650940e-02
7.245571911334991455e-02
-1.159644722938537598e-01
-1.497404128313064575e-01
2.202929556369781494e-02
2.571527659893035889e-01
3.278993070125579834e-02
-2.055186927318572998e-01
1.066173911094665527e-01
-5.587443709373474121e-02
-1.492756791412830353e-02
1.163520663976669312e-01
-1.093833222985267639e-01
1.477478742599487305e-01
5.454375967383384705e-02
2.708174586296081543e-01
1.330717951059341431e-01
1.182675957679748535e-01
-1.543355584144592285e-01
1.950650475919246674e-02
1.311998367309570312e-01
2.154282480478286743e-01
4.021493792533874512e-01
4.277566969394683838e-01
-1.384480148553848267e-01
-1.722329482436180115e-02
6.125969812273979187e-02
1.567524373531341553e-01
-2.863766849040985107e-01
2.468145266175270081e-02
3.967719152569770813e-02
-4.704368859529495239e-02
-1.600928138941526413e-03
-1.198499724268913269e-01
1.061561554670333862e-01
3.513424471020698547e-02
1.374309211969375610e-01
1.462799608707427979e-01
-3.604423627257347107e-02
1.305118352174758911e-01
-4.248045757412910461e-02
1.091696545481681824e-01
1.296089030802249908e-02
2.277894876897335052e-03
-3.901861235499382019e-02
9.173028916120529175e-02
-6.038237735629081726e-02
6.744764000177383423e-02
1.623066365718841553e-01
-3.436656668782234192e-02
-4.533583670854568481e-02
-2.280354127287864685e-02
-1.321329921483993530e-01
1.131067797541618347e-01
2.454509437084197998e-01
1.008173003792762756e-01
-1.271686702966690063e-02
-1.467964947223663330e-01
-1.313300877809524536e-01
-8.069175481796264648e-02
6.807750463485717773e-02
-1.949255615472793579e-01
7.350445259362459183e-03
1.452572792768478394e-01
2.513879910111427307e-02
1.920883357524871826e-01
-3.122444450855255127e-02
-1.515296101570129395e-01
-1.477202586829662323e-02
-9.281703270971775055e-03
-5.532465875148773193e-02
-6.637647747993469238e-02
4.921443387866020203e-02
8.535852283239364624e-02
-9.144073724746704102e-02
-9.081551432609558105e-02
8.176032453775405884e-02
-1.537103950977325439e-01
1.714024245738983154e-01
-1.412454992532730103e-01
9.836032986640930176e-02
2.685542404651641846e-01
1.364334374666213989e-01
1.160235404968261719e-01
5.936697497963905334e-02
2.612408697605133057e-01
9.049577265977859497e-02
1.683619916439056396e-01
3.076146729290485382e-02
1.145823895931243896e-01
1.553297787904739380e-01
-4.826620352105237544e-05
1.103883236646652222e-01
-4.056825116276741028e-02
-9.019065648317337036e-02
6.715765595436096191e-02
2.486160397529602051e-02
-1.134670078754425049e-01
-1.113915592432022095e-01
-4.272678494453430176e-02
-2.176230773329734802e-02
1.797921955585479736e-01
2.706602513790130615e-01
-1.572216674685478210e-02
-5.906203761696815491e-02
2.495503872632980347e-01
4.424269869923591614e-02
-1.438138484954833984e-01
-2.187545001506805420e-01
-2.236040830612182617e-01
-7.025191932916641235e-02
-1.042956039309501648e-01
3.116025216877460480e-02
-1.416842043399810791e-01
7.873157411813735962e-02
-6.380488723516464233e-02
6.034353747963905334e-02
1.134040430188179016e-01
-1.955497860908508301e-01
-1.681262552738189697e-01
4.353867843747138977e-03
1.440056413412094116e-01
-1.102198660373687744e-01
-1.935752779245376587e-01
1.393656283617019653e-01
-4.901111125946044922e-02
-1.156940087676048279e-01
-2.365912199020385742e-01
5.062582343816757202e-02
1.038993448019027710e-01
1.732734441757202148e-01
1.528730541467666626e-01
-7.088483124971389771e-02
1.111836209893226624e-01
3.010409139096736908e-02
-1.819753497838973999e-01
2.614420372992753983e-03
1.858604997396469116e-01
2.701445668935775757e-02
-1.511989831924438477e-01
-1.413908898830413818e-01
1.786323785781860352e-01
6.676770001649856567e-02
-3.343639895319938660e-02
-7.911229878664016724e-02
4.237768054008483887e-02
6.930234283208847046e-02
-4.526440054178237915e-02
-3.533602654933929443e-01
-2.041592597961425781e-01
-8.653032779693603516e-02
5.499541386961936951e-02
1.405368298292160034e-01
-2.974292449653148651e-02
4.798955284059047699e-03
7.662127166986465454e-02
1.522729992866516113e-01
-3.457399830222129822e-02
7.916501909494400024e-02
-4.268381372094154358e-02
1.186207160353660583e-01
2.569220066070556641e-01
8.811336942017078400e-03
4.171727597713470459e-02
5.417040735483169556e-02
-2.360160946846008301e-01
-8.230067044496536255e-02
-3.950342163443565369e-02
9.679317474365234375e-02
2.938861399888992310e-02
-2.196573615074157715e-01
9.591589123010635376e-02
1.417308598756790161e-01
-1.499643623828887939e-01
-1.974245905876159668e-02
1.304338574409484863e-01
-2.190679907798767090e-01
-1.183261536061763763e-02
-6.830971688032150269e-02
1.123255770653486252e-02
1.657044440507888794e-01
6.598822027444839478e-02
-1.615823954343795776e-01
1.089846566319465637e-01
2.234807461500167847e-01
2.531431317329406738e-01
1.624852567911148071e-01
-1.114079430699348450e-01
1.526155471801757812e-01
3.625821694731712341e-02
1.638311892747879028e-01
1.216905340552330017e-01
-7.355567812919616699e-02
-3.235862553119659424e-01
-6.596414744853973389e-02
2.970153391361236572e-01
-2.536993324756622314e-01
-2.585252523422241211e-01
1.425318568944931030e-01
3.230349346995353699e-02
6.335170567035675049e-02
1.586713939905166626e-01
6.119951233267784119e-02
9.781541675329208374e-02
-1.862534880638122559e-01
3.728758394718170166e-01
2.279206067323684692e-01
-2.838002145290374756e-01
6.223000586032867432e-02
-1.863305568695068359e-01
1.204228326678276062e-01
1.434062514454126358e-02
4.600454494357109070e-02
-9.405364096164703369e-02
-1.898919492959976196e-01
-3.554784059524536133e-01
-2.742378739640116692e-03
-8.406937122344970703e-02
-3.634261786937713623e-01
-2.850312888622283936e-01
1.560023874044418335e-01
-1.625138968229293823e-01
3.050984442234039307e-02
-3.764151930809020996e-01
7.466811686754226685e-02
1.719224452972412109e-02
8.808808773756027222e-02
-4.877059534192085266e-02
1.067911181598901749e-02
5.290367081761360168e-02
4.040545523166656494e-01
-1.565871089696884155e-01
-1.344758719205856323e-01
7.810550183057785034e-02
-7.910750061273574829e-02
1.288022100925445557e-01
2.850583381950855255e-02
-7.407150417566299438e-02
-3.413026034832000732e-02
3.565999120473861694e-02
5.235251411795616150e-02
2.310162186622619629e-01
8.242959529161453247e-02
1.078769043087959290e-01
3.497064709663391113e-01
-5.003426074981689453e-01
1.038313210010528564e-01
-3.105349838733673096e-01
6.856178492307662964e-02
-7.975581288337707520e-02
2.601939737796783447e-01
-4.531123116612434387e-02
2.713298499584197998e-01
-1.269556432962417603e-01
2.888513961806893349e-03
-1.264853328466415405e-01
2.354012131690979004e-01
-3.883535563945770264e-01
-1.003597080707550049e-01
9.413515776395797729e-02
-8.706443756818771362e-02
3.079350292682647705e-02
-1.205316111445426941e-01
1.109373643994331360e-01
-6.946463882923126221e-02
8.371416479349136353e-02
-1.078464649617671967e-02
9.502097219228744507e-02
5.109840258955955505e-02
-1.099273189902305603e-01
1.107686311006546021e-01
1.088424995541572571e-01
-3.680108189582824707e-01
-7.622494548559188843e-02
-2.020245641469955444e-01
-1.583044081926345825e-01
5.304407700896263123e-02
-8.208715170621871948e-02
8.070985204540193081e-04
-6.528420001268386841e-02
-1.306961327791213989e-01
2.000558674335479736e-01
-1.690260879695415497e-02
4.401304200291633606e-02
-1.192473843693733215e-01
6.082298979163169861e-02
1.680035293102264404e-01
-2.045176476240158081e-01
-1.299257157370448112e-03
-1.595561206340789795e-01
1.133695095777511597e-01
2.353637963533401489e-01
7.640500366687774658e-02
-1.865125596523284912e-01
-5.659463256597518921e-02
2.359144762158393860e-02
-1.648757904767990112e-01
3.921284526586532593e-02
-3.358799964189529419e-02
5.172059405595064163e-03
7.201845198869705200e-02
9.417957812547683716e-02
1.983722597360610962e-01
-3.221936821937561035e-01
-1.135317534208297729e-01
9.059016406536102295e-02
-1.382180154323577881e-01
1.183546893298625946e-02
2.806701511144638062e-02
-2.445103824138641357e-01
-8.921972662210464478e-02
-3.024799823760986328e-01
1.370284557342529297e-01
2.313048392534255981e-01
-1.024183854460716248e-01
-1.507121324539184570e-01
-6.353086978197097778e-02
2.142915315926074982e-02
2.590461671352386475e-01
-2.291372269392013550e-01
-1.242369599640369415e-02
-1.102581545710563660e-01
1.213692426681518555e-01
1.372730433940887451e-01
-5.382112413644790649e-02
-1.653147786855697632e-01
5.104780197143554688e-02
1.943657919764518738e-02
-6.711511313915252686e-02
-1.526139825582504272e-01
-1.724520325660705566e-01
1.200196668505668640e-01
1.525045633316040039e-01
1.132888533174991608e-02
6.083055399358272552e-03
-3.291253373026847839e-02
-6.123466789722442627e-02
-4.339698329567909241e-02
2.948719449341297150e-02
2.146333642303943634e-02
8.254141360521316528e-02
-6.926093250513076782e-02
-1.269318908452987671e-01
5.313626956194639206e-03
-2.415438741445541382e-01
-3.153446316719055176e-01
1.412719041109085083e-01
1.804360747337341309e-02
1.321187913417816162e-01
-1.321330815553665161e-01
6.868168711662292480e-02
-3.080309629440307617e-01
-3.548545762896537781e-02
3.450873307883739471e-03
7.560582458972930908e-02
8.884859830141067505e-02
9.001578390598297119e-02
1.058627590537071228e-01
1.243031173944473267e-01
2.343739569187164307e-01
-3.094005957245826721e-02
-8.772563189268112183e-03
8.978161215782165527e-02
8.782576769590377808e-02
5.818229168653488159e-02
-2.379401773214340210e-02
4.437726363539695740e-02
3.692198544740676880e-02
-1.476947665214538574e-01
9.671270847320556641e-02
2.155943959951400757e-02
5.639313720166683197e-03
-1.697106063365936279e-01
4.185436293482780457e-03
-6.339332461357116699e-02
-1.423389613628387451e-01
6.554930657148361206e-02
8.892188966274261475e-02
1.354280263185501099e-01
-2.319059334695339203e-02
9.657014161348342896e-02
4.566451534628868103e-02
9.775999933481216431e-02
-1.906088441610336304e-01
-9.003488719463348389e-02
-7.740166783332824707e-02
1.748370230197906494e-01
-1.861296743154525757e-01
1.118729338049888611e-01
-1.308713257312774658e-01
-2.703239023685455322e-02
5.147707834839820862e-02
-1.526747643947601318e-01
-1.086187455803155899e-02
4.328203946352005005e-02
-1.694561243057250977e-01
3.623523935675621033e-02
-5.042592808604240417e-02
1.965641230344772339e-02
-1.721548475325107574e-02
7.532143592834472656e-02
4.597712308168411255e-02
-3.882689774036407471e-02
5.209990963339805603e-02
1.933585405349731445e-01
3.115307725965976715e-02
-2.906680665910243988e-02
-2.483863085508346558e-01
8.405572175979614258e-02
2.018073648214340210e-01
-7.623523473739624023e-02
-1.669563502073287964e-01
2.828280329704284668e-01
2.888075262308120728e-02
-1.373539268970489502e-01
-3.250376135110855103e-02
5.282355472445487976e-02
8.519828319549560547e-02
9.950394183397293091e-02
-7.140163332223892212e-02
-1.908504590392112732e-02
3.580516204237937927e-02
2.764508724212646484e-01
8.223077020375058055e-05
-1.237415745854377747e-01
1.042187511920928955e-01
-6.223875656723976135e-02
-9.854654967784881592e-02
-4.765746369957923889e-02
3.299488499760627747e-02
-2.398559078574180603e-02
1.137940660119056702e-01
1.561547815799713135e-01
-6.508684158325195312e-02
6.518692523241043091e-02
9.303244948387145996e-02
3.139010071754455566e-01
-1.915011703968048096e-01
1.594792008399963379e-01
-9.535204619169235229e-02
5.046925693750381470e-02
2.420278787612915039e-01
2.013690769672393799e-02
-5.872948840260505676e-02
1.702663749456405640e-01
-3.696621954441070557e-02
7.829689234495162964e-02
-1.639733314514160156e-01
-3.562095761299133301e-02
-3.154776096343994141e-01
5.103387683629989624e-02
1.879894733428955078e-01
4.763745516538619995e-02
1.220487058162689209e-01
-1.322481185197830200e-01
-6.548893451690673828e-02
2.193558365106582642e-01
-1.098191272467374802e-02
-2.414651960134506226e-01
4.173443838953971863e-02
-1.607927121222019196e-02
-9.743455052375793457e-02
1.329214572906494141e-01
9.419282525777816772e-02
-3.092450834810733795e-02
2.255615741014480591e-01
-1.319711655378341675e-01
9.963563829660415649e-02
2.451359629631042480e-01
-9.377858787775039673e-02
-2.494326792657375336e-02
-5.105586722493171692e-02
-1.937945038080215454e-01
2.462875396013259888e-01
-1.032301224768161774e-03
4.336753487586975098e-02
-1.604929268360137939e-01
1.335389316082000732e-01
6.949861347675323486e-02
-7.271680980920791626e-02
-8.982360363006591797e-02
-1.574691683053970337e-01
-7.219763100147247314e-02
1.257869303226470947e-01
-3.195066452026367188e-01
-1.892394572496414185e-01
-2.154141366481781006e-01
1.278610378503799438e-01
-8.467868715524673462e-02
1.023487001657485962e-01
-7.211584597826004028e-02
2.498795837163925171e-01
-1.328669339418411255e-01
2.767474576830863953e-02
6.128737330436706543e-02
-3.101049661636352539e-01
-6.963291019201278687e-02
8.259873837232589722e-02
2.023431509733200073e-01
3.149847313761711121e-02
-9.510518610477447510e-02
-1.741036325693130493e-01
1.427509076893329620e-02
-8.899085968732833862e-02
3.894424811005592346e-02
6.603025645017623901e-02
7.569365948438644409e-02
1.503421664237976074e-01
-1.206723693758249283e-02
1.834544390439987183e-01
9.695377945899963379e-02
5.064392089843750000e-02
1.142793707549571991e-02
-6.978232413530349731e-02
8.767475932836532593e-02
2.692909240722656250e-01
-4.978510364890098572e-02
-2.176498323678970337e-01
-5.543441176414489746e-01
-6.862957030534744263e-02
1.067448630928993225e-01
-1.864150762557983398e-01
-8.011044934391975403e-03
-7.156956475228071213e-03
4.050065577030181885e-02
-5.349603667855262756e-02
2.778615243732929230e-02
9.186118841171264648e-02
-4.583806544542312622e-02
1.621171385049819946e-01
-1.102407462894916534e-02
-4.726158082485198975e-02
2.225686460733413696e-01
-4.427399858832359314e-02
1.058030277490615845e-01
-3.528743982315063477e-02
-2.114178985357284546e-02
1.267922371625900269e-01
1.145404130220413208e-01
1.095010861754417419e-01
-2.031181156635284424e-01
-7.167940586805343628e-02
-3.303591534495353699e-02
-1.339495778083801270e-01
8.043544739484786987e-02
-8.510159701108932495e-02
8.337319642305374146e-02
-5.926197767257690430e-02
-3.519629687070846558e-02
1.023542582988739014e-01
1.186899766325950623e-01
-5.160321295261383057e-02
1.400277018547058105e-01
9.877344965934753418e-02
2.514278292655944824e-01
-1.723575033247470856e-02
-1.154562737792730331e-02
1.409965306520462036e-01
8.347540348768234253e-02
-1.652296930551528931e-01
1.600970141589641571e-02
1.750285625457763672e-01
1.832881420850753784e-01
-3.000153042376041412e-02
-3.266948275268077850e-03
9.695232845842838287e-03
1.873794794082641602e-01
-7.885821163654327393e-02
-3.000683784484863281e-01
8.845127187669277191e-03
1.314907670021057129e-01
-1.462251041084527969e-02
-9.541789442300796509e-02
5.592375248670578003e-02
-2.512163221836090088e-01
-2.937360107898712158e-01
-8.336874656379222870e-03
2.081503719091415405e-01
-2.844955585896968842e-02
-3.008147701621055603e-02
2.070520073175430298e-01
2.080152928829193115e-01
3.369282558560371399e-02
1.810275763273239136e-02
-5.891606211662292480e-02
2.035345435142517090e-01
-6.928890198469161987e-02
5.449984595179557800e-02
-4.027797654271125793e-02
-3.038972318172454834e-01
-1.407677382230758667e-01
2.332390993833541870e-01
-1.907842457294464111e-01
-4.194429516792297363e-02
-1.745285391807556152e-01
1.470382791012525558e-02
-1.712795197963714600e-01
1.345195025205612183e-01
2.540574595332145691e-02
6.805431097745895386e-02
-4.541878588497638702e-03
4.301828891038894653e-02
3.516442775726318359e-01
1.066734343767166138e-01
-1.283413264900445938e-02
1.463352590799331665e-01
3.131371736526489258e-02
2.623719871044158936e-01
-6.368621438741683960e-02
-4.276051372289657593e-02
3.320268094539642334e-01
1.365006566047668457e-01
-6.779856979846954346e-02
-2.358924783766269684e-02
-5.722786784172058105e-01
3.569134976714849472e-03
1.787950694561004639e-01
-6.441181898117065430e-02
-3.116164915263652802e-02
-6.421779841184616089e-02
-4.433496668934822083e-02
1.040616333484649658e-01
-6.911311298608779907e-02
5.028244480490684509e-02
-5.030532181262969971e-02
-1.848446428775787354e-01
-9.064519405364990234e-02
-1.571846455335617065e-01
-6.072847172617912292e-02
1.521689742803573608e-01
8.351913839578628540e-02
2.120248228311538696e-01
2.086511850357055664e-01
2.701446413993835449e-01
-9.060133993625640869e-02
3.709679469466209412e-02
-1.456729024648666382e-01
1.795064061880111694e-01
1.537255477160215378e-02
1.313342005014419556e-01
-6.149830296635627747e-02
-2.169283339753746986e-03
-1.347625907510519028e-02
-2.230982929468154907e-01
1.306453440338373184e-02
1.119557023048400879e-01
1.616302281618118286e-01
-8.431132137775421143e-02
1.751366704702377319e-01
-6.231759861111640930e-02
-1.061287596821784973e-01
-4.882292076945304871e-02
-1.697791218757629395e-01
3.115695342421531677e-02
9.036368876695632935e-02
-1.235770732164382935e-01
1.469737738370895386e-01
-4.559957608580589294e-02
1.536835283041000366e-01
-2.170230448246002197e-01
1.484699696302413940e-01
3.435928225517272949e-01
1.091410741209983826e-01
-2.016307413578033447e-01
1.696212403476238251e-02
-1.085058134049177170e-02
6.821966171264648438e-02
-3.636592626571655273e-02
6.640639156103134155e-02
2.608567662537097931e-02
-1.549415737390518188e-01
1.005913019180297852e-01
-1.078492701053619385e-01
1.967836320400238037e-01
4.568884149193763733e-02
8.338586241006851196e-02
-1.365694254636764526e-01
6.895557511597871780e-03
9.543231129646301270e-02
1.284428089857101440e-01
5.890114232897758484e-02
-6.340630352497100830e-02
-4.943089932203292847e-02
1.626952439546585083e-01
-1.551248878240585327e-01
-8.736900053918361664e-03
-2.179403156042098999e-01
3.431836366653442383e-01
-1.418061852455139160e-01
2.482297122478485107e-01
1.650191843509674072e-01
-6.588970124721527100e-02
-1.605391651391983032e-01
1.708028912544250488e-01
-2.792919613420963287e-02
4.567801058292388916e-01
4.980991128832101822e-03
-2.427504658699035645e-01
2.175107151269912720e-01
1.166162043809890747e-01
-9.122873097658157349e-02
-1.012580692768096924e-01
7.159100472927093506e-02
3.073494136333465576e-01
1.079010888934135437e-01
6.281132251024246216e-02
-3.436142206192016602e-02
-1.065110936760902405e-01
-5.338412150740623474e-02
1.492793858051300049e-02
-3.209419548511505127e-01
3.053648024797439575e-02
2.575983703136444092e-01
-1.148307994008064270e-01
1.167481988668441772e-01
-1.230530347675085068e-02
-5.783792957663536072e-02
-1.400640904903411865e-01
3.074553608894348145e-02
2.222790382802486420e-02
2.393594756722450256e-02
9.336222708225250244e-02
-4.270166903734207153e-02
-2.480532824993133545e-01
3.410621313378214836e-03
6.678806990385055542e-02
7.916410267353057861e-02
-1.398145258426666260e-01
1.286551058292388916e-01
3.249503076076507568e-01
-6.584004964679479599e-03
-7.360888272523880005e-02
-1.621106863021850586e-01
9.598254412412643433e-02
-5.054931715130805969e-02
2.373236268758773804e-01
1.055729947984218597e-02
-2.615099549293518066e-01
-9.398698806762695312e-02
3.075889497995376587e-02
1.096535027027130127e-01
7.940181531012058258e-03
9.192360192537307739e-02
-1.887221336364746094e-01
-2.136899828910827637e-01
6.361581385135650635e-02
-8.396957069635391235e-02
-1.315671056509017944e-01
5.797815322875976562e-02
-2.810900472104549408e-02
4.910485818982124329e-02
-9.730523079633712769e-02
1.558241546154022217e-01
-9.534610807895660400e-02
7.873534411191940308e-02
-1.261034458875656128e-01
2.044549435377120972e-01
7.867974042892456055e-02
1.204013302922248840e-01
3.377843648195266724e-02
9.796865284442901611e-02
-3.455142676830291748e-02
-8.657086640596389771e-02
1.739864610135555267e-02
-2.921023070812225342e-01
8.408530056476593018e-02
-5.657424032688140869e-02
2.879719436168670654e-02
-4.308127984404563904e-02
-3.083023801445960999e-02
-8.283697068691253662e-02
2.519924640655517578e-01
-1.097156032919883728e-01
1.923546642065048218e-01
-2.484031394124031067e-02
8.456788957118988037e-02
1.658703237771987915e-01
1.216010972857475281e-01
-6.853731721639633179e-02
2.096173465251922607e-01
-5.670148506760597229e-02
-4.917595908045768738e-02
-2.170668356120586395e-02
-4.552336782217025757e-02
-1.698509305715560913e-01
1.232791244983673096e-01
1.166481375694274902e-01
-4.371340572834014893e-02
-1.181308850646018982e-01
4.109261184930801392e-02
1.237651035189628601e-01
1.178823560476303101e-01
-1.066231261938810349e-02
-2.204201221466064453e-01
1.119939051568508148e-02
1.387754976749420166e-01
-1.848819851875305176e-01
-6.594689190387725830e-02
1.827819198369979858e-01
8.537962287664413452e-02
1.606172323226928711e-02
-1.157136783003807068e-01
-6.263916194438934326e-02
1.724229007959365845e-01
1.583977192640304565e-01
-1.485457271337509155e-01
-4.007358849048614502e-01
2.837241813540458679e-02
1.984917819499969482e-01
-1.405557990074157715e-01
-8.327035605907440186e-02
-3.310057893395423889e-02
1.275358200073242188e-01
3.989105671644210815e-02
5.007893592119216919e-02
-1.407579146325588226e-02
-4.352514818310737610e-02
8.548522740602493286e-02
-1.733508706092834473e-01
-6.307916343212127686e-02
4.537187889218330383e-02
3.797566890716552734e-01
-1.837494075298309326e-01
1.387296319007873535e-01
9.594531357288360596e-02
-6.335581094026565552e-02
-4.505630582571029663e-02
6.530152261257171631e-02
-7.381181418895721436e-02
1.038057729601860046e-01
-2.672220580279827118e-02
2.291602641344070435e-02
1.538353562355041504e-01
-1.261906921863555908e-01
3.291890956461429596e-03
1.239926647394895554e-02
7.423242088407278061e-03
-6.136721000075340271e-02
-8.449302613735198975e-02
3.296013921499252319e-02
-1.183627620339393616e-01
6.045006588101387024e-02
-1.043187752366065979e-01
-5.777091905474662781e-02
-1.260358840227127075e-01
9.922582656145095825e-02
-1.563491113483905792e-02
1.967523992061614990e-01
2.042577862739562988e-01
5.016680061817169189e-02
4.309117048978805542e-02
-2.122535556554794312e-01
4.970940202474594116e-02
-8.106514811515808105e-03
-1.677270084619522095e-01
-1.192555949091911316e-01
9.253167361021041870e-02
1.104223728179931641e-01
-2.568581104278564453e-01
1.149924695491790771e-01
-5.469299852848052979e-02
-6.697034090757369995e-02
1.358941942453384399e-01
-8.847463130950927734e-02
-9.371275454759597778e-02
-3.171995282173156738e-02
1.720490455627441406e-01
1.316303014755249023e-01
-1.372463405132293701e-01
1.143021974712610245e-02
-7.364869862794876099e-02
-7.896158844232559204e-02
3.963907808065414429e-02
-1.561278849840164185e-01
-6.211368739604949951e-02
7.876417040824890137e-02
4.585867375135421753e-02
7.165103405714035034e-02
-6.994019448757171631e-02
-2.451308071613311768e-01
1.060565188527107239e-01
9.535374492406845093e-02
-2.530916333198547363e-01
9.481450915336608887e-02
2.675586380064487457e-02
-9.219795465469360352e-02
-9.020126610994338989e-02
3.469490408897399902e-01
8.307965099811553955e-02
1.036522090435028076e-01
-1.813242733478546143e-01
2.470072805881500244e-01
-2.351044863462448120e-01
-1.243243515491485596e-01
1.078610494732856750e-01
3.094285726547241211e-01
2.078430727124214172e-02
1.638289690017700195e-01
-1.925600916147232056e-01
-1.634585559368133545e-01
2.116118818521499634e-01
1.516045257449150085e-02
-4.825116693973541260e-02
-1.429522037506103516e-01
-1.863185167312622070e-01
7.293781638145446777e-02
-1.085068061947822571e-01
1.781420111656188965e-01
1.364349573850631714e-01
-2.589478790760040283e-01
-3.566467761993408203e-02
4.918226227164268494e-02
-6.092148274183273315e-02
3.826293647289276123e-01
1.245837658643722534e-01
1.806702613830566406e-01
3.379593193531036377e-01
-5.280292779207229614e-02
-1.259559839963912964e-01
-4.128225520253181458e-02
-3.287317231297492981e-02
9.206706285476684570e-02
-5.674419924616813660e-02
1.893964782357215881e-02
9.613972157239913940e-02
-3.093557991087436676e-02
9.043363854289054871e-03
-1.730057448148727417e-01
1.159110963344573975e-01
-1.998635828495025635e-01
4.436989501118659973e-02
-9.510718286037445068e-02
7.883805036544799805e-02
2.743657529354095459e-01
2.559558860957622528e-02
1.205042749643325806e-01
9.946075826883316040e-02
-8.987089991569519043e-02
-1.166070550680160522e-01
1.935799568891525269e-01
-1.219229474663734436e-01
9.449628740549087524e-02
1.544081121683120728e-01
8.943853527307510376e-02
8.721841126680374146e-02
2.275173366069793701e-01
-7.408634573221206665e-02
7.970082759857177734e-02
1.114285662770271301e-01
-9.056086093187332153e-02
1.434458643198013306e-01
-4.073480516672134399e-02
-2.112746834754943848e-01
2.215176969766616821e-01
5.244816467165946960e-02
1.328200995922088623e-01
-3.807432353496551514e-01
1.297038495540618896e-01
-1.823949962854385376e-01
-3.857072889804840088e-01
-5.809766054153442383e-02
-4.584594443440437317e-02
8.559844642877578735e-02
2.437050268054008484e-02
1.750021614134311676e-02
-6.511861830949783325e-02
-2.800856530666351318e-01
1.419081389904022217e-01
-2.047495394945144653e-01
6.202600151300430298e-02
4.215422645211219788e-02
9.335004538297653198e-02
1.148854643106460571e-01
-2.176998853683471680e-01
-4.712689295411109924e-02
-2.765213549137115479e-01
-2.199411690235137939e-01
-4.042596742510795593e-02
-7.415891438722610474e-02
-1.531038060784339905e-02
-9.010120481252670288e-02
-3.466547131538391113e-01
-1.594153791666030884e-01
-1.858305037021636963e-01
5.236638709902763367e-02
1.864557862281799316e-01
2.765972018241882324e-01
2.384415715932846069e-01
1.354426741600036621e-01
1.812956184148788452e-01
5.605875328183174133e-02
3.227649331092834473e-01
-2.952524274587631226e-02
-1.760905385017395020e-01
8.257051557302474976e-02
1.252836585044860840e-01
9.767849743366241455e-02
-1.680600941181182861e-01
-7.438389658927917480e-01
-8.462639525532722473e-03
9.020991623401641846e-02
-2.135176658630371094e-01
3.600914403796195984e-02
-9.995917230844497681e-02
-5.234686285257339478e-02
-2.241552174091339111e-01
1.911057741381227970e-03
-7.872655242681503296e-02
-3.621916770935058594e-01
-1.321857422590255737e-02
-1.019240245223045349e-01
-5.293028429150581360e-02
-2.993181049823760986e-01
-2.100257128477096558e-01
1.946605890989303589e-01
-1.505677849054336548e-01
-2.297892868518829346e-01
2.474189847707748413e-01
-5.089066922664642334e-02
8.348003774881362915e-02
-1.289461255073547363e-01
-9.631854295730590820e-02
-5.484151840209960938e-02
7.881802320480346680e-02
-1.649678200483322144e-01
-1.202594861388206482e-01
3.864675387740135193e-02
1.007947921752929688e-01
6.265018135309219360e-02
8.640559762716293335e-02
3.500571101903915405e-02
-1.281377822160720825e-01
1.006909906864166260e-01
5.671531707048416138e-02
1.410865336656570435e-01
-4.498852416872978210e-02
2.695958018302917480e-01
1.256222650408744812e-02
-1.602906547486782074e-02
-1.674272269010543823e-01
8.297459036111831665e-02
-2.202921546995639801e-02
-5.239753983914852142e-03
2.299983799457550049e-01
7.800462190061807632e-04
-8.340245112776756287e-03
5.822589248418807983e-02
-3.274909779429435730e-02
-2.357142977416515350e-02
-2.540217638015747070e-01
1.037790924310684204e-01
7.894479483366012573e-02
-1.520563848316669464e-02
3.157839924097061157e-02
-7.444484531879425049e-02
2.314507812261581421e-01
-4.188866540789604187e-02
-1.175826787948608398e-02
-9.808545559644699097e-02
-6.388694792985916138e-02
-1.611285209655761719e-01
1.111443117260932922e-01
3.797433897852897644e-02
-5.991015955805778503e-02
1.881739646196365356e-01
-4.456549882888793945e-03
-1.324070543050765991e-01
1.149873584508895874e-01
-1.849285364151000977e-01
-1.555976457893848419e-02
4.220037255436182022e-03
3.139685094356536865e-01
-6.604916602373123169e-02
1.167387962341308594e-01
8.204007148742675781e-02
7.000633981078863144e-03
-7.612205296754837036e-02
2.575551867485046387e-01
2.426119297742843628e-01
3.290607631206512451e-01
-1.655541658401489258e-01
-1.502201706171035767e-01
1.000470817089080811e-01
-3.303551673889160156e-02
-6.290465593338012695e-03
3.455805405974388123e-02
-5.141858384013175964e-02
-1.875611096620559692e-01
6.020638719201087952e-02
-1.050526723265647888e-01
9.487652219831943512e-03
-1.306374371051788330e-02
-1.108061671257019043e-01
2.275920845568180084e-02
-1.829737871885299683e-01
1.344401836395263672e-01
1.233222633600234985e-01
2.837827987968921661e-02
8.401905652135610580e-04
-5.877460166811943054e-02
-5.697197839617729187e-02
2.184390425682067871e-01
7.521313428878784180e-02
-4.300314560532569885e-02
1.616993993520736694e-01
-7.175412774085998535e-02
1.751873828470706940e-02
-5.913459509611129761e-02
4.266691580414772034e-02
2.694288194179534912e-01
-2.732729613780975342e-01
-5.346914008259773254e-02
-1.368578672409057617e-01
-2.716804742813110352e-01
8.521945774555206299e-02
-5.376134440302848816e-02
9.549192339181900024e-02
1.402166187763214111e-01
-4.068653285503387451e-02
-3.597474470734596252e-02
4.253587871789932251e-02
1.941569596529006958e-01
5.834605544805526733e-04
-3.166313841938972473e-02
-2.850762568414211273e-02
3.150514885783195496e-02
-1.031811386346817017e-01
1.491497606039047241e-01
-1.248304024338722229e-01
-4.865884780883789062e-02
1.616257615387439728e-02
1.140586063265800476e-01
-2.249251008033752441e-01
9.159448742866516113e-02
-7.718879729509353638e-02
1.936359554529190063e-01
-1.053498014807701111e-01
-3.088271319866180420e-01
1.193667855113744736e-02
-9.233280271291732788e-02
-1.507776826620101929e-01
-1.216766312718391418e-01
-1.200759112834930420e-01
-1.428882181644439697e-01
1.368843317031860352e-01
1.236011274158954620e-02
-2.102870047092437744e-01
7.408491522073745728e-02
1.153090596199035645e-01
3.476087376475334167e-02
7.277850806713104248e-02
7.841374725103378296e-02
7.689308375120162964e-02
8.333325386047363281e-02
1.728402227163314819e-01
5.681911855936050415e-02
2.201495319604873657e-01
6.927814334630966187e-02
-1.989100426435470581e-01
-7.416109740734100342e-02
-2.427092008292675018e-02
-1.510816961526870728e-01
-1.015188246965408325e-01
-6.453677266836166382e-02
2.196492254734039307e-01
1.746231615543365479e-01
-4.064783081412315369e-02
-2.427483648061752319e-01
1.079215928912162781e-01
1.810614615678787231e-01
-8.558420836925506592e-02
-7.925236970186233521e-02
1.516489386558532715e-01
-1.629866063594818115e-01
-7.349304854869842529e-02
-1.780267432332038879e-02
1.181900575757026672e-01
-5.892307311296463013e-02
-1.243914887309074402e-01
5.815935134887695312e-02
-5.398284178227186203e-03
3.176141157746315002e-02
-8.817808330059051514e-02
2.302218228578567505e-01
-2.749378606677055359e-02
7.314132153987884521e-02
-3.219086304306983948e-02
-2.267571985721588135e-01
1.005706712603569031e-01
2.312020584940910339e-02
-7.071336731314659119e-03
1.475319266319274902e-01
-1.837989389896392822e-01
-2.598557993769645691e-02
-9.526506997644901276e-03
1.560795009136199951e-01
8.755304664373397827e-02
-9.939665347337722778e-02
1.776278391480445862e-02
-4.505022242665290833e-02
1.465764045715332031e-01
-8.479438722133636475e-02
-2.219189703464508057e-02
1.096935495734214783e-01
-1.348568871617317200e-02
1.055628508329391479e-01
-7.917863875627517700e-02
3.541110083460807800e-02
1.155537553131580353e-02
-2.445408999919891357e-01
-4.976350441575050354e-02
-8.964309841394424438e-02
8.564198017120361328e-02
-2.926478628069162369e-03
-2.690782584249973297e-02
1.627562940120697021e-01
2.543324790894985199e-02
-9.728280827403068542e-03
-1.732041686773300171e-01
6.034444272518157959e-02
2.325090765953063965e-02
3.318547829985618591e-02
7.417127024382352829e-03
3.168124705553054810e-02
-2.525566816329956055e-01
4.379393998533487320e-03
1.280415952205657959e-01
-1.102327480912208557e-01
1.977133899927139282e-01
-9.143313020467758179e-02
1.178617104887962341e-01
-1.810016036033630371e-01
1.620805114507675171e-01
2.154211401939392090e-01
-6.725355237722396851e-02
9.374475479125976562e-02
-9.234448522329330444e-02
-1.137867048382759094e-01
-1.987650804221630096e-02
1.815159320831298828e-01
2.210964560508728027e-01
6.932511925697326660e-02
-2.304138382896780968e-03
6.485421955585479736e-02
6.175997480750083923e-02
1.103448718786239624e-01
1.238169819116592407e-01
3.240950033068656921e-02
1.383350510150194168e-02
-7.566268742084503174e-02
-2.802391722798347473e-02
-2.182783931493759155e-01
1.375051140785217285e-01
9.113312512636184692e-02
1.090227290987968445e-01
1.272628605365753174e-01
-1.370386332273483276e-01
1.089743152260780334e-01
-1.001677960157394409e-01
-1.537583172321319580e-01
6.932213902473449707e-02
-1.455792039632797241e-01
-7.698732614517211914e-02
-2.237830311059951782e-01
2.204782217741012573e-01
-2.935612201690673828e-01
-9.977813810110092163e-02
-2.303703129291534424e-02
1.926534473896026611e-01
-7.828796654939651489e-02
-3.925801068544387817e-02
-1.116589531302452087e-01
1.010783482342958450e-03
1.748381108045578003e-01
-4.198239371180534363e-02
-1.630958318710327148e-01
6.423759460449218750e-02
7.585213985294103622e-03
3.930669277906417847e-03
-1.443502008914947510e-01
1.398097909986972809e-02
2.495676726102828979e-01
-1.709697097539901733e-01
1.531256437301635742e-01
3.803067281842231750e-02
8.886320888996124268e-02
1.172824576497077942e-01
-1.697258651256561279e-01
-1.007414385676383972e-01
2.634979188442230225e-01
5.137156695127487183e-03
-1.064736694097518921e-01
-5.212444067001342773e-02
1.166408434510231018e-01
-3.476405143737792969e-02
-7.615996152162551880e-02
-2.308398783206939697e-01
-5.918288603425025940e-02
3.421415761113166809e-02
9.098436683416366577e-02
-2.961404323577880859e-01
5.728399381041526794e-02
1.911813914775848389e-01
1.252626031637191772e-01
-7.463639974594116211e-02
9.906446933746337891e-02
1.456683278083801270e-01
-2.554803714156150818e-02
-3.203507512807846069e-02
5.585169792175292969e-02
-9.342777729034423828e-02
1.173800304532051086e-01
-3.983227536082267761e-02
4.128210544586181641e-01
-1.518036704510450363e-02
-3.881561756134033203e-02
-4.581371322274208069e-03
-1.206098720431327820e-01
-2.370874583721160889e-02
-1.513914763927459717e-01
-1.026748046278953552e-01
7.062135636806488037e-02
-1.517784446477890015e-01
-7.932905107736587524e-02
8.449742197990417480e-02
-1.489662081003189087e-01
1.764775961637496948e-01
-1.540979593992233276e-01
-1.499669998884201050e-01
4.872464761137962341e-02
1.433747559785842896e-01
-2.386833131313323975e-01
-8.119960874319076538e-02
1.184142902493476868e-01
2.293416559696197510e-01
-2.492409013211727142e-02
1.061623636633157730e-02
2.425818890333175659e-02
2.506603002548217773e-01
-8.650815486907958984e-02
1.183696836233139038e-01
-9.788466989994049072e-02
-6.256855558604001999e-03
1.820126324892044067e-01
-4.288237914443016052e-02
-5.257923901081085205e-02
-5.820136144757270813e-02
5.834496021270751953e-02
-4.775413498282432556e-02
7.659777998924255371e-02
1.459086835384368896e-01
-2.141438983380794525e-02
1.253907531499862671e-01
1.934292763471603394e-01
-6.403192877769470215e-02
-2.525893151760101318e-01
-1.316376775503158569e-01
7.085686922073364258e-02
1.439657900482416153e-02
4.616977274417877197e-01
-1.108457744121551514e-01
-1.601358316838741302e-02
3.132270276546478271e-01
-1.297807600349187851e-02
-8.095102757215499878e-02
2.634114325046539307e-01
1.254412345588207245e-02
-1.917754672467708588e-02
-1.258070021867752075e-01
2.289967983961105347e-01
-9.667673707008361816e-02
-3.569414019584655762e-01
6.461932510137557983e-02
-1.112585440278053284e-01
-1.482122689485549927e-01
-2.996408641338348389e-01
-4.161317273974418640e-02
-4.165840335190296173e-03
3.508933484554290771e-01
-3.987281322479248047e-01
-1.459229141473770142e-01
1.175257414579391479e-01
5.912793278694152832e-01
1.422912627458572388e-02
1.660405844449996948e-01
1.451460570096969604e-01
4.881757311522960663e-03
-2.538380622863769531e-01
2.244175598025321960e-02
1.800373941659927368e-01
2.433274313807487488e-02
7.131198048591613770e-02
1.272038072347640991e-01
-2.481085807085037231e-01
9.860248863697052002e-02
-6.283625215291976929e-02
-1.102888137102127075e-01
5.369947478175163269e-02
1.192169636487960815e-01
2.258402993902564049e-03
6.914729624986648560e-02
-1.396819949150085449e-01
2.353036105632781982e-01
1.573240943253040314e-02
-3.058269992470741272e-02
1.323041021823883057e-01
7.195357233285903931e-02
3.062173724174499512e-01
-9.605974704027175903e-02
1.442560702562332153e-01
-1.648747175931930542e-01
1.478642225265502930e-01
4.375855624675750732e-02
-1.085605621337890625e-01
1.271522790193557739e-01
-9.060057997703552246e-02
-3.636716306209564209e-01
8.765713125467300415e-02
1.056042611598968506e-01
-1.927583664655685425e-01
3.093610517680644989e-02
-1.790694743394851685e-01
4.754080250859260559e-02
-2.581201493740081787e-01
1.206041499972343445e-01
-6.045158486813306808e-03
1.723488233983516693e-02
8.474250137805938721e-02
-4.491144046187400818e-02
-5.756084341555833817e-03
1.307126432657241821e-01
7.236430794000625610e-02
1.864604800939559937e-01
-3.383897244930267334e-02
1.939953491091728210e-02
-4.860818386077880859e-02
2.818444930016994476e-02
3.378577157855033875e-02
-2.394567057490348816e-02
2.364227622747421265e-01
1.318492889404296875e-01
1.874828040599822998e-01
4.420238360762596130e-02
-1.652846336364746094e-01
1.975755095481872559e-01
3.380549550056457520e-01
3.245768249034881592e-01
-2.147045172750949860e-02
-6.133950501680374146e-02
1.058667781762778759e-03
-1.005409508943557739e-01
-2.597877085208892822e-01
-1.103136986494064331e-01
-5.408450588583946228e-02
-6.728070229291915894e-02
3.108146786689758301e-01
-3.026245348155498505e-02
-1.423446983098983765e-01
-1.210657432675361633e-01
5.141263362020254135e-03
7.164765149354934692e-02
1.181217432022094727e-01
2.471127808094024658e-01
9.821400791406631470e-02
2.148468233644962311e-02
1.697290688753128052e-01
-9.214203804731369019e-02
-3.140842616558074951e-01
-1.625931411981582642e-01
-1.326895058155059814e-01
-6.872452050447463989e-02
4.210535064339637756e-02
-6.456798315048217773e-02
5.243153870105743408e-02
-2.037139385938644409e-01
-5.874742195010185242e-02
-8.585341274738311768e-02
9.061470627784729004e-02
-1.394279152154922485e-01
1.484304815530776978e-01
4.116924107074737549e-02
1.227217260748147964e-02
4.758880287408828735e-02
2.145659551024436951e-02
1.129683107137680054e-01
1.405982077121734619e-01
-6.337999552488327026e-02
7.254517078399658203e-02
6.907958537340164185e-02
-8.185166120529174805e-02
6.709941476583480835e-02
-4.577302932739257812e-02
1.490240097045898438e-01
2.145181596279144287e-01
-1.446190774440765381e-01
6.359001249074935913e-02
1.183209270238876343e-01
1.628050766885280609e-02
1.435368508100509644e-01
-2.015397511422634125e-02
2.418688088655471802e-01
1.039275676012039185e-01
-2.118786424398422241e-02
4.731614142656326294e-02
1.103947521187365055e-03
-2.982670255005359650e-02
5.955639481544494629e-02
1.633338332176208496e-01
8.818614482879638672e-02
-6.493736058473587036e-02
5.408181250095367432e-02
1.232550218701362610e-01
7.836754620075225830e-02
8.384396880865097046e-02
-1.990643888711929321e-01
9.005286730825901031e-03
-1.532275527715682983e-01
-4.891246929764747620e-02
-4.978934302926063538e-03
2.157851755619049072e-01
-1.462786793708801270e-01
-1.680701822042465210e-01
-3.967306762933731079e-02
-1.739247292280197144e-01
-2.991870231926441193e-02
6.667236797511577606e-03
-9.805095940828323364e-02
-1.086884066462516785e-01
1.957156956195831299e-01
5.586669594049453735e-02
-2.526007294654846191e-01
-5.234397575259208679e-02
2.634050697088241577e-02
-7.161559164524078369e-02
2.823905050754547119e-01
2.595788985490798950e-02
1.193388365209102631e-02
-1.326692998409271240e-01
1.375690847635269165e-01
1.732398271560668945e-01
-2.813885360956192017e-02
-1.621075570583343506e-01
-1.061047464609146118e-01
7.674107793718576431e-03
-4.136002063751220703e-02
-1.331251859664916992e-01
-1.465741693973541260e-01
-1.330376416444778442e-02
1.569992005825042725e-01
3.089617192745208740e-01
7.280166726559400558e-03
-2.232379168272018433e-01
9.248196333646774292e-02
9.647236764430999756e-02
-4.388009384274482727e-02
1.095092967152595520e-01
-2.396810596110299230e-04
-4.004304111003875732e-02
-3.145125508308410645e-02
1.158608868718147278e-01
7.685625553131103516e-02
-6.327314674854278564e-02
-2.433101683855056763e-01
1.929867267608642578e-02
-7.973216474056243896e-02
-2.322827577590942383e-01
1.616757065057754517e-01
2.726622298359870911e-02
1.378453336656093597e-02
6.599019281566143036e-03
-1.985615789890289307e-01
-3.274366557598114014e-01
1.692939847707748413e-01
-5.772066116333007812e-02
2.155503723770380020e-03
7.264147861860692501e-04
-2.271262258291244507e-01
-3.447492793202400208e-02
-1.380398720502853394e-01
1.132311001420021057e-01
1.253904849290847778e-01
-1.349622160196304321e-01
4.599012807011604309e-02
-8.693332970142364502e-02
1.645358055830001831e-01
3.308819830417633057e-01
1.703323721885681152e-01
4.509442299604415894e-02
-6.510066986083984375e-02
-9.335930645465850830e-02
-2.034009434282779694e-02
-2.745687365531921387e-01
-1.309423707425594330e-02
-8.849298208951950073e-02
-1.833011060953140259e-01
-9.002822637557983398e-02
-2.531493315473198891e-03
7.979555986821651459e-03
1.140791624784469604e-01
5.722473189234733582e-02
4.558101668953895569e-02
-1.201357170939445496e-01
-1.985522359609603882e-01
-1.482279896736145020e-01
4.092492908239364624e-02
1.734693795442581177e-01
1.527775675058364868e-01
8.290322870016098022e-02
-2.704503834247589111e-01
7.679893821477890015e-02
6.308392435312271118e-02
4.759798571467399597e-02
3.251064196228981018e-02
1.398887187242507935e-01
-2.132856696844100952e-01
-1.807000301778316498e-02
1.415130347013473511e-01
-2.240189909934997559e-01
-7.321991771459579468e-02
1.616431474685668945e-01
1.770248711109161377e-01
7.605575770139694214e-02
4.088396951556205750e-02
1.273650676012039185e-01
-1.148291304707527161e-02
-2.326731681823730469e-01
-9.349277615547180176e-02
2.026318944990634918e-02
-1.364450007677078247e-01
1.007223352789878845e-01
-3.575083315372467041e-01
5.936422199010848999e-02
-7.776359468698501587e-02
5.051995068788528442e-02
-6.353928893804550171e-02
-1.391704543493688107e-03
2.035683244466781616e-01
1.544044315814971924e-01
-4.282509163022041321e-02
2.588681280612945557e-01
1.376825124025344849e-01
2.531419042497873306e-03
1.781599670648574829e-01
1.016503795981407166e-01
3.206605464220046997e-02
-1.529930084943771362e-01
1.357447803020477295e-01
1.418058127164840698e-01
-8.626267313957214355e-02
-6.562351435422897339e-02
7.083061337471008301e-02
-4.020520672202110291e-02
5.544218420982360840e-02
-5.888090236112475395e-04
1.029993221163749695e-01
-6.176811642944812775e-03
1.698107421398162842e-01
-2.383541762828826904e-01
-4.732309654355049133e-02
1.444152742624282837e-01
-8.838696777820587158e-02
2.171430140733718872e-01
-2.850328385829925537e-02
-1.803007721900939941e-02
7.241953164339065552e-02
-1.409844961017370224e-02
-2.665572240948677063e-02
3.958489596843719482e-01
8.433682471513748169e-02
5.680514499545097351e-02
-2.346594631671905518e-01
1.899909377098083496e-01
3.437157720327377319e-02
-9.115193784236907959e-02
-8.549932390451431274e-02
-5.340190604329109192e-02
3.090337105095386505e-02
1.064435169100761414e-01
1.386976242065429688e-02
8.444777922704815865e-04
-2.317851483821868896e-01
-3.486804366111755371e-01
-3.301671445369720459e-01
8.344670385122299194e-02
6.424450129270553589e-02
1.267938762903213501e-01
-1.570405997335910797e-02
8.529862761497497559e-02
2.217705696821212769e-01
-1.111385449767112732e-01
2.762941084802150726e-02
6.317834556102752686e-02
-2.504806220531463623e-01
1.881331950426101685e-01
2.588509395718574524e-02
2.129946649074554443e-02
9.837280958890914917e-02
-9.260109812021255493e-02
1.164580881595611572e-01
-9.485303610563278198e-02
-8.347832411527633667e-02
-1.774809509515762329e-02
6.629196554422378540e-02
-2.046896368265151978e-01
-1.395317018032073975e-01
1.700170710682868958e-02
2.215621322393417358e-01
-2.926731109619140625e-01
-1.094165667891502380e-01
9.065178781747817993e-02
4.132224246859550476e-02
-1.461059898138046265e-01
2.007548660039901733e-01
8.597471565008163452e-02
1.555145531892776489e-01
-2.182634174823760986e-01
-6.136305746622383595e-04
1.277047693729400635e-01
2.303315512835979462e-02
-4.135295376181602478e-02
6.674366444349288940e-02
-1.693333685398101807e-01
-6.861055642366409302e-02
-5.532627925276756287e-03
-8.827661722898483276e-02
4.450248554348945618e-02
-8.015415817499160767e-02
-1.343478709459304810e-01
-1.012565195560455322e-01
1.137884333729743958e-01
9.891263395547866821e-02
-2.381809055805206299e-02
2.136495411396026611e-01
3.137317299842834473e-01
1.703707873821258545e-01
-2.194849550724029541e-01
9.837182611227035522e-02
1.910448074340820312e-01
-1.283531635999679565e-01
-2.700532078742980957e-01
-7.746400684118270874e-02
-2.702381312847137451e-01
-1.315277665853500366e-01
3.693379461765289307e-01
8.304420858621597290e-02
-8.228141814470291138e-02
-1.290361583232879639e-01
-1.075266394764184952e-02
-3.357277950271964073e-03
6.378193944692611694e-02
1.970616169273853302e-02
1.193924397230148315e-01
-2.415315620601177216e-02
2.704344391822814941e-01
6.234769895672798157e-02
-2.409940585494041443e-02
-1.448662728071212769e-01
-4.695601388812065125e-02
-1.476208912208676338e-03
4.835881292819976807e-02
-2.858759649097919464e-02
1.712335944175720215e-01
1.953731924295425415e-01
1.333710253238677979e-01
1.354134082794189453e-01
1.478570103645324707e-01
-1.461442708969116211e-01
-2.435332834720611572e-01
1.470171362161636353e-01
1.497702896595001221e-01
1.973005011677742004e-02
-1.364517658948898315e-01
9.853447228670120239e-02
1.827867142856121063e-02
1.424857694655656815e-02
5.773984268307685852e-02
-1.341107953339815140e-02
-3.453337028622627258e-02
-1.576093025505542755e-02
-8.715616911649703979e-02
3.923025727272033691e-02
1.204391345381736755e-01
-1.915693730115890503e-01
-1.214684024453163147e-01
-6.060327589511871338e-02
-2.526351809501647949e-01
9.021814912557601929e-02
9.985930472612380981e-02
5.915347859263420105e-02
1.120145916938781738e-01
-3.754674270749092102e-02
-6.058596447110176086e-02
1.826629638671875000e-01
-1.422535181045532227e-01
-8.937539532780647278e-03
-1.317032575607299805e-01
-7.086805999279022217e-02
-2.608749456703662872e-02
3.394342586398124695e-02
1.191903501749038696e-01
-4.317483603954315186e-01
8.631301671266555786e-02
3.280110657215118408e-02
1.003773659467697144e-01
-1.847209930419921875e-01
1.150395646691322327e-01
1.640619011595845222e-03
1.870885491371154785e-01
1.054732203483581543e-01
-1.797516793012619019e-01
-1.143582761287689209e-01
1.067181378602981567e-01
5.227110907435417175e-02
-1.074110493063926697e-01
-1.275246590375900269e-01
-6.532764434814453125e-02
1.514257788658142090e-01
-9.296179749071598053e-03
-1.352361589670181274e-01
1.146882027387619019e-01
4.091056808829307556e-02
-3.775466978549957275e-02
9.916926175355911255e-02
5.998005345463752747e-02
1.230288222432136536e-01
-3.459254279732704163e-02
5.717211589217185974e-02
1.152246892452239990e-01
1.647360473871231079e-01
-2.485329061746597290e-01
-1.817568689584732056e-01
2.508510649204254150e-01
9.458237141370773315e-02
-1.724200844764709473e-01
1.601065695285797119e-01
-5.500038620084524155e-03
1.893428266048431396e-01
1.288673188537359238e-02
1.144998297095298767e-01
-2.473395466804504395e-01
1.148187294602394104e-01
-6.302258372306823730e-02
-1.850637644529342651e-01
4.278402402997016907e-02
7.240720093250274658e-02
-1.497245281934738159e-01
-2.009052485227584839e-01
-2.265335023403167725e-01
2.467288374900817871e-01
4.862088337540626526e-02
-2.230082154273986816e-01
-4.240893945097923279e-02
-1.541610062122344971e-02
7.712585851550102234e-03
3.081066068261861801e-03
3.492489159107208252e-01
9.069034457206726074e-02
-5.079971998929977417e-02
-2.210598886013031006e-01
2.953578233718872070e-01
2.068240046501159668e-01
1.637054048478603363e-02
-8.537266403436660767e-02
1.990439929068088531e-02
-8.252573758363723755e-02
5.211829766631126404e-02
-8.061678381636738777e-04
1.939214020967483521e-01
1.561233252286911011e-01
-5.401427298784255981e-02
-4.684557020664215088e-02
-4.378966242074966431e-02
-7.548567373305559158e-03
1.587311178445816040e-02
1.390283368527889252e-02
1.269362121820449829e-01
1.466164886951446533e-01
-3.124780058860778809e-01
-6.475036591291427612e-02
-2.684298716485500336e-02
9.706745296716690063e-02
1.285346448421478271e-01
1.144389808177947998e-01
-2.103597298264503479e-02
-1.685969531536102295e-02
1.212564632296562195e-01
-4.820019379258155823e-02
5.120624229311943054e-02
1.616009026765823364e-01
-3.874482810497283936e-01
1.697025001049041748e-01
1.466704756021499634e-01
2.041653171181678772e-02
-4.011060670018196106e-02
1.148087345063686371e-02
-2.025059908628463745e-01
-1.928872019052505493e-01
2.808656170964241028e-02
1.211491972208023071e-01
-2.355942577123641968e-01
5.394192039966583252e-02
-6.519170850515365601e-02
-1.012890562415122986e-01
6.255973130464553833e-02
-4.507782682776451111e-02
-1.241593733429908752e-01
-3.270715847611427307e-02
-3.381817936897277832e-01
7.094120979309082031e-02
-3.132666274905204773e-02
-1.006845906376838684e-01
8.107464760541915894e-02
5.812299251556396484e-02
-8.609074354171752930e-02
-6.935547292232513428e-02
2.039383351802825928e-02
-2.185958623886108398e-01
6.406038254499435425e-02
4.927174374461174011e-02
-1.853107959032058716e-01
9.780928492546081543e-02
1.098797749727964401e-02
-8.100980892777442932e-03
2.330294102430343628e-01
-1.457739621400833130e-01
1.807867586612701416e-01
-2.705010585486888885e-02
-2.061098963022232056e-01
1.360806375741958618e-01
4.911027848720550537e-02
3.828388452529907227e-02
1.317742913961410522e-01
4.045143723487854004e-02
2.016873210668563843e-01
3.650631010532379150e-02
5.821038782596588135e-02
-1.646223245188593864e-03
1.269030570983886719e-01
-1.749407127499580383e-02
-6.878118962049484253e-02
-1.171812117099761963e-01
-1.051701977849006653e-01
2.134975939989089966e-01
1.503976881504058838e-01
-7.224436849355697632e-02
3.221848979592323303e-02
-2.301130145788192749e-01
-7.931238040328025818e-03
-3.448714017868041992e-01
-1.219187229871749878e-01
7.559207081794738770e-02
-4.900070726871490479e-01
3.741310164332389832e-02
8.862654212862253189e-04
-1.685945838689804077e-01
-2.227519601583480835e-01
2.724992930889129639e-01
-1.539699546992778778e-02
1.563543379306793213e-01
-1.315019875764846802e-01
-6.803303956985473633e-02
-1.092676166445016861e-02
-1.445210911333560944e-02
1.748663634061813354e-01
1.115048304200172424e-01
-1.248196363449096680e-01
-4.925093799829483032e-02
-6.091215461492538452e-02
1.009070575237274170e-01
2.432368695735931396e-01
7.904101908206939697e-02
2.332404553890228271e-01
1.979403793811798096e-01
1.433464437723159790e-01
1.757102459669113159e-01
-4.453905671834945679e-02
3.355855494737625122e-02
4.778730869293212891e-02
5.440672487020492554e-02
6.386262923479080200e-02
5.309033021330833435e-02
8.535140007734298706e-02
-3.173847869038581848e-02
5.718308314681053162e-02
-1.215621978044509888e-01
-1.516750901937484741e-01
4.887283593416213989e-02
1.957584470510482788e-01
-1.064001023769378662e-01
1.312017738819122314e-01
-2.754529938101768494e-02
-2.599238753318786621e-01
-5.289945751428604126e-02
-1.019229590892791748e-01
6.374671310186386108e-02
-1.659180223941802979e-01
5.511331558227539062e-02
-6.487341225147247314e-02
2.026823163032531738e-01
-2.888481914997100830e-01
2.140603661537170410e-01
7.999464869499206543e-02
1.057943180203437805e-01
1.031093224883079529e-01
-5.356008186936378479e-02
2.250858098268508911e-01
2.528409063816070557e-01
9.607010334730148315e-02
-1.708561927080154419e-01
-1.296103000640869141e-01
-3.350695222616195679e-02
7.966392487287521362e-02
-2.063512057065963745e-01
-1.580387353897094727e-02
-2.822704985737800598e-02
-3.303614631295204163e-02
6.388267129659652710e-02
9.321611374616622925e-02
-1.200497001409530640e-01
-2.946986816823482513e-03
1.319764852523803711e-01
2.979053258895874023e-01
1.879661232233047485e-01
-9.611614048480987549e-02
6.345339864492416382e-02
8.365914970636367798e-02
-3.164480030536651611e-01
-8.439667522907257080e-02
-1.697624772787094116e-01
-1.153162419795989990e-01
-4.211879894137382507e-02
2.823187112808227539e-01
-1.662305593490600586e-01
1.052804570645093918e-02
1.167393103241920471e-01
-1.805720617994666100e-03
-1.418275851756334305e-02
8.534263074398040771e-02
1.813555359840393066e-01
1.546580940485000610e-01
-2.749247550964355469e-01
1.343628913164138794e-01
2.755801975727081299e-01
-8.337447047233581543e-02
-1.355452984571456909e-01
2.380693890154361725e-02
6.184115633368492126e-02
1.979735791683197021e-01
-1.878091506659984589e-02
-5.717901512980461121e-02
8.937950432300567627e-02
9.104281663894653320e-02
-1.066835448145866394e-01
2.013254724442958832e-02
-4.123973846435546875e-01
-4.994095489382743835e-02
1.090365201234817505e-01
3.324378281831741333e-02
-7.492723315954208374e-02
-2.510231137275695801e-01
7.404383271932601929e-02
7.585824280977249146e-02
3.446063026785850525e-02
-2.001482434570789337e-02
-6.445102393627166748e-02
-2.703440487384796143e-01
8.887913823127746582e-02
-2.147569805383682251e-01
-4.228601232171058655e-02
1.661198586225509644e-01
-6.004886329174041748e-02
1.512184832245111465e-02
1.057723313570022583e-01
2.180690616369247437e-01
1.352441906929016113e-01
-5.156755819916725159e-02
1.673681735992431641e-01
4.045122489333152771e-02
-1.540580857545137405e-02
8.965482003986835480e-03
8.523007482290267944e-02
3.122064173221588135e-01
4.610920324921607971e-02
4.227729141712188721e-02
-1.863506622612476349e-02
-7.949709892272949219e-02
-1.170124486088752747e-01
-1.017571985721588135e-01
8.051861077547073364e-02
-1.058146730065345764e-02
-2.299138009548187256e-01
-1.641471311450004578e-02
-1.416794955730438232e-01
-1.619532555341720581e-01
1.869059801101684570e-01
1.131253540515899658e-01
-2.312238663434982300e-01
-1.149189844727516174e-01
-9.268763661384582520e-02
-1.417860239744186401e-01
5.456151068210601807e-02
-9.691558033227920532e-02
3.522410988807678223e-02
-2.320143878459930420e-01
8.923198282718658447e-02
2.406200319528579712e-01
5.756456032395362854e-02
6.252741068601608276e-02
1.132675632834434509e-01
-6.345688551664352417e-02
1.780705004930496216e-01
2.654925882816314697e-01
-5.583510175347328186e-02
-2.129138410091400146e-01
1.445284485816955566e-01
2.213928401470184326e-01
-1.758937090635299683e-01
-2.333731651306152344e-01
-7.617590576410293579e-02
-5.216161161661148071e-02
1.646814495325088501e-02
-8.184737712144851685e-02
-1.241774186491966248e-01
5.921560525894165039e-02
-5.026104301214218140e-02
2.764380872249603271e-01
9.387325495481491089e-02
-2.172072827816009521e-01
-8.677538484334945679e-02
2.141758948564529419e-01
1.566116809844970703e-01
-8.588670194149017334e-02
-7.115525007247924805e-02
-1.353303641080856323e-01
-1.863628923892974854e-01
8.431274443864822388e-03
-9.470806457102298737e-03
3.364961221814155579e-02
-2.610930800437927246e-01
-3.743711567949503660e-04
7.666797935962677002e-02
-2.406973093748092651e-01
7.550688832998275757e-02
-9.872814267873764038e-02
-4.860451444983482361e-02
9.697750210762023926e-03
-1.984314993023872375e-02
-2.681118845939636230e-01
-5.177231505513191223e-02
-1.755455136299133301e-01
1.098200678825378418e-01
-4.121434316039085388e-02
-1.081597134470939636e-01
-3.421439230442047119e-02
4.288467019796371460e-02
1.196698173880577087e-01
3.788927942514419556e-02
-7.161151617765426636e-02
-3.268236666917800903e-02
1.504111941903829575e-02
2.511962354183197021e-01
2.999883294105529785e-01
2.413140237331390381e-01
-1.062700077891349792e-01
-9.061371535062789917e-02
3.990778326988220215e-01
-3.651381412055343390e-04
-1.374368071556091309e-01
6.317658722400665283e-02
1.003577653318643570e-02
-1.650829166173934937e-01
-8.998985588550567627e-02
1.750892102718353271e-01
-1.473035067319869995e-01
-5.624629557132720947e-02
8.066606707870960236e-03
3.332856297492980957e-02
1.571488827466964722e-01
-3.701901435852050781e-02
-9.997627139091491699e-02
5.205016955733299255e-02
1.046630963683128357e-01
2.106332220137119293e-02
1.407813429832458496e-01
7.455223053693771362e-02
6.140124425292015076e-02
-2.541503310203552246e-01
2.492752671241760254e-01
1.062551699578762054e-02
1.530317664146423340e-01
-6.382005754858255386e-03
2.202914506196975708e-01
-1.234680563211441040e-01
6.827584654092788696e-02
-1.421191692352294922e-01
1.738384217023849487e-01
9.563717991113662720e-02
-9.163642674684524536e-02
1.194844916462898254e-01
-7.299172878265380859e-02
1.582876741886138916e-01
2.457049340009689331e-01
-1.598249375820159912e-02
3.930664807558059692e-02
1.586064398288726807e-01
-2.842270396649837494e-02
-7.864677906036376953e-02
3.394492566585540771e-01
-1.363893598318099976e-01
2.961576916277408600e-02
2.517330460250377655e-02
-3.801048919558525085e-02
-2.074790745973587036e-01
-2.688964307308197021e-01
-1.797273457050323486e-01
2.401373237371444702e-01
-2.156399376690387726e-02
-1.735050082206726074e-01
6.514006853103637695e-02
2.851322889328002930e-01
1.907745376229286194e-02
2.454537898302078247e-01
9.039393067359924316e-02
-1.936244964599609375e-01
1.159255485981702805e-02
-3.704167529940605164e-02
1.464455574750900269e-01
-2.815062366425991058e-02
-8.810473605990409851e-03
-5.260467156767845154e-02
-1.933809518814086914e-01
9.095125645399093628e-02
1.433705091476440430e-01
-2.106600403785705566e-01
-2.551283538341522217e-01
1.055957674980163574e-01
1.986283063888549805e-01
9.172735363245010376e-02
-8.587274700403213501e-02
5.097904242575168610e-03
5.900940299034118652e-02
1.420532632619142532e-02
-2.064117044210433960e-01
1.597695648670196533e-01
5.819023773074150085e-02
-1.022129133343696594e-01
-1.318106949329376221e-01
9.177172556519508362e-03
2.361986041069030762e-02
-2.180764824151992798e-02
2.839085063897073269e-04
1.485768891870975494e-02
1.275808643549680710e-02
-1.035526469349861145e-01
2.626591920852661133e-02
-7.937904447317123413e-03
-5.082143843173980713e-02
3.360204398632049561e-01
-3.823575004935264587e-02
1.565927118062973022e-01
2.880847454071044922e-01
7.825952768325805664e-02
4.011095315217971802e-02
-8.951004594564437866e-02
4.447877034544944763e-02
-1.803422719240188599e-01
-1.059359088540077209e-01
-5.392977222800254822e-02
-2.055375576019287109e-01
-5.216233432292938232e-02
9.712676703929901123e-02
1.416403800249099731e-01
-5.022695288062095642e-02
-3.259501159191131592e-01
1.642529852688312531e-02
1.854697018861770630e-01
2.514323592185974121e-02
1.395332664251327515e-01
4.886875674128532410e-02
-5.987012013792991638e-02
-8.656693249940872192e-02
-8.199913054704666138e-02
2.367208451032638550e-01
-2.794890403747558594e-01
4.263932257890701294e-02
1.238852590322494507e-01
3.016773611307144165e-03
-2.332254946231842041e-01
2.691984772682189941e-01
1.222336515784263611e-01
1.637039929628372192e-01
2.953924797475337982e-02
1.073421463370323181e-01
8.123707026243209839e-02
-1.056610196828842163e-01
6.720823794603347778e-02
-1.341842021793127060e-02
-1.301862001419067383e-01
-1.390741555951535702e-03
-2.508650533854961395e-02
-2.455352619290351868e-02
5.227091908454895020e-02
-1.882759481668472290e-02
-2.590924501419067383e-01
-1.002966985106468201e-01
1.576462090015411377e-01
-7.695506326854228973e-03
-2.260334640741348267e-01
1.068868041038513184e-01
1.977462619543075562e-01
1.195133477449417114e-02
-8.343042433261871338e-02
-1.533187925815582275e-01
1.183378845453262329e-01
-1.285562366247177124e-01
-7.268014550209045410e-02
-2.765531465411186218e-02
-2.556715011596679688e-01
-2.335352301597595215e-01
-4.770386591553688049e-02
1.396330446004867554e-01
-1.034565940499305725e-01
-1.097719743847846985e-01
4.038567841053009033e-02
1.217682734131813049e-01
1.469542272388935089e-02
1.215070188045501709e-01
1.525974273681640625e-02
-9.805764257907867432e-02
1.724518984556198120e-01
1.336313039064407349e-01
2.212324440479278564e-01
-2.186322808265686035e-01
1.358187198638916016e-01
4.142000898718833923e-02
2.371595650911331177e-01
-5.210918188095092773e-02
2.947180569171905518e-01
-3.843801841139793396e-02
1.049737855792045593e-01
9.122509509325027466e-02
-2.870749682188034058e-03
-5.345222949981689453e-01
-2.784358337521553040e-02
1.083006709814071655e-01
1.742651760578155518e-01
2.007449120283126831e-01
-1.543845236301422119e-01
6.246762350201606750e-03
1.493094265460968018e-01
2.120159380137920380e-02
-6.680084764957427979e-02
-2.130263596773147583e-01
-3.516381382942199707e-01
5.572109669446945190e-02
-6.517239380627870560e-03
7.074432447552680969e-03
7.483143359422683716e-02
2.300882339477539062e-02
-1.293066237121820450e-02
-3.751130402088165283e-02
8.824852108955383301e-02
-7.047143578529357910e-02
-4.177958145737648010e-02
-8.126164972782135010e-02
-1.611078381538391113e-01
-2.104410156607627869e-02
-1.682470589876174927e-01
-1.007217317819595337e-01
6.602811813354492188e-01
-1.487363874912261963e-01
-1.538224816322326660e-01
1.139345113188028336e-02
1.782312542200088501e-01
-7.944498956203460693e-02
1.289319992065429688e-01
1.237146705389022827e-01
2.467396296560764313e-02
-5.477025732398033142e-02
2.023388147354125977e-01
1.067340373992919922e-01
8.925991505384445190e-02
6.108787655830383301e-02
6.462982296943664551e-02
-2.955346107482910156e-01
-1.383727341890335083e-01
5.226934701204299927e-02
2.960101142525672913e-02
-4.263290390372276306e-02
-7.679857313632965088e-02
2.177464663982391357e-01
-2.859137393534183502e-02
-7.442929595708847046e-02
-5.601498764008283615e-03
1.106017678976058960e-01
-1.164240669459104538e-02
5.413476750254631042e-02
-4.925051704049110413e-03
-1.922500580549240112e-01
1.276785731315612793e-01
-6.559559609740972519e-03
1.799620240926742554e-01
1.661174446344375610e-01
-1.144165992736816406e-01
1.101173460483551025e-01
-1.834184676408767700e-01
6.157205253839492798e-02
2.608217000961303711e-01
-1.504695862531661987e-01
-6.422594189643859863e-02
1.319763213396072388e-01
-1.857518702745437622e-01
1.765863969922065735e-03
-9.899576753377914429e-02
4.468486830592155457e-02
8.690682798624038696e-02
-1.755087822675704956e-01
3.788753598928451538e-02
7.130636274814605713e-02
-5.667059496045112610e-02
-2.358547039330005646e-02
8.239836990833282471e-02
-3.051824308931827545e-02
-2.319945544004440308e-01
1.685198545455932617e-01
-1.454972922801971436e-01
1.815451234579086304e-01
-3.051747567951679230e-02
2.863759994506835938e-01
2.111526429653167725e-01
-2.518820464611053467e-01
-2.585603892803192139e-01
8.195868879556655884e-02
-4.905412718653678894e-02
6.876288354396820068e-02
-8.709337562322616577e-02
-1.894257664680480957e-01
-3.534369170665740967e-02
3.725367486476898193e-01
2.475494742393493652e-01
1.761123389005661011e-01
-1.180515810847282410e-01
3.424946591258049011e-02
-1.033494472503662109e-01
-1.093803048133850098e-01
1.881093978881835938e-01
-2.155531942844390869e-02
-5.741408839821815491e-02
-3.189237788319587708e-02
-1.202030852437019348e-01
-1.221512258052825928e-01
-5.225472897291183472e-02
-2.430315464735031128e-01
-1.477618794888257980e-02
-1.865094900131225586e-02
-1.634408384561538696e-01
2.560775279998779297e-01
7.660406082868576050e-02
-1.762006431818008423e-01
-2.851302735507488251e-02
-2.789562046527862549e-01
-4.763641580939292908e-02
9.708393365144729614e-02
-6.038155988790094852e-04
2.602811753749847412e-01
1.836412698030471802e-01
-7.408472895622253418e-02
-1.717075407505035400e-01
4.815791919827461243e-02
1.828261837363243103e-02
-2.990628965198993683e-02
-4.604975506663322449e-02
-9.654100053012371063e-03
-2.570846676826477051e-02
7.852385938167572021e-02
3.851347789168357849e-02
2.005564607679843903e-02
3.168689310550689697e-01
-2.010151296854019165e-01
1.399756968021392822e-01
7.521267235279083252e-02
-1.255478262901306152e-01
1.169184520840644836e-01
-9.975711256265640259e-02
1.973875761032104492e-01
-2.412560395896434784e-02
-9.366874396800994873e-02
2.144117355346679688e-01
2.588703669607639313e-02
-4.897978901863098145e-02
-2.959431335330009460e-02
9.325255453586578369e-02
-1.739730685949325562e-01
1.142637729644775391e-01
-1.829929649829864502e-01
-5.327608808875083923e-02
3.217887133359909058e-02
-1.618346013128757477e-02
-9.162884205579757690e-02
1.173149347305297852e-01
3.724988549947738647e-02
-5.237127840518951416e-02
3.213712200522422791e-02
1.794819980859756470e-01
1.500148773193359375e-01
1.168100535869598389e-01
2.305194288492202759e-01
1.229394897818565369e-01
-7.634079456329345703e-02
-1.179571300745010376e-01
4.957217350602149963e-02
1.474897265434265137e-01
-2.216583192348480225e-01
-9.537260979413986206e-02
3.042872250080108643e-02
9.428294003009796143e-02
-2.121172845363616943e-01
5.674753338098526001e-02
9.494354575872421265e-02
7.692094147205352783e-02
1.002172082662582397e-01
-1.587272584438323975e-01
2.138664759695529938e-02
4.341176152229309082e-02
-1.292296051979064941e-01
1.754495650529861450e-01
-3.573212772607803345e-02
-1.664536893367767334e-01
7.378303259611129761e-02
-1.345227062702178955e-01
1.444438695907592773e-01
2.644069194793701172e-01
7.087715715169906616e-02
4.099917039275169373e-02
-8.106046169996261597e-02
-2.469894662499427795e-02
2.001924812793731689e-01
-5.637394636869430542e-02
8.083179593086242676e-02
-8.761515468358993530e-02
-6.432252470403909683e-03
-1.390498429536819458e-01
-3.664683923125267029e-02
-6.909779459238052368e-02
-3.208273351192474365e-01
2.837727367877960205e-01
-3.128092288970947266e-01
1.145397201180458069e-01
3.053265810012817383e-01
-1.806702017784118652e-01
1.754098236560821533e-01
7.026441395282745361e-03
-1.981100142002105713e-01
-1.986980624496936798e-02
3.043290078639984131e-01
1.010239571332931519e-01
1.685137897729873657e-01
1.116255894303321838e-01
1.225014310330152512e-02
-2.581615447998046875e-01
-1.891450136899948120e-01
-1.416247040033340454e-01
2.570126578211784363e-02
2.911849915981292725e-01
-9.283155947923660278e-02
1.356256753206253052e-02
1.860231906175613403e-02
-3.548799827694892883e-02
1.515724360942840576e-01
-9.873725473880767822e-02
3.094488009810447693e-02
-4.539208859205245972e-02
-1.968745514750480652e-02
-2.455949336290359497e-01
1.787255555391311646e-01
-1.862151920795440674e-01
-9.792146086692810059e-02
1.184293180704116821e-01
-1.704869209788739681e-03
-9.264056384563446045e-02
-4.571839049458503723e-02
-5.410690978169441223e-02
-4.974143952131271362e-02
-1.341916769742965698e-01
-1.954779177904129028e-01
2.529571950435638428e-02
-3.213746100664138794e-02
5.399848520755767822e-02
1.323202997446060181e-02
2.715290896594524384e-02
7.519047707319259644e-02
-2.305716127157211304e-01
-4.078600928187370300e-02
3.060377202928066254e-02
1.542259752750396729e-01
-3.585100173950195312e-02
3.814460337162017822e-02
2.424269681796431541e-03
-3.069564886391162872e-02
-1.947912126779556274e-01
-1.490714699029922485e-01
-8.134802430868148804e-02
-2.424842119216918945e-01
-1.065463721752166748e-01
-3.844015300273895264e-02
-1.145495218224823475e-03
-1.756308078765869141e-01
-1.510323584079742432e-01
-7.827062159776687622e-02
2.135796993970870972e-01
-5.813838914036750793e-02
6.228220462799072266e-02
1.844766736030578613e-01
-5.102383717894554138e-02
1.559737920761108398e-01
-7.754580676555633545e-02
-1.331710517406463623e-01
2.527873218059539795e-01
8.533955551683902740e-03
-1.294428948312997818e-02
-4.720409587025642395e-02
2.169098518788814545e-02
3.786974772810935974e-02
2.632037401199340820e-01
-2.050876244902610779e-02
8.578863739967346191e-02
9.345643222332000732e-03
-1.266686320304870605e-01
-4.765153676271438599e-02
-1.709232032299041748e-01
1.177019923925399780e-01
7.367918640375137329e-02
-1.122896596789360046e-01
-7.281485199928283691e-02
-1.218518335372209549e-02
1.129871308803558350e-01
1.121757477521896362e-01
-1.234672684222459793e-02
2.767345495522022247e-02
6.802003830671310425e-02
2.091666460037231445e-01
-1.085571423172950745e-01
3.268663883209228516e-01
-1.352495104074478149e-01
-2.536042779684066772e-02
-4.653757065534591675e-02
4.596978425979614258e-03
-1.184110194444656372e-01
-1.161885187029838562e-01
-7.179141044616699219e-02
-9.026006609201431274e-02
-9.322133660316467285e-02
-2.121783494949340820e-01
-4.648198187351226807e-02
7.179535925388336182e-02
-3.536474332213401794e-02
-1.214121952652931213e-01
-2.571015059947967529e-01
-2.945174090564250946e-02
1.031558364629745483e-01
3.735213726758956909e-02
9.131907671689987183e-02
2.300000376999378204e-02
1.680526882410049438e-02
-1.187523081898689270e-01
-3.579706326127052307e-02
2.317985743284225464e-01
-7.974750548601150513e-02
4.657075181603431702e-02
2.174509167671203613e-01
-2.695627510547637939e-01
2.364090830087661743e-02
7.471461314707994461e-03
-2.723380923271179199e-01
1.682318449020385742e-01
1.068155616521835327e-01
-1.057003885507583618e-01
-1.320260204374790192e-02
-1.261127889156341553e-01
1.150083392858505249e-01
6.191248074173927307e-02
-2.509267032146453857e-01
-9.886425919830799103e-03
6.634357571601867676e-02
8.739984780550003052e-02
2.234198525547981262e-02
-1.281960308551788330e-01
-2.979602813720703125e-01
4.331111162900924683e-02
2.930298745632171631e-01
2.322324924170970917e-02
-2.213407456874847412e-01
1.240202039480209351e-01
2.403023540973663330e-01
1.302390545606613159e-01
-1.201655864715576172e-01
1.035705730319023132e-01
-7.162618637084960938e-02
-2.081626281142234802e-02
-2.147568464279174805e-01
-2.380288578569889069e-02
-2.086448669433593750e-01
-5.699544772505760193e-02
3.346238136291503906e-01
1.368413567543029785e-01
-6.770843267440795898e-02
-2.038061469793319702e-01
-6.672433763742446899e-02
1.496434211730957031e-01
4.405356198549270630e-02
2.082794457674026489e-01
6.242334470152854919e-02
1.637856103479862213e-02
6.303070113062858582e-03
1.267135888338088989e-01
-5.014906823635101318e-02
-1.399548351764678955e-01
2.056913822889328003e-01
-8.314561843872070312e-02
1.086318418383598328e-01
8.232455700635910034e-02
-1.960229873657226562e-02
9.149001562036573887e-04
9.095878899097442627e-02
-1.542803831398487091e-02
1.520410776138305664e-01
-7.719793356955051422e-03
-1.264002453535795212e-02
-7.873722910881042480e-02
1.424183994531631470e-01
1.760144904255867004e-02
1.757322624325752258e-02
-1.367894113063812256e-01
1.817562133073806763e-01
-1.577665330842137337e-03
1.451623812317848206e-02
9.111614525318145752e-02
-2.095112800598144531e-01
-1.173601895570755005e-01
5.318233370780944824e-02
-2.699153423309326172e-01
5.487830564379692078e-02
7.127168774604797363e-02
9.216424822807312012e-02
5.262131243944168091e-02
-5.326501652598381042e-02
1.047746539115905762e-01
-2.091370522975921631e-02
-9.913367778062820435e-02
4.437676817178726196e-02
-1.886023767292499542e-02
2.768145799636840820e-01
-1.823879033327102661e-01
3.102503716945648193e-01
-5.141389742493629456e-02
-1.983532309532165527e-02
-1.325574051588773727e-02
-1.675533950328826904e-01
-3.427149355411529541e-02
-9.297760576009750366e-02
-5.658700689673423767e-02
2.990198135375976562e-02
8.518373221158981323e-02
-1.847499012947082520e-01
2.883337438106536865e-02
1.208111457526683807e-02
-1.267197430133819580e-01
-6.107671186327934265e-02
5.067586433142423630e-03
-2.140579819679260254e-01
7.603195309638977051e-02
6.946136057376861572e-02
-1.261468678712844849e-01
8.936201781034469604e-02
-1.548404395580291748e-01
-4.130309075117111206e-02
2.803874611854553223e-01
-3.154417574405670166e-01
-8.547161705791950226e-03
-5.241152271628379822e-02
3.202534914016723633e-01
7.235404103994369507e-03
1.120779514312744141e-01
4.384211003780364990e-01
7.974150031805038452e-02
7.297336310148239136e-02
-1.088979886844754219e-03
-5.348860844969749451e-02
-1.078429222106933594e-01
4.502888768911361694e-02
2.522656321525573730e-01
-1.706255078315734863e-01
2.621046304702758789e-01
7.890135049819946289e-03
-2.607524953782558441e-02
-8.009564131498336792e-02
-4.759793728590011597e-02
1.730703711509704590e-01
1.223774701356887817e-01
3.092935979366302490e-01
1.622469425201416016e-01
7.005536556243896484e-02
6.022401526570320129e-02
6.858889013528823853e-03
1.331096738576889038e-01
8.984409272670745850e-02
1.815583258867263794e-01
2.167903482913970947e-01
-3.599262982606887817e-02
1.151943113654851913e-02
-3.424427807331085205e-01
-2.943962216377258301e-01
-1.495012938976287842e-01
-2.599838376045227051e-01
-9.299086779356002808e-02
-3.174446523189544678e-01
-3.453454701229929924e-03
1.895006895065307617e-01
-6.064341217279434204e-02
-2.022629976272583008e-01
4.743765294551849365e-02
9.401468187570571899e-02
5.835273861885070801e-01
7.342238724231719971e-02
-7.115571945905685425e-02
1.417932212352752686e-01
-1.083087641745805740e-02
8.437022566795349121e-02
8.438310027122497559e-02
1.059896051883697510e-01
6.699159741401672363e-02
7.336605340242385864e-02
2.579871416091918945e-01
-7.141856104135513306e-02
8.363572880625724792e-03
4.972801357507705688e-02
2.877618968486785889e-01
-2.636702656745910645e-01
2.408477067947387695e-01
5.231673642992973328e-02
-1.407044231891632080e-01
-5.469687283039093018e-02
1.453015953302383423e-01
-1.106379553675651550e-02
8.511001616716384888e-02
-2.021330446004867554e-01
1.887522265315055847e-02
-1.420236229896545410e-01
-4.575354978442192078e-02
-3.065207898616790771e-01
1.723661422729492188e-01
1.794911026954650879e-01
-2.249689027667045593e-02
7.188882678747177124e-02
7.670255843549966812e-03
-3.719836100935935974e-02
9.830609709024429321e-02
-7.321517169475555420e-02
9.166571497917175293e-02
-1.222447231411933899e-01
-2.562681585550308228e-02
-7.885260134935379028e-02
2.764471769332885742e-01
-2.983042299747467041e-01
-5.868661403656005859e-02
4.011943936347961426e-01
1.416024565696716309e-02
3.471928462386131287e-02
4.022946208715438843e-02
2.237410657107830048e-02
2.546732723712921143e-01
-8.139286190271377563e-03
-1.264484971761703491e-01
4.406138136982917786e-02
8.995182067155838013e-02
2.011924423277378082e-02
1.956653408706188202e-02
-4.138308763504028320e-02
5.155053734779357910e-02
-1.471087038516998291e-01
2.596496976912021637e-02
4.411235824227333069e-02
9.159163385629653931e-02
9.756062924861907959e-02
1.035772785544395447e-01
3.799002468585968018e-01
1.473037526011466980e-02
-9.019884467124938965e-02
-2.779918909072875977e-01
5.138541013002395630e-02
-5.194316804409027100e-02
-8.072366565465927124e-02
-8.104961365461349487e-02
1.762222498655319214e-02
-7.834798842668533325e-02
-2.966210246086120605e-02
-4.390768706798553467e-02
2.825039811432361603e-02
-7.638690620660781860e-02
4.527489468455314636e-02
8.592125028371810913e-02
-1.187043190002441406e-01
4.435173794627189636e-02
-2.223089188337326050e-01
-2.675382196903228760e-01
2.384864091873168945e-01
3.949530795216560364e-02
-7.666753977537155151e-02
-5.617263168096542358e-02
1.340555846691131592e-01
1.928030401468276978e-01
1.727906316518783569e-01
1.094871480017900467e-02
6.684502959251403809e-02
7.787553966045379639e-02
8.105453848838806152e-02
-1.432210355997085571e-01
-4.734381288290023804e-02
-7.791995257139205933e-02
-6.236714869737625122e-02
-2.605105377733707428e-02
3.081642277538776398e-02
-9.912183135747909546e-02
-1.850981116294860840e-01
8.040753006935119629e-02
1.093492209911346436e-01
4.785908386111259460e-02
1.123881042003631592e-01
-1.041476279497146606e-01
-2.944735586643218994e-01
1.804078966379165649e-01
-2.306268662214279175e-01
-1.009700819849967957e-01
-2.299775332212448120e-01
9.812255948781967163e-02
1.042176857590675354e-01
6.603903137147426605e-03
2.060500383377075195e-01
-4.491550102829933167e-02
1.533259171992540359e-02
-1.016096025705337524e-01
8.495558053255081177e-03
1.795992255210876465e-02
5.963947996497154236e-02
4.620808735489845276e-02
-4.642281681299209595e-02
2.378141731023788452e-01
7.601923495531082153e-02
1.101198067772202194e-04
-1.251926645636558533e-02
5.331018567085266113e-02
-2.148418873548507690e-01
2.406864613294601440e-01
1.582823321223258972e-02
1.751570850610733032e-01
-2.584718465805053711e-01
1.455606985837221146e-02
-7.593100517988204956e-02
-6.042829528450965881e-02
-7.655643671751022339e-02
-1.026461273431777954e-02
6.921846419572830200e-02
2.363694161176681519e-01
-2.367733120918273926e-01
-1.182897761464118958e-01
-4.603830724954605103e-02
-1.158831939101219177e-01
6.086526066064834595e-02
-1.089454144239425659e-01
-1.572721898555755615e-01
8.109360188245773315e-02
1.145662590861320496e-01
-4.218109697103500366e-02
4.390458110719919205e-03
2.693838439881801605e-02
-2.823328971862792969e-01
5.044791847467422485e-02
-2.575841918587684631e-02
-8.716375380754470825e-02
-3.235672786831855774e-02
-1.013052910566329956e-01
-1.267633438110351562e-01
1.968299001455307007e-01
-3.388985991477966309e-01
7.590604573488235474e-02
1.637812256813049316e-01
-8.646059036254882812e-02
-1.486805826425552368e-01
-1.212988346815109253e-01
-1.063149422407150269e-01
8.861822076141834259e-03
4.069263041019439697e-01
1.037249639630317688e-01
-9.703535470180213451e-04
-5.204859375953674316e-02
1.039465703070163727e-02
-6.819908320903778076e-02
2.002687007188796997e-01
1.953934282064437866e-01
9.308204799890518188e-02
-2.241887003183364868e-01
2.485061138868331909e-01
2.540199644863605499e-02
-5.401469394564628601e-02
-2.197147160768508911e-01
-9.056653082370758057e-02
1.564633846282958984e-01
-1.780498772859573364e-01
-3.708010911941528320e-02
-5.410971865057945251e-02
1.610859036445617676e-01
-1.759904026985168457e-01
5.097661539912223816e-02
1.040604636073112488e-01
6.529767066240310669e-02
-7.935146987438201904e-02
-6.941612064838409424e-02
1.263089925050735474e-01
9.175206720829010010e-02
-1.295082122087478638e-01
-3.218906000256538391e-02
6.471753865480422974e-02
-6.397557258605957031e-02
3.339816629886627197e-02
1.398806422948837280e-01
1.518431454896926880e-01
1.249293610453605652e-01
-7.407680153846740723e-02
-9.707334637641906738e-02
4.650666937232017517e-02
2.728437446057796478e-02
2.093453407287597656e-01
-2.051761001348495483e-01
-2.990690767765045166e-01
1.555994618684053421e-03
2.381171844899654388e-02
7.315904647111892700e-02
8.095007389783859253e-02
-1.671519502997398376e-02
1.656730920076370239e-01
-3.008064925670623779e-01
3.266202807426452637e-01
2.074091928079724312e-03
1.326892971992492676e-01
5.664816498756408691e-02
-2.180842682719230652e-02
-4.640885815024375916e-02
1.439895182847976685e-01
-9.344048053026199341e-02
3.279436752200126648e-02
9.012351743876934052e-03
-1.050796583294868469e-01
-8.326343446969985962e-02
-1.610870957374572754e-01
-3.512573661282658577e-03
-1.603909432888031006e-01
1.643615067005157471e-01
1.378037780523300171e-01
-1.045638769865036011e-01
4.385272413492202759e-02
-2.248888611793518066e-01
1.474625468254089355e-01
-7.365513592958450317e-03
-4.339694976806640625e-03
3.326548039913177490e-01
-2.943371422588825226e-02
6.199460942298173904e-03
-6.434784084558486938e-02
3.996861279010772705e-01
-9.453334659337997437e-02
2.561063468456268311e-01
1.459091901779174805e-01
3.823862224817276001e-02
1.088830642402172089e-02
2.912688441574573517e-02
-1.997893154621124268e-01
1.085725128650665283e-01
1.763370931148529053e-01
1.702413111925125122e-01
-1.916775256395339966e-01
-1.412297040224075317e-01
-1.115004941821098328e-01
-1.036784201860427856e-01
-2.206729352474212646e-01
4.304812848567962646e-02
3.827776312828063965e-01
4.453963134437799454e-03
-3.266691416501998901e-02
7.307367771863937378e-02
-2.771253511309623718e-02
-1.681474894285202026e-01
-5.453878641128540039e-02
2.287753820419311523e-01
1.666149124503135681e-02
1.504285819828510284e-02
-2.148379236459732056e-01
-4.715657606720924377e-02
7.736458629369735718e-02
-2.896075546741485596e-01
-3.806864023208618164e-01
4.710071906447410583e-02
-5.852615833282470703e-02
-7.822737842798233032e-02
-1.869104504585266113e-01
-6.582267116755247116e-03
2.343824505805969238e-01
-5.749573931097984314e-02
-3.020952343940734863e-01
-1.148613542318344116e-01
6.348643451929092407e-02
5.227408409118652344e-01
2.327886410057544708e-02
