-2.772894799709320068e-01
3.616229891777038574e-01
2.917982339859008789e-01
-2.107244431972503662e-01
-3.423122763633728027e-01
2.354269474744796753e-01
-1.687307059764862061e-01
4.150230884552001953e-01
1.828954964876174927e-01
-2.957791686058044434e-01
-4.264069199562072754e-01
-2.502786815166473389e-01
-2.863254547119140625e-01
-3.796962499618530273e-01
3.824977576732635498e-01
3.602101802825927734e-01
3.611828088760375977e-01
-2.853690683841705322e-01
-5.821708440780639648e-01
2.985335886478424072e-01
-2.435335963964462280e-01
-3.518423438072204590e-01
2.780081033706665039e-01
2.954474985599517822e-01
-3.658129572868347168e-01
3.809653520584106445e-01
3.142184019088745117e-01
-1.048036217689514160e-01
1.585075259208679199e-01
1.431106030941009521e-01
-3.951150178909301758e-01
-4.349741637706756592e-01
-4.527864512056112289e-03
3.278871178627014160e-01
4.719310700893402100e-01
-5.243865847587585449e-01
3.530305922031402588e-01
2.106209695339202881e-01
-5.133338570594787598e-01
2.118667662143707275e-01
-3.525980710983276367e-01
-4.551135599613189697e-01
-4.721993803977966309e-01
3.607392907142639160e-01
-3.328972458839416504e-01
-3.073959350585937500e-01
2.375013530254364014e-01
3.094686567783355713e-01
-3.403415977954864502e-01
-5.020349025726318359e-01
-4.121131002902984619e-01
3.064973950386047363e-01
-3.595068752765655518e-01
-2.865410596132278442e-02
4.169683754444122314e-01
-1.390403211116790771e-01
3.360878527164459229e-01
1.392191201448440552e-01
-4.560912549495697021e-01
2.485621273517608643e-01
-2.153131812810897827e-01
2.628572285175323486e-01
-1.954154670238494873e-01
-4.539528191089630127e-01
-4.641607999801635742e-01
3.340782523155212402e-01
3.057742118835449219e-01
-3.525660634040832520e-01
-3.666349053382873535e-01
-4.012337028980255127e-01
-3.444364964962005615e-01
-3.075948059558868408e-01
2.320794612169265747e-01
-2.707878351211547852e-01
3.079093396663665771e-01
-3.903210461139678955e-01
-4.081420302391052246e-01
3.564144670963287354e-01
-3.499985039234161377e-01
4.654852151870727539e-01
3.188410699367523193e-01
4.648039638996124268e-01
-3.472546637058258057e-01
3.679358065128326416e-01
-2.074185609817504883e-01
-4.899071156978607178e-01
-4.515266120433807373e-01
-4.353213012218475342e-01
3.937608301639556885e-01
-6.895262002944946289e-01
-2.835841774940490723e-01
-3.257095515727996826e-01
2.287530004978179932e-01
-4.662987589836120605e-01
2.220081835985183716e-01
3.390174806118011475e-01
-2.275524884462356567e-01
-2.740181982517242432e-01
4.228596091270446777e-01
-6.764308810234069824e-01
-2.585230469703674316e-01
2.329150587320327759e-01
-4.685859978199005127e-01
3.180898725986480713e-01
-6.500764489173889160e-01
-3.424124419689178467e-01
3.993006944656372070e-01
-3.865958750247955322e-01
4.647914767265319824e-01
-1.653838902711868286e-01
3.584535121917724609e-01
-7.183080166578292847e-02
2.853237390518188477e-01
4.117943048477172852e-01
-4.400037527084350586e-01
-2.918776869773864746e-01
4.299865067005157471e-01
-3.354346454143524170e-01
-9.587990045547485352e-01
-2.008198499679565430e-01
-1.316064745187759399e-01
1.841713339090347290e-01
3.735861182212829590e-01
2.581529915332794189e-01
-3.076491951942443848e-01
-3.170498609542846680e-01
2.218512445688247681e-01
3.991830646991729736e-01
-5.716488361358642578e-01
-4.021053612232208252e-01
4.639431536197662354e-01
-1.888339221477508545e-01
3.296151161193847656e-01
6.455933302640914917e-02
2.907501757144927979e-01
-2.698820233345031738e-01
2.492655664682388306e-01
-3.967902660369873047e-01
-3.502621948719024658e-01
-2.641671299934387207e-01
2.851741313934326172e-01
-2.269168347120285034e-01
-5.264046788215637207e-01
-2.951413393020629883e-01
-4.144514799118041992e-01
-1.564724147319793701e-01
-2.420509606599807739e-01
2.522545754909515381e-01
3.298468887805938721e-01
2.079241573810577393e-01
-4.350149631500244141e-01
2.256513237953186035e-01
-1.079428766388446093e-04
4.559949934482574463e-01
-4.012806713581085205e-01
2.688879072666168213e-01
-3.172176778316497803e-01
-3.947831690311431885e-01
-3.731399178504943848e-01
7.521482557058334351e-02
1.455158293247222900e-01
3.151836395263671875e-01
-2.532572448253631592e-01
-2.946199476718902588e-01
2.917869389057159424e-01
2.040956467390060425e-01
-4.865330159664154053e-01
-1.879905760288238525e-01
3.273955285549163818e-01
-5.283107161521911621e-01
3.687224090099334717e-01
2.504970133304595947e-01
3.165454864501953125e-01
3.869264423847198486e-01
2.203366532921791077e-02
-4.700110852718353271e-01
-1.857010424137115479e-01
3.944095969200134277e-01
-4.196724593639373779e-01
4.625698924064636230e-01
-4.467563033103942871e-01
-3.534184396266937256e-01
3.461277484893798828e-01
-4.160762131214141846e-01
2.645134329795837402e-01
1.959629505872726440e-01
2.609702348709106445e-01
3.088046908378601074e-01
5.429097414016723633e-01
-4.437811672687530518e-01
-4.385452866554260254e-01
-1.347239315509796143e-01
3.012590706348419189e-01
1.467082947492599487e-01
2.587715089321136475e-01
4.207493066787719727e-01
4.782801866531372070e-02
2.102592736482620239e-01
3.448339402675628662e-01
1.162910610437393188e-01
1.333159208297729492e-01
-1.532114744186401367e-01
2.642250359058380127e-01
3.554131686687469482e-01
-1.318288147449493408e-01
2.484545111656188965e-01
-3.348902463912963867e-01
-9.291026741266250610e-02
2.140450775623321533e-01
-2.358179986476898193e-01
-4.085650146007537842e-01
2.160617560148239136e-01
-2.709680497646331787e-01
-1.671240776777267456e-01
3.410108685493469238e-01
2.115745097398757935e-01
2.477719336748123169e-01
-5.138579607009887695e-01
-3.380242884159088135e-01
-2.178434133529663086e-01
2.046284079551696777e-01
3.424046337604522705e-01
4.112384319305419922e-01
-1.814788728952407837e-01
-2.636150121688842773e-01
-3.058274388313293457e-01
-4.793095886707305908e-01
3.662299811840057373e-01
-3.060666322708129883e-01
1.271913945674896240e-01
1.748101115226745605e-01
9.577580541372299194e-02
-7.772641722112894058e-03
-2.712529003620147705e-01
-2.962790727615356445e-01
-1.019332334399223328e-01
-3.415215015411376953e-01
-4.337658584117889404e-01
2.984768152236938477e-01
-4.800982177257537842e-01
2.714035511016845703e-01
-1.339204460382461548e-01
4.299385249614715576e-01
2.593527436256408691e-01
-3.318646848201751709e-01
3.002974390983581543e-01
-5.485036969184875488e-01
3.230283260345458984e-01
-3.154919743537902832e-01
3.383745998144149780e-02
-2.256601452827453613e-01
8.511012792587280273e-02
-2.066284865140914917e-01
8.749196678400039673e-02
-4.489108026027679443e-01
7.747272402048110962e-02
-1.973515748977661133e-01
-5.113716125488281250e-01
2.800043225288391113e-01
1.882323250174522400e-02
-1.826957166194915771e-01
-5.251961350440979004e-01
2.747144401073455811e-01
-4.449311494827270508e-01
2.502865195274353027e-01
-4.568573832511901855e-01
-1.710374355316162109e-01
1.014244183897972107e-01
3.456802666187286377e-01
-3.419781029224395752e-01
-2.972015142440795898e-01
-6.537571549415588379e-01
-3.334183990955352783e-01
4.536902606487274170e-01
-2.810420393943786621e-01
-9.167495369911193848e-02
4.080056548118591309e-01
2.888171672821044922e-01
-4.404496848583221436e-01
2.781696915626525879e-01
4.444801509380340576e-01
-6.156058311462402344e-01
3.841088712215423584e-01
3.675087690353393555e-01
4.109551012516021729e-01
-1.455097347497940063e-01
-1.992177516222000122e-01
-5.867542624473571777e-01
3.468828201293945312e-01
-5.126930475234985352e-01
-3.007078170776367188e-01
3.863312602043151855e-01
2.982874512672424316e-01
1.365715563297271729e-01
-4.815873131155967712e-02
2.917160391807556152e-01
1.389755606651306152e-01
2.551905810832977295e-01
3.571595251560211182e-01
1.815298199653625488e-01
1.536879241466522217e-01
1.609677821397781372e-01
-3.579042553901672363e-01
1.743393838405609131e-01
-3.708468079566955566e-01
3.084546327590942383e-01
-2.880223691463470459e-01
-3.059962093830108643e-01
-6.806012988090515137e-01
-3.029865026473999023e-01
-3.852077424526214600e-01
4.116484224796295166e-01
-7.545191794633865356e-02
1.303149014711380005e-01
2.718810439109802246e-01
6.395211070775985718e-02
-3.037844002246856689e-01
-3.365671336650848389e-01
3.816601932048797607e-01
-4.838270246982574463e-01
-5.483269691467285156e-01
-3.253604769706726074e-01
-2.774923443794250488e-01
-3.848455250263214111e-01
4.125212728977203369e-01
3.825507164001464844e-01
-2.892931401729583740e-01
-6.047850474715232849e-02
-5.161176919937133789e-01
3.430475890636444092e-01
4.548005461692810059e-01
4.168790876865386963e-01
4.135730564594268799e-01
3.767701089382171631e-01
3.097808957099914551e-01
-4.348019957542419434e-01
-2.676219642162322998e-01
-1.814604699611663818e-01
4.383121430873870850e-01
-4.233399629592895508e-01
-2.695161402225494385e-01
2.931315004825592041e-01
-6.348593235015869141e-01
-4.876703023910522461e-01
-4.303925335407257080e-01
2.403430640697479248e-01
-2.681162357330322266e-01
1.817326396703720093e-01
-2.892131209373474121e-01
-4.435987174510955811e-01
-3.947150409221649170e-01
2.344483882188796997e-01
-1.366918683052062988e-01
3.167365491390228271e-01
3.574686944484710693e-01
-5.649767518043518066e-01
-3.076093494892120361e-01
-4.909905791282653809e-01
2.488843649625778198e-01
-1.900634318590164185e-01
-9.113704562187194824e-01
-1.984578967094421387e-01
-3.967490196228027344e-01
-4.875837266445159912e-01
-3.469305932521820068e-01
4.256528019905090332e-01
5.229109525680541992e-01
-2.575914561748504639e-01
9.920294582843780518e-02
-6.696044206619262695e-01
3.848717212677001953e-01
-3.640906214714050293e-01
3.141257762908935547e-01
2.724526226520538330e-01
-7.323389649391174316e-01
-3.168998956680297852e-01
3.505417406558990479e-01
4.781349599361419678e-01
-4.149657487869262695e-01
-2.631048858165740967e-01
2.826080918312072754e-01
2.750594019889831543e-01
2.533414959907531738e-01
-4.728489518165588379e-01
-4.928466379642486572e-01
-2.916306853294372559e-01
-3.069311976432800293e-01
-3.592630922794342041e-01
2.469802796840667725e-01
4.059062302112579346e-01
3.254131674766540527e-01
-5.731955543160438538e-02
1.948800683021545410e-01
2.024016380310058594e-01
-4.357816874980926514e-01
-5.338701009750366211e-01
1.677316874265670776e-01
-4.541375339031219482e-01
2.848014533519744873e-01
6.283096224069595337e-02
-2.641886472702026367e-01
-4.386245012283325195e-01
-2.779299616813659668e-01
3.465741872787475586e-01
-1.897362768650054932e-01
1.285780817270278931e-01
4.651955366134643555e-01
1.538434028625488281e-01
-3.975799977779388428e-01
-4.831263720989227295e-01
2.992033958435058594e-01
-4.774052500724792480e-01
-3.144122958183288574e-01
4.686977565288543701e-01
-4.819099605083465576e-01
-5.215919017791748047e-01
3.997586071491241455e-01
1.600142270326614380e-01
-3.632799386978149414e-01
-2.346047759056091309e-02
3.239500522613525391e-01
1.294693648815155029e-01
2.540998160839080811e-01
3.977623879909515381e-01
3.694283962249755859e-01
-6.690153479576110840e-02
2.301508039236068726e-01
4.371638596057891846e-02
3.486437797546386719e-01
-1.338730305433273315e-01
-3.593127429485321045e-01
2.150776982307434082e-01
-9.958052635192871094e-02
4.539982602000236511e-02
-3.159071505069732666e-01
2.429073452949523926e-01
-1.646268516778945923e-01
-6.054013371467590332e-01
1.613566279411315918e-01
5.537092685699462891e-01
2.705503702163696289e-01
1.770156770944595337e-01
8.216439187526702881e-02
1.973353326320648193e-01
-5.918195247650146484e-01
3.411960005760192871e-01
-4.615968465805053711e-01
-3.233446776866912842e-01
3.372074365615844727e-01
3.091123104095458984e-01
-3.734510838985443115e-01
3.248432874679565430e-01
-5.986076593399047852e-01
-6.129516363143920898e-01
-3.480159342288970947e-01
8.591163903474807739e-02
-2.071517407894134521e-01
2.401212304830551147e-01
-4.492888152599334717e-01
-2.714080270379781723e-03
-4.122909605503082275e-01
2.273805886507034302e-01
2.540455758571624756e-01
3.087940514087677002e-01
4.234635829925537109e-01
3.280855119228363037e-01
3.639170825481414795e-01
-3.739239871501922607e-01
-1.366152167320251465e-01
2.805365920066833496e-01
-9.022409319877624512e-01
3.048808313906192780e-03
-3.022786974906921387e-01
3.615632355213165283e-01
3.598409295082092285e-01
1.704014688730239868e-01
-3.629458546638488770e-01
4.503335058689117432e-01
-3.858871161937713623e-01
1.636988222599029541e-01
4.657673537731170654e-01
-1.129784956574440002e-01
2.717675268650054932e-01
-4.242365658283233643e-01
-2.782552838325500488e-01
-3.647072613239288330e-01
1.852311789989471436e-01
-3.703549504280090332e-01
-6.160545349121093750e-01
3.362782895565032959e-01
-3.143278658390045166e-01
-3.234405517578125000e-01
-3.432210683822631836e-01
-4.302799701690673828e-01
-3.416228890419006348e-01
2.125720828771591187e-01
3.608973622322082520e-01
-5.076243281364440918e-01
2.190606892108917236e-01
-2.590163052082061768e-01
2.633622288703918457e-01
1.256476044654846191e-01
2.563774883747100830e-01
-4.929711222648620605e-01
-1.612811163067817688e-02
-4.234594404697418213e-01
-3.411113917827606201e-01
-4.504694938659667969e-01
1.454094052314758301e-01
-2.363393157720565796e-01
1.142512708902359009e-01
3.542951941490173340e-01
3.220503926277160645e-01
3.876395523548126221e-01
-4.467512369155883789e-01
-4.514177143573760986e-01
2.685464918613433838e-01
-3.331617712974548340e-01
3.687101304531097412e-01
4.081821739673614502e-01
-5.802214741706848145e-01
4.810860455036163330e-01
4.826309978961944580e-01
-3.677858710289001465e-01
6.982183456420898438e-02
-4.439688324928283691e-01
-4.874458014965057373e-01
1.132363900542259216e-01
-3.370296061038970947e-01
2.264069020748138428e-01
-5.501071214675903320e-01
-3.875994980335235596e-01
2.842785120010375977e-01
1.808108240365982056e-01
4.695297479629516602e-01
3.071668148040771484e-01
2.206334471702575684e-01
-7.147791981697082520e-01
1.979320198297500610e-01
2.266861051321029663e-01
-4.610675573348999023e-01
-7.901765108108520508e-01
3.376910388469696045e-01
3.590635061264038086e-01
-4.444666206836700439e-01
1.976429820060729980e-01
-1.601240783929824829e-01
-8.759739995002746582e-01
-4.838092923164367676e-01
3.010707795619964600e-01
-4.792422950267791748e-01
-2.950265407562255859e-01
4.149141609668731689e-01
2.493418455123901367e-01
-4.461129009723663330e-01
7.317314296960830688e-02
-4.731825888156890869e-01
2.883208990097045898e-01
-3.266428112983703613e-01
3.714122176170349121e-01
-3.874414563179016113e-01
-6.927969455718994141e-01
-5.258520841598510742e-01
-1.184296086430549622e-01
2.448614090681076050e-01
3.175980448722839355e-01
-1.136626720428466797e+00
5.051034092903137207e-01
4.243407845497131348e-01
-4.145812392234802246e-01
3.987596631050109863e-01
-4.976996183395385742e-01
1.429410725831985474e-01
3.687395155429840088e-01
1.674984544515609741e-01
-4.987385869026184082e-01
3.200188279151916504e-01
-4.845674037933349609e-01
-2.885007858276367188e-01
3.403985500335693359e-01
-5.448977947235107422e-01
-2.203849256038665771e-01
-4.300366938114166260e-01
2.873500287532806396e-01
-4.712522923946380615e-01
-4.451082646846771240e-01
-5.122281312942504883e-01
2.699856758117675781e-01
3.356971144676208496e-01
2.546966969966888428e-01
3.030224144458770752e-01
2.662277817726135254e-01
-3.870808482170104980e-01
1.799250692129135132e-01
3.475069105625152588e-01
-2.991796433925628662e-01
4.435003399848937988e-01
-4.820712208747863770e-01
-5.816982388496398926e-01
-4.496941566467285156e-01
3.529224395751953125e-01
-4.984509050846099854e-01
-2.971889674663543701e-01
1.849592030048370361e-01
-2.960741817951202393e-01
-3.718873262405395508e-01
3.471629619598388672e-01
1.399087458848953247e-01
-2.846926450729370117e-01
3.518198430538177490e-01
-3.497084379196166992e-01
4.568769633769989014e-01
-2.512802779674530029e-01
-4.211891293525695801e-01
1.773022711277008057e-01
-3.011976778507232666e-01
-6.079779863357543945e-01
3.191017210483551025e-01
-2.362563163042068481e-01
4.534775316715240479e-01
4.649013578891754150e-01
2.665529847145080566e-01
-3.607624471187591553e-01
2.542231976985931396e-01
-2.295835465192794800e-01
-5.006358027458190918e-01
2.565599381923675537e-01
-3.238923847675323486e-01
-4.729992747306823730e-01
2.271979153156280518e-01
4.191879928112030029e-01
-3.972482383251190186e-01
-4.452915787696838379e-01
-3.803079724311828613e-01
-4.143521487712860107e-01
-3.874053061008453369e-01
1.911247223615646362e-01
3.867591023445129395e-01
1.569360494613647461e-01
4.281780421733856201e-01
